digraph Tree {
node [shape=box, style="filled, rounded", color="black", fontname=helvetica] ;
edge [fontname=helvetica] ;
0 [label="GymBadgePerm4 <= -0.5\ngini = 0.03\nsamples = 42723\nvalue = [66238, 1186]\nclass = 0", fillcolor="#e58139fa"] ;
1 [label="JobStatusTemp <= -0.5\ngini = 0.17\nsamples = 2815\nvalue = [4050, 414]\nclass = 0", fillcolor="#e58139e5"] ;
0 -> 1 [labeldistance=2.5, labelangle=45, headlabel="True"] ;
2 [label="InternalEmployee <= 0.5\ngini = 0.41\nsamples = 157\nvalue = [178, 73]\nclass = 0", fillcolor="#e5813996"] ;
1 -> 2 ;
3 [label="JobPostingDate <= 107.5\ngini = 0.38\nsamples = 147\nvalue = [177, 59]\nclass = 0", fillcolor="#e58139aa"] ;
2 -> 3 ;
4 [label="PositionForTrainingPokemon <= 25.0\ngini = 0.08\nsamples = 82\nvalue = [129, 6]\nclass = 0", fillcolor="#e58139f3"] ;
3 -> 4 ;
5 [label="gini = 0.06\nsamples = 80\nvalue = [129, 4]\nclass = 0", fillcolor="#e58139f7"] ;
4 -> 5 ;
6 [label="gini = 0.0\nsamples = 2\nvalue = [0, 2]\nclass = 1", fillcolor="#399de5ff"] ;
4 -> 6 ;
7 [label="HighEduLevelCompleted <= -0.5\ngini = 0.5\nsamples = 65\nvalue = [48, 53]\nclass = 1", fillcolor="#399de518"] ;
3 -> 7 ;
8 [label="gini = 0.46\nsamples = 54\nvalue = [30, 53]\nclass = 1", fillcolor="#399de56f"] ;
7 -> 8 ;
9 [label="gini = 0.0\nsamples = 11\nvalue = [18, 0]\nclass = 0", fillcolor="#e58139ff"] ;
7 -> 9 ;
10 [label="gini = 0.12\nsamples = 10\nvalue = [1, 14]\nclass = 1", fillcolor="#399de5ed"] ;
2 -> 10 ;
11 [label="ApplicationType <= 1.0\ngini = 0.15\nsamples = 2658\nvalue = [3872, 341]\nclass = 0", fillcolor="#e58139e9"] ;
1 -> 11 ;
12 [label="HighEduLevelCompleted <= 8.0\ngini = 0.13\nsamples = 2580\nvalue = [3796, 289]\nclass = 0", fillcolor="#e58139ec"] ;
11 -> 12 ;
13 [label="TotalYearsOfExp <= 4.0\ngini = 0.12\nsamples = 2478\nvalue = [3662, 240]\nclass = 0", fillcolor="#e58139ee"] ;
12 -> 13 ;
14 [label="gini = 0.09\nsamples = 1405\nvalue = [2105, 99]\nclass = 0", fillcolor="#e58139f3"] ;
13 -> 14 ;
15 [label="gini = 0.15\nsamples = 1073\nvalue = [1557, 141]\nclass = 0", fillcolor="#e58139e8"] ;
13 -> 15 ;
16 [label="RecentTrainingExperience2To <= 393.5\ngini = 0.39\nsamples = 102\nvalue = [134, 49]\nclass = 0", fillcolor="#e58139a2"] ;
12 -> 16 ;
17 [label="gini = 0.41\nsamples = 84\nvalue = [112, 46]\nclass = 0", fillcolor="#e5813996"] ;
16 -> 17 ;
18 [label="gini = 0.21\nsamples = 18\nvalue = [22, 3]\nclass = 0", fillcolor="#e58139dc"] ;
16 -> 18 ;
19 [label="GymBadge2Pokemon <= 1.5\ngini = 0.48\nsamples = 78\nvalue = [76, 52]\nclass = 0", fillcolor="#e5813951"] ;
11 -> 19 ;
20 [label="JobShiftRotating <= 0.5\ngini = 0.47\nsamples = 68\nvalue = [70, 41]\nclass = 0", fillcolor="#e581396a"] ;
19 -> 20 ;
21 [label="gini = 0.5\nsamples = 47\nvalue = [39, 33]\nclass = 0", fillcolor="#e5813927"] ;
20 -> 21 ;
22 [label="gini = 0.33\nsamples = 21\nvalue = [31, 8]\nclass = 0", fillcolor="#e58139bd"] ;
20 -> 22 ;
23 [label="gini = 0.46\nsamples = 10\nvalue = [6, 11]\nclass = 1", fillcolor="#399de574"] ;
19 -> 23 ;
24 [label="GymBadgePerm1 <= 0.5\ngini = 0.02\nsamples = 39908\nvalue = [62188, 772]\nclass = 0", fillcolor="#e58139fc"] ;
0 -> 24 [labeldistance=2.5, labelangle=-45, headlabel="False"] ;
25 [label="RecentTrainingExperience1From <= 454.5\ngini = 0.02\nsamples = 26735\nvalue = [41776, 368]\nclass = 0", fillcolor="#e58139fd"] ;
24 -> 25 ;
26 [label="RecentTrainingExperience3PayRateEndValue <= 1758.5\ngini = 0.01\nsamples = 20567\nvalue = [32177, 243]\nclass = 0", fillcolor="#e58139fd"] ;
25 -> 26 ;
27 [label="RecentTrainingExperience4To <= 194.5\ngini = 0.01\nsamples = 20562\nvalue = [32170, 241]\nclass = 0", fillcolor="#e58139fd"] ;
26 -> 27 ;
28 [label="gini = 0.02\nsamples = 15086\nvalue = [23692, 203]\nclass = 0", fillcolor="#e58139fd"] ;
27 -> 28 ;
29 [label="gini = 0.01\nsamples = 5476\nvalue = [8478, 38]\nclass = 0", fillcolor="#e58139fe"] ;
27 -> 29 ;
30 [label="gini = 0.35\nsamples = 5\nvalue = [7, 2]\nclass = 0", fillcolor="#e58139b6"] ;
26 -> 30 ;
31 [label="RecentTrainingExperience2PayRateEndFreq <= 0.5\ngini = 0.03\nsamples = 6168\nvalue = [9599, 125]\nclass = 0", fillcolor="#e58139fc"] ;
25 -> 31 ;
32 [label="ApplicationType <= 1.0\ngini = 0.03\nsamples = 2060\nvalue = [3222, 56]\nclass = 0", fillcolor="#e58139fb"] ;
31 -> 32 ;
33 [label="gini = 0.02\nsamples = 2016\nvalue = [3177, 32]\nclass = 0", fillcolor="#e58139fc"] ;
32 -> 33 ;
34 [label="gini = 0.45\nsamples = 44\nvalue = [45, 24]\nclass = 0", fillcolor="#e5813977"] ;
32 -> 34 ;
35 [label="ApplicationType <= 1.0\ngini = 0.02\nsamples = 4108\nvalue = [6377, 69]\nclass = 0", fillcolor="#e58139fc"] ;
31 -> 35 ;
36 [label="gini = 0.01\nsamples = 4033\nvalue = [6283, 39]\nclass = 0", fillcolor="#e58139fd"] ;
35 -> 36 ;
37 [label="gini = 0.37\nsamples = 75\nvalue = [94, 30]\nclass = 0", fillcolor="#e58139ae"] ;
35 -> 37 ;
38 [label="TotalYearsOfExp <= 0.0\ngini = 0.04\nsamples = 13173\nvalue = [20412, 404]\nclass = 0", fillcolor="#e58139fa"] ;
24 -> 38 ;
39 [label="ApplicationType <= 1.0\ngini = 0.39\nsamples = 382\nvalue = [434, 155]\nclass = 0", fillcolor="#e58139a4"] ;
38 -> 39 ;
40 [label="GymBadge1Pokemon <= -0.5\ngini = 0.05\nsamples = 111\nvalue = [166, 4]\nclass = 0", fillcolor="#e58139f9"] ;
39 -> 40 ;
41 [label="gini = 0.11\nsamples = 37\nvalue = [50, 3]\nclass = 0", fillcolor="#e58139f0"] ;
40 -> 41 ;
42 [label="gini = 0.02\nsamples = 74\nvalue = [116, 1]\nclass = 0", fillcolor="#e58139fd"] ;
40 -> 42 ;
43 [label="RecentTrainingExperience4From <= 469.5\ngini = 0.46\nsamples = 271\nvalue = [268, 151]\nclass = 0", fillcolor="#e581396f"] ;
39 -> 43 ;
44 [label="gini = 0.45\nsamples = 266\nvalue = [268, 141]\nclass = 0", fillcolor="#e5813979"] ;
43 -> 44 ;
45 [label="gini = 0.0\nsamples = 5\nvalue = [0, 10]\nclass = 1", fillcolor="#399de5ff"] ;
43 -> 45 ;
46 [label="PositionForTrainingPokemon <= 27.5\ngini = 0.02\nsamples = 12791\nvalue = [19978, 249]\nclass = 0", fillcolor="#e58139fc"] ;
38 -> 46 ;
47 [label="ApplyDate <= 178.5\ngini = 0.02\nsamples = 11904\nvalue = [18636, 207]\nclass = 0", fillcolor="#e58139fc"] ;
46 -> 47 ;
48 [label="gini = 0.05\nsamples = 996\nvalue = [1534, 38]\nclass = 0", fillcolor="#e58139f9"] ;
47 -> 48 ;
49 [label="gini = 0.02\nsamples = 10908\nvalue = [17102, 169]\nclass = 0", fillcolor="#e58139fc"] ;
47 -> 49 ;
50 [label="GymBadge1Pokemon <= 30.5\ngini = 0.06\nsamples = 887\nvalue = [1342, 42]\nclass = 0", fillcolor="#e58139f7"] ;
46 -> 50 ;
51 [label="gini = 0.05\nsamples = 843\nvalue = [1277, 33]\nclass = 0", fillcolor="#e58139f8"] ;
50 -> 51 ;
52 [label="gini = 0.21\nsamples = 44\nvalue = [65, 9]\nclass = 0", fillcolor="#e58139dc"] ;
50 -> 52 ;
}