digraph Tree {
node [shape=box, style="filled, rounded", color="black", fontname=helvetica] ;
edge [fontname=helvetica] ;
0 [label="JobStatusTemp <= -0.5\ngini = 0.04\nsamples = 42685\nvalue = [66189, 1235]\nclass = 0", fillcolor="#e58139fa"] ;
1 [label="ApplyDate <= 1330.5\ngini = 0.46\nsamples = 168\nvalue = [164, 94]\nclass = 0", fillcolor="#e581396d"] ;
0 -> 1 [labeldistance=2.5, labelangle=45, headlabel="True"] ;
2 [label="PokemonWorldRegion <= 1.5\ngini = 0.49\nsamples = 127\nvalue = [114, 83]\nclass = 0", fillcolor="#e5813945"] ;
1 -> 2 ;
3 [label="gini = 0.33\nsamples = 19\nvalue = [6, 23]\nclass = 1", fillcolor="#399de5bc"] ;
2 -> 3 ;
4 [label="JobPostingDate <= 107.5\ngini = 0.46\nsamples = 108\nvalue = [108, 60]\nclass = 0", fillcolor="#e5813971"] ;
2 -> 4 ;
5 [label="PositionForTrainingPokemon <= 25.0\ngini = 0.09\nsamples = 62\nvalue = [81, 4]\nclass = 0", fillcolor="#e58139f2"] ;
4 -> 5 ;
6 [label="gini = 0.07\nsamples = 60\nvalue = [80, 3]\nclass = 0", fillcolor="#e58139f5"] ;
5 -> 6 ;
7 [label="gini = 0.5\nsamples = 2\nvalue = [1, 1]\nclass = 0", fillcolor="#e5813900"] ;
5 -> 7 ;
8 [label="gini = 0.44\nsamples = 46\nvalue = [27, 56]\nclass = 1", fillcolor="#399de584"] ;
4 -> 8 ;
9 [label="gini = 0.3\nsamples = 41\nvalue = [50, 11]\nclass = 0", fillcolor="#e58139c7"] ;
1 -> 9 ;
10 [label="ApplicationType <= 1.0\ngini = 0.03\nsamples = 42517\nvalue = [66025, 1141]\nclass = 0", fillcolor="#e58139fb"] ;
0 -> 10 [labeldistance=2.5, labelangle=-45, headlabel="False"] ;
11 [label="SpokenWithCurrentBoss <= 0.5\ngini = 0.02\nsamples = 41699\nvalue = [65100, 782]\nclass = 0", fillcolor="#e58139fc"] ;
10 -> 11 ;
12 [label="GymBadgePerm4 <= -0.5\ngini = 0.02\nsamples = 39946\nvalue = [62595, 556]\nclass = 0", fillcolor="#e58139fd"] ;
11 -> 12 ;
13 [label="JobStatusTemp <= 0.5\ngini = 0.08\nsamples = 825\nvalue = [1261, 53]\nclass = 0", fillcolor="#e58139f4"] ;
12 -> 13 ;
14 [label="gini = 0.08\nsamples = 807\nvalue = [1234, 53]\nclass = 0", fillcolor="#e58139f4"] ;
13 -> 14 ;
15 [label="gini = 0.0\nsamples = 18\nvalue = [27, 0]\nclass = 0", fillcolor="#e58139ff"] ;
13 -> 15 ;
16 [label="PokemonTrainerClass <= 6.5\ngini = 0.02\nsamples = 39121\nvalue = [61334, 503]\nclass = 0", fillcolor="#e58139fd"] ;
12 -> 16 ;
17 [label="gini = 0.02\nsamples = 29542\nvalue = [46206, 451]\nclass = 0", fillcolor="#e58139fd"] ;
16 -> 17 ;
18 [label="gini = 0.01\nsamples = 9579\nvalue = [15128, 52]\nclass = 0", fillcolor="#e58139fe"] ;
16 -> 18 ;
19 [label="WorkingForJobAppliedFor <= 0.5\ngini = 0.15\nsamples = 1753\nvalue = [2505, 226]\nclass = 0", fillcolor="#e58139e8"] ;
11 -> 19 ;
20 [label="CurrentlyTrainingPokemon <= 18.5\ngini = 0.12\nsamples = 1020\nvalue = [1469, 99]\nclass = 0", fillcolor="#e58139ee"] ;
19 -> 20 ;
21 [label="gini = 0.1\nsamples = 849\nvalue = [1243, 68]\nclass = 0", fillcolor="#e58139f1"] ;
20 -> 21 ;
22 [label="gini = 0.21\nsamples = 171\nvalue = [226, 31]\nclass = 0", fillcolor="#e58139dc"] ;
20 -> 22 ;
23 [label="TechnicalSchoolGraduate <= 0.5\ngini = 0.19\nsamples = 733\nvalue = [1036, 127]\nclass = 0", fillcolor="#e58139e0"] ;
19 -> 23 ;
24 [label="gini = 0.25\nsamples = 442\nvalue = [589, 101]\nclass = 0", fillcolor="#e58139d3"] ;
23 -> 24 ;
25 [label="gini = 0.1\nsamples = 291\nvalue = [447, 26]\nclass = 0", fillcolor="#e58139f0"] ;
23 -> 25 ;
26 [label="RecentTrainingExperience1To <= 211.5\ngini = 0.4\nsamples = 818\nvalue = [925, 359]\nclass = 0", fillcolor="#e581399c"] ;
10 -> 26 ;
27 [label="RecentTrainingExperienceContactForRefYes <= -0.5\ngini = 0.38\nsamples = 743\nvalue = [879, 297]\nclass = 0", fillcolor="#e58139a9"] ;
26 -> 27 ;
28 [label="PositionForTrainingPokemon <= 7.5\ngini = 0.46\nsamples = 299\nvalue = [293, 167]\nclass = 0", fillcolor="#e581396e"] ;
27 -> 28 ;
29 [label="gini = 0.39\nsamples = 115\nvalue = [143, 52]\nclass = 0", fillcolor="#e58139a2"] ;
28 -> 29 ;
30 [label="gini = 0.49\nsamples = 184\nvalue = [150, 115]\nclass = 0", fillcolor="#e581393b"] ;
28 -> 30 ;
31 [label="PositionForTrainingPokemon <= 25.5\ngini = 0.3\nsamples = 444\nvalue = [586, 130]\nclass = 0", fillcolor="#e58139c6"] ;
27 -> 31 ;
32 [label="gini = 0.28\nsamples = 434\nvalue = [583, 120]\nclass = 0", fillcolor="#e58139cb"] ;
31 -> 32 ;
33 [label="gini = 0.36\nsamples = 10\nvalue = [3, 10]\nclass = 1", fillcolor="#399de5b3"] ;
31 -> 33 ;
34 [label="PokemonTrainerClass <= 5.5\ngini = 0.49\nsamples = 75\nvalue = [46, 62]\nclass = 1", fillcolor="#399de542"] ;
26 -> 34 ;
35 [label="GymBadge3Pokemon <= 9.0\ngini = 0.39\nsamples = 57\nvalue = [22, 61]\nclass = 1", fillcolor="#399de5a3"] ;
34 -> 35 ;
36 [label="gini = 0.37\nsamples = 54\nvalue = [19, 60]\nclass = 1", fillcolor="#399de5ae"] ;
35 -> 36 ;
37 [label="gini = 0.38\nsamples = 3\nvalue = [3, 1]\nclass = 0", fillcolor="#e58139aa"] ;
35 -> 37 ;
38 [label="gini = 0.08\nsamples = 18\nvalue = [24, 1]\nclass = 0", fillcolor="#e58139f4"] ;
34 -> 38 ;
}