digraph Tree {
node [shape=box, style="filled, rounded", color="black", fontname=helvetica] ;
edge [fontname=helvetica] ;
0 [label="ApplicationType <= 1.0\ngini = 0.03\nsamples = 42815\nvalue = [66240, 1184]\nclass = 0", fillcolor="#e58139fa"] ;
1 [label="GymBadgePerm1 <= -0.5\ngini = 0.03\nsamples = 42009\nvalue = [65296, 871]\nclass = 0", fillcolor="#e58139fc"] ;
0 -> 1 [labeldistance=2.5, labelangle=45, headlabel="True"] ;
2 [label="JobStatusFullTime <= -0.5\ngini = 0.15\nsamples = 2667\nvalue = [3805, 344]\nclass = 0", fillcolor="#e58139e8"] ;
1 -> 2 ;
3 [label="ApplyDate <= 1526.5\ngini = 0.44\nsamples = 147\nvalue = [150, 74]\nclass = 0", fillcolor="#e5813981"] ;
2 -> 3 ;
4 [label="RecentTrainingExperienceContactForRefNA <= -0.5\ngini = 0.48\nsamples = 115\nvalue = [105, 69]\nclass = 0", fillcolor="#e5813957"] ;
3 -> 4 ;
5 [label="gini = 0.49\nsamples = 108\nvalue = [94, 69]\nclass = 0", fillcolor="#e5813944"] ;
4 -> 5 ;
6 [label="gini = 0.0\nsamples = 7\nvalue = [11, 0]\nclass = 0", fillcolor="#e58139ff"] ;
4 -> 6 ;
7 [label="gini = 0.18\nsamples = 32\nvalue = [45, 5]\nclass = 0", fillcolor="#e58139e3"] ;
3 -> 7 ;
8 [label="JobStatusPartTime <= 0.5\ngini = 0.13\nsamples = 2520\nvalue = [3655, 270]\nclass = 0", fillcolor="#e58139ec"] ;
2 -> 8 ;
9 [label="RecentTrainingExperience1From <= 388.5\ngini = 0.16\nsamples = 1659\nvalue = [2367, 224]\nclass = 0", fillcolor="#e58139e7"] ;
8 -> 9 ;
10 [label="gini = 0.27\nsamples = 201\nvalue = [282, 55]\nclass = 0", fillcolor="#e58139cd"] ;
9 -> 10 ;
11 [label="gini = 0.14\nsamples = 1458\nvalue = [2085, 169]\nclass = 0", fillcolor="#e58139ea"] ;
9 -> 11 ;
12 [label="PokemonWorldRegion <= 1.5\ngini = 0.07\nsamples = 861\nvalue = [1288, 46]\nclass = 0", fillcolor="#e58139f6"] ;
8 -> 12 ;
13 [label="gini = 0.15\nsamples = 143\nvalue = [206, 19]\nclass = 0", fillcolor="#e58139e7"] ;
12 -> 13 ;
14 [label="gini = 0.05\nsamples = 718\nvalue = [1082, 27]\nclass = 0", fillcolor="#e58139f9"] ;
12 -> 14 ;
15 [label="RecentTrainingExperience1To <= 184.5\ngini = 0.02\nsamples = 39342\nvalue = [61491, 527]\nclass = 0", fillcolor="#e58139fd"] ;
1 -> 15 ;
16 [label="JobShiftEvening <= 0.5\ngini = 0.01\nsamples = 18051\nvalue = [28280, 164]\nclass = 0", fillcolor="#e58139fe"] ;
15 -> 16 ;
17 [label="PokemonWorldRegion <= 1.5\ngini = 0.02\nsamples = 5310\nvalue = [8288, 70]\nclass = 0", fillcolor="#e58139fd"] ;
16 -> 17 ;
18 [label="gini = 0.04\nsamples = 584\nvalue = [913, 21]\nclass = 0", fillcolor="#e58139f9"] ;
17 -> 18 ;
19 [label="gini = 0.01\nsamples = 4726\nvalue = [7375, 49]\nclass = 0", fillcolor="#e58139fd"] ;
17 -> 19 ;
20 [label="RecentTrainingExperience2From <= 397.5\ngini = 0.01\nsamples = 12741\nvalue = [19992, 94]\nclass = 0", fillcolor="#e58139fe"] ;
16 -> 20 ;
21 [label="gini = 0.01\nsamples = 6270\nvalue = [9821, 66]\nclass = 0", fillcolor="#e58139fd"] ;
20 -> 21 ;
22 [label="gini = 0.01\nsamples = 6471\nvalue = [10171, 28]\nclass = 0", fillcolor="#e58139fe"] ;
20 -> 22 ;
23 [label="JobShiftEvening <= 0.5\ngini = 0.02\nsamples = 21291\nvalue = [33211, 363]\nclass = 0", fillcolor="#e58139fc"] ;
15 -> 23 ;
24 [label="WorkedInThisRegion <= 0.5\ngini = 0.04\nsamples = 5985\nvalue = [9174, 178]\nclass = 0", fillcolor="#e58139fa"] ;
23 -> 24 ;
25 [label="gini = 0.03\nsamples = 5421\nvalue = [8330, 145]\nclass = 0", fillcolor="#e58139fb"] ;
24 -> 25 ;
26 [label="gini = 0.07\nsamples = 564\nvalue = [844, 33]\nclass = 0", fillcolor="#e58139f5"] ;
24 -> 26 ;
27 [label="PokemonWorldRegion <= 3.5\ngini = 0.02\nsamples = 15306\nvalue = [24037, 185]\nclass = 0", fillcolor="#e58139fd"] ;
23 -> 27 ;
28 [label="gini = 0.01\nsamples = 7379\nvalue = [11653, 52]\nclass = 0", fillcolor="#e58139fe"] ;
27 -> 28 ;
29 [label="gini = 0.02\nsamples = 7927\nvalue = [12384, 133]\nclass = 0", fillcolor="#e58139fc"] ;
27 -> 29 ;
30 [label="RecentTrainingExperienceContactForRefNo <= -0.5\ngini = 0.37\nsamples = 806\nvalue = [944, 313]\nclass = 0", fillcolor="#e58139aa"] ;
0 -> 30 [labeldistance=2.5, labelangle=-45, headlabel="False"] ;
31 [label="WorkingForJobAppliedFor <= 0.5\ngini = 0.46\nsamples = 354\nvalue = [370, 204]\nclass = 0", fillcolor="#e5813972"] ;
30 -> 31 ;
32 [label="RecentTrainingExperience2From <= 503.0\ngini = 0.44\nsamples = 317\nvalue = [343, 168]\nclass = 0", fillcolor="#e5813982"] ;
31 -> 32 ;
33 [label="WorkedInThisRegion <= 0.5\ngini = 0.43\nsamples = 282\nvalue = [318, 144]\nclass = 0", fillcolor="#e581398c"] ;
32 -> 33 ;
34 [label="gini = 0.42\nsamples = 255\nvalue = [294, 123]\nclass = 0", fillcolor="#e5813994"] ;
33 -> 34 ;
35 [label="gini = 0.5\nsamples = 27\nvalue = [24, 21]\nclass = 0", fillcolor="#e5813920"] ;
33 -> 35 ;
36 [label="gini = 0.5\nsamples = 35\nvalue = [25, 24]\nclass = 0", fillcolor="#e581390a"] ;
32 -> 36 ;
37 [label="gini = 0.49\nsamples = 37\nvalue = [27, 36]\nclass = 1", fillcolor="#399de540"] ;
31 -> 37 ;
38 [label="PokemonWorldRegion <= 3.0\ngini = 0.27\nsamples = 452\nvalue = [574, 109]\nclass = 0", fillcolor="#e58139cf"] ;
30 -> 38 ;
39 [label="JobStatusPerDiem <= 0.5\ngini = 0.43\nsamples = 128\nvalue = [139, 62]\nclass = 0", fillcolor="#e581398d"] ;
38 -> 39 ;
40 [label="GymBadge2Pokemon <= 23.5\ngini = 0.35\nsamples = 99\nvalue = [116, 34]\nclass = 0", fillcolor="#e58139b4"] ;
39 -> 40 ;
41 [label="gini = 0.34\nsamples = 98\nvalue = [116, 32]\nclass = 0", fillcolor="#e58139b9"] ;
40 -> 41 ;
42 [label="gini = 0.0\nsamples = 1\nvalue = [0, 2]\nclass = 1", fillcolor="#399de5ff"] ;
40 -> 42 ;
43 [label="gini = 0.5\nsamples = 29\nvalue = [23, 28]\nclass = 1", fillcolor="#399de52e"] ;
39 -> 43 ;
44 [label="PokemonWorldRegion <= 5.0\ngini = 0.18\nsamples = 324\nvalue = [435, 47]\nclass = 0", fillcolor="#e58139e3"] ;
38 -> 44 ;
45 [label="GymBadge3Pokemon <= 7.0\ngini = 0.15\nsamples = 316\nvalue = [431, 37]\nclass = 0", fillcolor="#e58139e9"] ;
44 -> 45 ;
46 [label="gini = 0.14\nsamples = 312\nvalue = [430, 34]\nclass = 0", fillcolor="#e58139eb"] ;
45 -> 46 ;
47 [label="gini = 0.38\nsamples = 4\nvalue = [1, 3]\nclass = 1", fillcolor="#399de5aa"] ;
45 -> 47 ;
48 [label="gini = 0.41\nsamples = 8\nvalue = [4, 10]\nclass = 1", fillcolor="#399de599"] ;
44 -> 48 ;
}