digraph Tree {
node [shape=box, style="filled, rounded", color="black", fontname=helvetica] ;
edge [fontname=helvetica] ;
0 [label="TotalYearsOfExp <= 0.0\ngini = 0.04\nsamples = 42606\nvalue = [66175, 1249]\nclass = 0", fillcolor="#e58139fa"] ;
1 [label="GymBadgePerm1 <= -0.5\ngini = 0.35\nsamples = 1377\nvalue = [1686, 483]\nclass = 0", fillcolor="#e58139b6"] ;
0 -> 1 [labeldistance=2.5, labelangle=45, headlabel="True"] ;
2 [label="RecentTrainingExperience1From <= 388.5\ngini = 0.47\nsamples = 247\nvalue = [256, 157]\nclass = 0", fillcolor="#e5813963"] ;
1 -> 2 ;
3 [label="JobShiftEvening <= -0.5\ngini = 0.49\nsamples = 147\nvalue = [140, 105]\nclass = 0", fillcolor="#e5813940"] ;
2 -> 3 ;
4 [label="JobPostingDate <= 40.0\ngini = 0.47\nsamples = 131\nvalue = [133, 84]\nclass = 0", fillcolor="#e581395e"] ;
3 -> 4 ;
5 [label="gini = 0.0\nsamples = 48\nvalue = [72, 0]\nclass = 0", fillcolor="#e58139ff"] ;
4 -> 5 ;
6 [label="gini = 0.49\nsamples = 83\nvalue = [61, 84]\nclass = 1", fillcolor="#399de546"] ;
4 -> 6 ;
7 [label="gini = 0.38\nsamples = 16\nvalue = [7, 21]\nclass = 1", fillcolor="#399de5aa"] ;
3 -> 7 ;
8 [label="JobStatusPartTime <= 0.5\ngini = 0.43\nsamples = 100\nvalue = [116, 52]\nclass = 0", fillcolor="#e581398d"] ;
2 -> 8 ;
9 [label="JobPostingDate <= 692.5\ngini = 0.46\nsamples = 70\nvalue = [73, 40]\nclass = 0", fillcolor="#e5813973"] ;
8 -> 9 ;
10 [label="gini = 0.3\nsamples = 37\nvalue = [48, 11]\nclass = 0", fillcolor="#e58139c5"] ;
9 -> 10 ;
11 [label="gini = 0.5\nsamples = 33\nvalue = [25, 29]\nclass = 1", fillcolor="#399de523"] ;
9 -> 11 ;
12 [label="gini = 0.34\nsamples = 30\nvalue = [43, 12]\nclass = 0", fillcolor="#e58139b8"] ;
8 -> 12 ;
13 [label="RecentTrainingExperienceContactForRefYes <= -0.5\ngini = 0.3\nsamples = 1130\nvalue = [1430, 326]\nclass = 0", fillcolor="#e58139c5"] ;
1 -> 13 ;
14 [label="RecentTrainingExperience2EmploymentStatus <= -0.5\ngini = 0.37\nsamples = 505\nvalue = [607, 197]\nclass = 0", fillcolor="#e58139ac"] ;
13 -> 14 ;
15 [label="GymBadge1Pokemon <= 4.5\ngini = 0.29\nsamples = 169\nvalue = [215, 45]\nclass = 0", fillcolor="#e58139ca"] ;
14 -> 15 ;
16 [label="gini = 0.22\nsamples = 127\nvalue = [174, 25]\nclass = 0", fillcolor="#e58139da"] ;
15 -> 16 ;
17 [label="gini = 0.44\nsamples = 42\nvalue = [41, 20]\nclass = 0", fillcolor="#e5813983"] ;
15 -> 17 ;
18 [label="RecentTrainingExperience2Pokemon <= 10.5\ngini = 0.4\nsamples = 336\nvalue = [392, 152]\nclass = 0", fillcolor="#e581399c"] ;
14 -> 18 ;
19 [label="gini = 0.35\nsamples = 208\nvalue = [264, 78]\nclass = 0", fillcolor="#e58139b4"] ;
18 -> 19 ;
20 [label="gini = 0.46\nsamples = 128\nvalue = [128, 74]\nclass = 0", fillcolor="#e581396c"] ;
18 -> 20 ;
21 [label="PokemonTrainerClass <= 5.5\ngini = 0.23\nsamples = 625\nvalue = [823, 129]\nclass = 0", fillcolor="#e58139d7"] ;
13 -> 21 ;
22 [label="PositionForTrainingPokemon <= 9.5\ngini = 0.29\nsamples = 437\nvalue = [551, 119]\nclass = 0", fillcolor="#e58139c8"] ;
21 -> 22 ;
23 [label="gini = 0.38\nsamples = 197\nvalue = [220, 74]\nclass = 0", fillcolor="#e58139a9"] ;
22 -> 23 ;
24 [label="gini = 0.21\nsamples = 240\nvalue = [331, 45]\nclass = 0", fillcolor="#e58139dc"] ;
22 -> 24 ;
25 [label="RecentTrainingExperience3To <= 388.5\ngini = 0.07\nsamples = 188\nvalue = [272, 10]\nclass = 0", fillcolor="#e58139f6"] ;
21 -> 25 ;
26 [label="gini = 0.05\nsamples = 173\nvalue = [248, 7]\nclass = 0", fillcolor="#e58139f8"] ;
25 -> 26 ;
27 [label="gini = 0.2\nsamples = 15\nvalue = [24, 3]\nclass = 0", fillcolor="#e58139df"] ;
25 -> 27 ;
28 [label="GymBadgePerm2 <= -0.5\ngini = 0.02\nsamples = 41229\nvalue = [64489, 766]\nclass = 0", fillcolor="#e58139fc"] ;
0 -> 28 [labeldistance=2.5, labelangle=-45, headlabel="False"] ;
29 [label="SpokenWithCurrentBoss <= 0.5\ngini = 0.12\nsamples = 2515\nvalue = [3752, 266]\nclass = 0", fillcolor="#e58139ed"] ;
28 -> 29 ;
30 [label="UndergradSchoolGraduate <= 0.5\ngini = 0.06\nsamples = 818\nvalue = [1253, 37]\nclass = 0", fillcolor="#e58139f7"] ;
29 -> 30 ;
31 [label="JobShiftWeekend <= 0.5\ngini = 0.04\nsamples = 614\nvalue = [957, 19]\nclass = 0", fillcolor="#e58139fa"] ;
30 -> 31 ;
32 [label="gini = 0.04\nsamples = 435\nvalue = [683, 16]\nclass = 0", fillcolor="#e58139f9"] ;
31 -> 32 ;
33 [label="gini = 0.02\nsamples = 179\nvalue = [274, 3]\nclass = 0", fillcolor="#e58139fc"] ;
31 -> 33 ;
34 [label="RecentTrainingExperience1From <= 63.0\ngini = 0.11\nsamples = 204\nvalue = [296, 18]\nclass = 0", fillcolor="#e58139ef"] ;
30 -> 34 ;
35 [label="gini = 0.0\nsamples = 1\nvalue = [0, 1]\nclass = 1", fillcolor="#399de5ff"] ;
34 -> 35 ;
36 [label="gini = 0.1\nsamples = 203\nvalue = [296, 17]\nclass = 0", fillcolor="#e58139f0"] ;
34 -> 36 ;
37 [label="JobShiftNight <= 0.5\ngini = 0.15\nsamples = 1697\nvalue = [2499, 229]\nclass = 0", fillcolor="#e58139e8"] ;
29 -> 37 ;
38 [label="HighEduLevelCompleted <= 7.0\ngini = 0.2\nsamples = 957\nvalue = [1366, 177]\nclass = 0", fillcolor="#e58139de"] ;
37 -> 38 ;
39 [label="gini = 0.17\nsamples = 900\nvalue = [1302, 133]\nclass = 0", fillcolor="#e58139e5"] ;
38 -> 39 ;
40 [label="gini = 0.48\nsamples = 57\nvalue = [64, 44]\nclass = 0", fillcolor="#e5813950"] ;
38 -> 40 ;
41 [label="RecentTrainingExperience1Pokemon <= 11.5\ngini = 0.08\nsamples = 740\nvalue = [1133, 52]\nclass = 0", fillcolor="#e58139f3"] ;
37 -> 41 ;
42 [label="gini = 0.11\nsamples = 446\nvalue = [667, 43]\nclass = 0", fillcolor="#e58139ef"] ;
41 -> 42 ;
43 [label="gini = 0.04\nsamples = 294\nvalue = [466, 9]\nclass = 0", fillcolor="#e58139fa"] ;
41 -> 43 ;
44 [label="TotalYearsOfExp <= 7.0\ngini = 0.02\nsamples = 38714\nvalue = [60737, 500]\nclass = 0", fillcolor="#e58139fd"] ;
28 -> 44 ;
45 [label="CurrentlyWorkInThisRegion <= 0.5\ngini = 0.01\nsamples = 29003\nvalue = [45506, 285]\nclass = 0", fillcolor="#e58139fd"] ;
44 -> 45 ;
46 [label="UndergradSchoolGraduate <= 0.5\ngini = 0.01\nsamples = 28613\nvalue = [44904, 260]\nclass = 0", fillcolor="#e58139fe"] ;
45 -> 46 ;
47 [label="gini = 0.01\nsamples = 20919\nvalue = [32842, 150]\nclass = 0", fillcolor="#e58139fe"] ;
46 -> 47 ;
48 [label="gini = 0.02\nsamples = 7694\nvalue = [12062, 110]\nclass = 0", fillcolor="#e58139fd"] ;
46 -> 48 ;
49 [label="RecentTrainingExperience4To <= 292.5\ngini = 0.08\nsamples = 390\nvalue = [602, 25]\nclass = 0", fillcolor="#e58139f4"] ;
45 -> 49 ;
50 [label="gini = 0.11\nsamples = 275\nvalue = [417, 25]\nclass = 0", fillcolor="#e58139f0"] ;
49 -> 50 ;
51 [label="gini = 0.0\nsamples = 115\nvalue = [185, 0]\nclass = 0", fillcolor="#e58139ff"] ;
49 -> 51 ;
52 [label="RecentTrainingExperience4PayRateEndFreq <= 0.5\ngini = 0.03\nsamples = 9711\nvalue = [15231, 215]\nclass = 0", fillcolor="#e58139fb"] ;
44 -> 52 ;
53 [label="CurrentlyWorkInThisRegion <= 0.5\ngini = 0.03\nsamples = 6389\nvalue = [9961, 165]\nclass = 0", fillcolor="#e58139fb"] ;
52 -> 53 ;
54 [label="gini = 0.03\nsamples = 6272\nvalue = [9789, 153]\nclass = 0", fillcolor="#e58139fb"] ;
53 -> 54 ;
55 [label="gini = 0.12\nsamples = 117\nvalue = [172, 12]\nclass = 0", fillcolor="#e58139ed"] ;
53 -> 55 ;
56 [label="JobSchedule <= 7.5\ngini = 0.02\nsamples = 3322\nvalue = [5270, 50]\nclass = 0", fillcolor="#e58139fd"] ;
52 -> 56 ;
57 [label="gini = 0.02\nsamples = 3302\nvalue = [5239, 47]\nclass = 0", fillcolor="#e58139fd"] ;
56 -> 57 ;
58 [label="gini = 0.16\nsamples = 20\nvalue = [31, 3]\nclass = 0", fillcolor="#e58139e6"] ;
56 -> 58 ;
}