digraph Tree {
node [shape=box, style="filled, rounded", color="black", fontname=helvetica] ;
edge [fontname=helvetica] ;
0 [label="JobStatusFullTime <= -0.5\ngini = 0.04\nsamples = 42626\nvalue = [66198, 1226]\nclass = 0", fillcolor="#e58139fa"] ;
1 [label="TotalYearsOfExp <= 0.0\ngini = 0.43\nsamples = 173\nvalue = [196, 91]\nclass = 0", fillcolor="#e5813989"] ;
0 -> 1 [labeldistance=2.5, labelangle=45, headlabel="True"] ;
2 [label="JobPostingDate <= 107.5\ngini = 0.48\nsamples = 133\nvalue = [134, 90]\nclass = 0", fillcolor="#e5813954"] ;
1 -> 2 ;
3 [label="ApplyDate <= 33.0\ngini = 0.15\nsamples = 64\nvalue = [100, 9]\nclass = 0", fillcolor="#e58139e8"] ;
2 -> 3 ;
4 [label="gini = 0.44\nsamples = 4\nvalue = [2, 4]\nclass = 1", fillcolor="#399de57f"] ;
3 -> 4 ;
5 [label="ApplyDate <= 539.5\ngini = 0.09\nsamples = 60\nvalue = [98, 5]\nclass = 0", fillcolor="#e58139f2"] ;
3 -> 5 ;
6 [label="gini = 0.17\nsamples = 27\nvalue = [49, 5]\nclass = 0", fillcolor="#e58139e5"] ;
5 -> 6 ;
7 [label="gini = 0.0\nsamples = 33\nvalue = [49, 0]\nclass = 0", fillcolor="#e58139ff"] ;
5 -> 7 ;
8 [label="InternalEmployee <= 0.5\ngini = 0.42\nsamples = 69\nvalue = [34, 81]\nclass = 1", fillcolor="#399de594"] ;
2 -> 8 ;
9 [label="PokemonWorldRegion <= 1.5\ngini = 0.46\nsamples = 59\nvalue = [34, 62]\nclass = 1", fillcolor="#399de573"] ;
8 -> 9 ;
10 [label="gini = 0.5\nsamples = 19\nvalue = [16, 18]\nclass = 1", fillcolor="#399de51c"] ;
9 -> 10 ;
11 [label="gini = 0.41\nsamples = 40\nvalue = [18, 44]\nclass = 1", fillcolor="#399de597"] ;
9 -> 11 ;
12 [label="gini = 0.0\nsamples = 10\nvalue = [0, 19]\nclass = 1", fillcolor="#399de5ff"] ;
8 -> 12 ;
13 [label="gini = 0.03\nsamples = 40\nvalue = [62, 1]\nclass = 0", fillcolor="#e58139fb"] ;
1 -> 13 ;
14 [label="ApplicationType <= 1.0\ngini = 0.03\nsamples = 42453\nvalue = [66002, 1135]\nclass = 0", fillcolor="#e58139fb"] ;
0 -> 14 [labeldistance=2.5, labelangle=-45, headlabel="False"] ;
15 [label="RecentTrainingExperience1ContactForRef <= -0.5\ngini = 0.02\nsamples = 41617\nvalue = [65036, 777]\nclass = 0", fillcolor="#e58139fc"] ;
14 -> 15 ;
16 [label="RecentTrainingExperience3From <= 323.5\ngini = 0.12\nsamples = 2519\nvalue = [3733, 254]\nclass = 0", fillcolor="#e58139ee"] ;
15 -> 16 ;
17 [label="JobPostingDate <= 337.5\ngini = 0.14\nsamples = 1201\nvalue = [1735, 147]\nclass = 0", fillcolor="#e58139e9"] ;
16 -> 17 ;
18 [label="gini = 0.06\nsamples = 272\nvalue = [405, 12]\nclass = 0", fillcolor="#e58139f7"] ;
17 -> 18 ;
19 [label="gini = 0.17\nsamples = 929\nvalue = [1330, 135]\nclass = 0", fillcolor="#e58139e5"] ;
17 -> 19 ;
20 [label="GraduateSchoolGraduate <= 0.5\ngini = 0.1\nsamples = 1318\nvalue = [1998, 107]\nclass = 0", fillcolor="#e58139f1"] ;
16 -> 20 ;
21 [label="gini = 0.08\nsamples = 1248\nvalue = [1917, 85]\nclass = 0", fillcolor="#e58139f4"] ;
20 -> 21 ;
22 [label="gini = 0.34\nsamples = 70\nvalue = [81, 22]\nclass = 0", fillcolor="#e58139ba"] ;
20 -> 22 ;
23 [label="GraduateSchoolGPA <= 3.2\ngini = 0.02\nsamples = 39098\nvalue = [61303, 523]\nclass = 0", fillcolor="#e58139fd"] ;
15 -> 23 ;
24 [label="PokemonTrainerClass <= 6.5\ngini = 0.02\nsamples = 37852\nvalue = [59404, 466]\nclass = 0", fillcolor="#e58139fd"] ;
23 -> 24 ;
25 [label="gini = 0.02\nsamples = 28453\nvalue = [44659, 401]\nclass = 0", fillcolor="#e58139fd"] ;
24 -> 25 ;
26 [label="gini = 0.01\nsamples = 9399\nvalue = [14745, 65]\nclass = 0", fillcolor="#e58139fe"] ;
24 -> 26 ;
27 [label="RecentTrainingExperience3EmploymentStatus <= -0.5\ngini = 0.06\nsamples = 1246\nvalue = [1899, 57]\nclass = 0", fillcolor="#e58139f7"] ;
23 -> 27 ;
28 [label="gini = 0.08\nsamples = 453\nvalue = [690, 31]\nclass = 0", fillcolor="#e58139f4"] ;
27 -> 28 ;
29 [label="gini = 0.04\nsamples = 793\nvalue = [1209, 26]\nclass = 0", fillcolor="#e58139fa"] ;
27 -> 29 ;
30 [label="HighEduLevelCompleted <= 3.5\ngini = 0.39\nsamples = 836\nvalue = [966, 358]\nclass = 0", fillcolor="#e58139a0"] ;
14 -> 30 ;
31 [label="JobPostingDate <= 947.5\ngini = 0.46\nsamples = 310\nvalue = [325, 179]\nclass = 0", fillcolor="#e5813973"] ;
30 -> 31 ;
32 [label="HighSchoolGPA <= 0.75\ngini = 0.4\nsamples = 240\nvalue = [281, 110]\nclass = 0", fillcolor="#e581399b"] ;
31 -> 32 ;
33 [label="gini = 0.44\nsamples = 191\nvalue = [205, 101]\nclass = 0", fillcolor="#e5813981"] ;
32 -> 33 ;
34 [label="gini = 0.19\nsamples = 49\nvalue = [76, 9]\nclass = 0", fillcolor="#e58139e1"] ;
32 -> 34 ;
35 [label="RecentTrainingExperienceContactForRefNo <= -0.5\ngini = 0.48\nsamples = 70\nvalue = [44, 69]\nclass = 1", fillcolor="#399de55c"] ;
31 -> 35 ;
36 [label="gini = 0.5\nsamples = 49\nvalue = [38, 43]\nclass = 1", fillcolor="#399de51e"] ;
35 -> 36 ;
37 [label="gini = 0.3\nsamples = 21\nvalue = [6, 26]\nclass = 1", fillcolor="#399de5c4"] ;
35 -> 37 ;
38 [label="RecentTrainingExperienceContactForRefNA <= -0.5\ngini = 0.34\nsamples = 526\nvalue = [641, 179]\nclass = 0", fillcolor="#e58139b8"] ;
30 -> 38 ;
39 [label="ReferenceRelationship3 <= -0.5\ngini = 0.48\nsamples = 176\nvalue = [159, 111]\nclass = 0", fillcolor="#e581394d"] ;
38 -> 39 ;
40 [label="gini = 0.5\nsamples = 59\nvalue = [43, 49]\nclass = 1", fillcolor="#399de51f"] ;
39 -> 40 ;
41 [label="gini = 0.45\nsamples = 117\nvalue = [116, 62]\nclass = 0", fillcolor="#e5813977"] ;
39 -> 41 ;
42 [label="RecentTrainingExperience4From <= 457.0\ngini = 0.22\nsamples = 350\nvalue = [482, 68]\nclass = 0", fillcolor="#e58139db"] ;
38 -> 42 ;
43 [label="gini = 0.2\nsamples = 336\nvalue = [467, 59]\nclass = 0", fillcolor="#e58139df"] ;
42 -> 43 ;
44 [label="gini = 0.47\nsamples = 14\nvalue = [15, 9]\nclass = 0", fillcolor="#e5813966"] ;
42 -> 44 ;
}