digraph Tree {
node [shape=box, style="filled, rounded", color="black", fontname=helvetica] ;
edge [fontname=helvetica] ;
0 [label="GymBadgeTemp4 <= -0.5\ngini = 0.03\nsamples = 42680\nvalue = [66283, 1141]\nclass = 0", fillcolor="#e58139fb"] ;
1 [label="HighEduLevelCompleted <= -0.5\ngini = 0.15\nsamples = 2768\nvalue = [4047, 353]\nclass = 0", fillcolor="#e58139e9"] ;
0 -> 1 [labeldistance=2.5, labelangle=45, headlabel="True"] ;
2 [label="JobPostingDate <= 182.5\ngini = 0.37\nsamples = 276\nvalue = [328, 109]\nclass = 0", fillcolor="#e58139aa"] ;
1 -> 2 ;
3 [label="JobShiftNight <= 0.5\ngini = 0.13\nsamples = 79\nvalue = [103, 8]\nclass = 0", fillcolor="#e58139eb"] ;
2 -> 3 ;
4 [label="JobShiftNight <= -0.5\ngini = 0.09\nsamples = 74\nvalue = [100, 5]\nclass = 0", fillcolor="#e58139f2"] ;
3 -> 4 ;
5 [label="gini = 0.07\nsamples = 60\nvalue = [81, 3]\nclass = 0", fillcolor="#e58139f6"] ;
4 -> 5 ;
6 [label="gini = 0.17\nsamples = 14\nvalue = [19, 2]\nclass = 0", fillcolor="#e58139e4"] ;
4 -> 6 ;
7 [label="gini = 0.5\nsamples = 5\nvalue = [3, 3]\nclass = 0", fillcolor="#e5813900"] ;
3 -> 7 ;
8 [label="CurrentlyTrainingPokemon <= -0.5\ngini = 0.43\nsamples = 197\nvalue = [225, 101]\nclass = 0", fillcolor="#e581398d"] ;
2 -> 8 ;
9 [label="RecentTrainingExperience1From <= 355.0\ngini = 0.48\nsamples = 99\nvalue = [97, 68]\nclass = 0", fillcolor="#e581394c"] ;
8 -> 9 ;
10 [label="gini = 0.5\nsamples = 64\nvalue = [51, 60]\nclass = 1", fillcolor="#399de526"] ;
9 -> 10 ;
11 [label="gini = 0.25\nsamples = 35\nvalue = [46, 8]\nclass = 0", fillcolor="#e58139d3"] ;
9 -> 11 ;
12 [label="RecentTrainingExperience1From <= 349.5\ngini = 0.33\nsamples = 98\nvalue = [128, 33]\nclass = 0", fillcolor="#e58139bd"] ;
8 -> 12 ;
13 [label="gini = 0.42\nsamples = 6\nvalue = [3, 7]\nclass = 1", fillcolor="#399de592"] ;
12 -> 13 ;
14 [label="gini = 0.29\nsamples = 92\nvalue = [125, 26]\nclass = 0", fillcolor="#e58139ca"] ;
12 -> 14 ;
15 [label="HighEduLevelCompleted <= 7.0\ngini = 0.12\nsamples = 2492\nvalue = [3719, 244]\nclass = 0", fillcolor="#e58139ee"] ;
1 -> 15 ;
16 [label="RecentTrainingExperience2To <= 263.5\ngini = 0.1\nsamples = 2388\nvalue = [3587, 204]\nclass = 0", fillcolor="#e58139f0"] ;
15 -> 16 ;
17 [label="PokemonWorldRegion <= 1.5\ngini = 0.16\nsamples = 836\nvalue = [1206, 118]\nclass = 0", fillcolor="#e58139e6"] ;
16 -> 17 ;
18 [label="gini = 0.27\nsamples = 128\nvalue = [176, 33]\nclass = 0", fillcolor="#e58139cf"] ;
17 -> 18 ;
19 [label="gini = 0.14\nsamples = 708\nvalue = [1030, 85]\nclass = 0", fillcolor="#e58139ea"] ;
17 -> 19 ;
20 [label="PokemonWorldRegion <= 6.5\ngini = 0.07\nsamples = 1552\nvalue = [2381, 86]\nclass = 0", fillcolor="#e58139f6"] ;
16 -> 20 ;
21 [label="gini = 0.07\nsamples = 1550\nvalue = [2380, 83]\nclass = 0", fillcolor="#e58139f6"] ;
20 -> 21 ;
22 [label="gini = 0.38\nsamples = 2\nvalue = [1, 3]\nclass = 1", fillcolor="#399de5aa"] ;
20 -> 22 ;
23 [label="GymBadge1Pokemon <= 1.0\ngini = 0.36\nsamples = 104\nvalue = [132, 40]\nclass = 0", fillcolor="#e58139b2"] ;
15 -> 23 ;
24 [label="TechnicalSchoolGraduate <= -0.5\ngini = 0.27\nsamples = 59\nvalue = [77, 15]\nclass = 0", fillcolor="#e58139cd"] ;
23 -> 24 ;
25 [label="gini = 0.33\nsamples = 46\nvalue = [52, 14]\nclass = 0", fillcolor="#e58139ba"] ;
24 -> 25 ;
26 [label="gini = 0.07\nsamples = 13\nvalue = [25, 1]\nclass = 0", fillcolor="#e58139f5"] ;
24 -> 26 ;
27 [label="gini = 0.43\nsamples = 45\nvalue = [55, 25]\nclass = 0", fillcolor="#e581398b"] ;
23 -> 27 ;
28 [label="RecentTrainingExperience4From <= 530.0\ngini = 0.02\nsamples = 39912\nvalue = [62236, 788]\nclass = 0", fillcolor="#e58139fc"] ;
0 -> 28 [labeldistance=2.5, labelangle=-45, headlabel="False"] ;
29 [label="ApplicationType <= 1.0\ngini = 0.02\nsamples = 39910\nvalue = [62235, 785]\nclass = 0", fillcolor="#e58139fc"] ;
28 -> 29 ;
30 [label="JobShiftNight <= 0.5\ngini = 0.02\nsamples = 39142\nvalue = [61323, 494]\nclass = 0", fillcolor="#e58139fd"] ;
29 -> 30 ;
31 [label="GymBadge1Pokemon <= 1.5\ngini = 0.02\nsamples = 15687\nvalue = [24496, 282]\nclass = 0", fillcolor="#e58139fc"] ;
30 -> 31 ;
32 [label="gini = 0.02\nsamples = 11701\nvalue = [18281, 169]\nclass = 0", fillcolor="#e58139fd"] ;
31 -> 32 ;
33 [label="gini = 0.04\nsamples = 3986\nvalue = [6215, 113]\nclass = 0", fillcolor="#e58139fa"] ;
31 -> 33 ;
34 [label="RecentTrainingExperience4PayRateEndValue <= 1370.5\ngini = 0.01\nsamples = 23455\nvalue = [36827, 212]\nclass = 0", fillcolor="#e58139fe"] ;
30 -> 34 ;
35 [label="gini = 0.01\nsamples = 23454\nvalue = [36827, 211]\nclass = 0", fillcolor="#e58139fe"] ;
34 -> 35 ;
36 [label="gini = 0.0\nsamples = 1\nvalue = [0, 1]\nclass = 1", fillcolor="#399de5ff"] ;
34 -> 36 ;
37 [label="RecentTrainingExperienceContactForRefNo <= -0.5\ngini = 0.37\nsamples = 768\nvalue = [912, 291]\nclass = 0", fillcolor="#e58139ae"] ;
29 -> 37 ;
38 [label="GymBadgePerm1 <= 0.5\ngini = 0.45\nsamples = 287\nvalue = [289, 153]\nclass = 0", fillcolor="#e5813978"] ;
37 -> 38 ;
39 [label="gini = 0.42\nsamples = 161\nvalue = [176, 74]\nclass = 0", fillcolor="#e5813994"] ;
38 -> 39 ;
40 [label="gini = 0.48\nsamples = 126\nvalue = [113, 79]\nclass = 0", fillcolor="#e581394d"] ;
38 -> 40 ;
41 [label="JobPostingDate <= 930.0\ngini = 0.3\nsamples = 481\nvalue = [623, 138]\nclass = 0", fillcolor="#e58139c7"] ;
37 -> 41 ;
42 [label="gini = 0.22\nsamples = 409\nvalue = [561, 83]\nclass = 0", fillcolor="#e58139d9"] ;
41 -> 42 ;
43 [label="gini = 0.5\nsamples = 72\nvalue = [62, 55]\nclass = 0", fillcolor="#e581391d"] ;
41 -> 43 ;
44 [label="gini = 0.38\nsamples = 2\nvalue = [1, 3]\nclass = 1", fillcolor="#399de5aa"] ;
28 -> 44 ;
}