digraph Tree {
node [shape=box, style="filled, rounded", color="black", fontname=helvetica] ;
edge [fontname=helvetica] ;
0 [label="JobStatusTemp <= -0.5\ngini = 0.03\nsamples = 42591\nvalue = [66288, 1136]\nclass = 0", fillcolor="#e58139fb"] ;
1 [label="PokemonTrainerClass <= 3.5\ngini = 0.45\nsamples = 173\nvalue = [176, 93]\nclass = 0", fillcolor="#e5813978"] ;
0 -> 1 [labeldistance=2.5, labelangle=45, headlabel="True"] ;
2 [label="PokemonWorldRegion <= 5.0\ngini = 0.24\nsamples = 53\nvalue = [72, 12]\nclass = 0", fillcolor="#e58139d4"] ;
1 -> 2 ;
3 [label="JobPostingDate <= 54.0\ngini = 0.18\nsamples = 50\nvalue = [71, 8]\nclass = 0", fillcolor="#e58139e2"] ;
2 -> 3 ;
4 [label="gini = 0.07\nsamples = 39\nvalue = [55, 2]\nclass = 0", fillcolor="#e58139f6"] ;
3 -> 4 ;
5 [label="gini = 0.4\nsamples = 11\nvalue = [16, 6]\nclass = 0", fillcolor="#e581399f"] ;
3 -> 5 ;
6 [label="gini = 0.32\nsamples = 3\nvalue = [1, 4]\nclass = 1", fillcolor="#399de5bf"] ;
2 -> 6 ;
7 [label="HighEduLevelCompleted <= -0.5\ngini = 0.49\nsamples = 120\nvalue = [104, 81]\nclass = 0", fillcolor="#e5813938"] ;
1 -> 7 ;
8 [label="JobPostingDate <= 134.5\ngini = 0.5\nsamples = 98\nvalue = [78, 80]\nclass = 1", fillcolor="#399de506"] ;
7 -> 8 ;
9 [label="gini = 0.27\nsamples = 36\nvalue = [48, 9]\nclass = 0", fillcolor="#e58139cf"] ;
8 -> 9 ;
10 [label="ApplyDate <= 1526.5\ngini = 0.42\nsamples = 62\nvalue = [30, 71]\nclass = 1", fillcolor="#399de593"] ;
8 -> 10 ;
11 [label="gini = 0.23\nsamples = 46\nvalue = [10, 65]\nclass = 1", fillcolor="#399de5d8"] ;
10 -> 11 ;
12 [label="gini = 0.36\nsamples = 16\nvalue = [20, 6]\nclass = 0", fillcolor="#e58139b3"] ;
10 -> 12 ;
13 [label="gini = 0.07\nsamples = 22\nvalue = [26, 1]\nclass = 0", fillcolor="#e58139f5"] ;
7 -> 13 ;
14 [label="WorkingForJobAppliedFor <= -0.5\ngini = 0.03\nsamples = 42418\nvalue = [66112, 1043]\nclass = 0", fillcolor="#e58139fb"] ;
0 -> 14 [labeldistance=2.5, labelangle=-45, headlabel="False"] ;
15 [label="TotalYearsOfExp <= 0.0\ngini = 0.02\nsamples = 39851\nvalue = [62307, 730]\nclass = 0", fillcolor="#e58139fc"] ;
14 -> 15 ;
16 [label="RecentTrainingExperience1To <= 211.5\ngini = 0.27\nsamples = 1081\nvalue = [1417, 276]\nclass = 0", fillcolor="#e58139cd"] ;
15 -> 16 ;
17 [label="GymBadgePerm1 <= 0.5\ngini = 0.24\nsamples = 972\nvalue = [1315, 210]\nclass = 0", fillcolor="#e58139d6"] ;
16 -> 17 ;
18 [label="gini = 0.19\nsamples = 658\nvalue = [925, 109]\nclass = 0", fillcolor="#e58139e1"] ;
17 -> 18 ;
19 [label="gini = 0.33\nsamples = 314\nvalue = [390, 101]\nclass = 0", fillcolor="#e58139bd"] ;
17 -> 19 ;
20 [label="RecentTrainingExperience1Pokemon <= 8.0\ngini = 0.48\nsamples = 109\nvalue = [102, 66]\nclass = 0", fillcolor="#e581395a"] ;
16 -> 20 ;
21 [label="gini = 0.42\nsamples = 68\nvalue = [75, 32]\nclass = 0", fillcolor="#e5813992"] ;
20 -> 21 ;
22 [label="gini = 0.49\nsamples = 41\nvalue = [27, 34]\nclass = 1", fillcolor="#399de534"] ;
20 -> 22 ;
23 [label="RecentTrainingExperience4PayRateEndValue <= 1355.0\ngini = 0.01\nsamples = 38770\nvalue = [60890, 454]\nclass = 0", fillcolor="#e58139fd"] ;
15 -> 23 ;
24 [label="GraduateSchoolGPA <= 2.99\ngini = 0.01\nsamples = 38742\nvalue = [60850, 449]\nclass = 0", fillcolor="#e58139fd"] ;
23 -> 24 ;
25 [label="gini = 0.01\nsamples = 37257\nvalue = [58575, 407]\nclass = 0", fillcolor="#e58139fd"] ;
24 -> 25 ;
26 [label="gini = 0.04\nsamples = 1485\nvalue = [2275, 42]\nclass = 0", fillcolor="#e58139fa"] ;
24 -> 26 ;
27 [label="gini = 0.2\nsamples = 28\nvalue = [40, 5]\nclass = 0", fillcolor="#e58139df"] ;
23 -> 27 ;
28 [label="RecentTrainingExperience3From <= 296.5\ngini = 0.14\nsamples = 2567\nvalue = [3805, 313]\nclass = 0", fillcolor="#e58139ea"] ;
14 -> 28 ;
29 [label="JobStatusPartTime <= 0.5\ngini = 0.18\nsamples = 1170\nvalue = [1684, 187]\nclass = 0", fillcolor="#e58139e3"] ;
28 -> 29 ;
30 [label="ApplicationType <= 1.0\ngini = 0.21\nsamples = 804\nvalue = [1148, 160]\nclass = 0", fillcolor="#e58139db"] ;
29 -> 30 ;
31 [label="gini = 0.19\nsamples = 781\nvalue = [1135, 134]\nclass = 0", fillcolor="#e58139e1"] ;
30 -> 31 ;
32 [label="gini = 0.44\nsamples = 23\nvalue = [13, 26]\nclass = 1", fillcolor="#399de57f"] ;
30 -> 32 ;
33 [label="JobShiftEvening <= 0.5\ngini = 0.09\nsamples = 366\nvalue = [536, 27]\nclass = 0", fillcolor="#e58139f2"] ;
29 -> 33 ;
34 [label="gini = 0.13\nsamples = 132\nvalue = [188, 14]\nclass = 0", fillcolor="#e58139ec"] ;
33 -> 34 ;
35 [label="gini = 0.07\nsamples = 234\nvalue = [348, 13]\nclass = 0", fillcolor="#e58139f5"] ;
33 -> 35 ;
36 [label="WorkingForJobAppliedFor <= 0.5\ngini = 0.11\nsamples = 1397\nvalue = [2121, 126]\nclass = 0", fillcolor="#e58139f0"] ;
28 -> 36 ;
37 [label="TotalYearsOfExp <= 0.0\ngini = 0.07\nsamples = 892\nvalue = [1372, 53]\nclass = 0", fillcolor="#e58139f5"] ;
36 -> 37 ;
38 [label="gini = 0.35\nsamples = 30\nvalue = [37, 11]\nclass = 0", fillcolor="#e58139b3"] ;
37 -> 38 ;
39 [label="gini = 0.06\nsamples = 862\nvalue = [1335, 42]\nclass = 0", fillcolor="#e58139f7"] ;
37 -> 39 ;
40 [label="InternalEmployee <= 0.5\ngini = 0.16\nsamples = 505\nvalue = [749, 73]\nclass = 0", fillcolor="#e58139e6"] ;
36 -> 40 ;
41 [label="gini = 0.0\nsamples = 1\nvalue = [0, 2]\nclass = 1", fillcolor="#399de5ff"] ;
40 -> 41 ;
42 [label="gini = 0.16\nsamples = 504\nvalue = [749, 71]\nclass = 0", fillcolor="#e58139e7"] ;
40 -> 42 ;
}