digraph Tree {
node [shape=box, style="filled, rounded", color="black", fontname=helvetica] ;
edge [fontname=helvetica] ;
0 [label="GymBadgePerm4 <= -0.5\ngini = 0.04\nsamples = 42654\nvalue = [66198, 1226]\nclass = 0", fillcolor="#e58139fa"] ;
1 [label="CurrentlyTrainingPokemon <= -0.5\ngini = 0.16\nsamples = 2854\nvalue = [4168, 388]\nclass = 0", fillcolor="#e58139e7"] ;
0 -> 1 [labeldistance=2.5, labelangle=45, headlabel="True"] ;
2 [label="JobShiftNight <= -0.5\ngini = 0.2\nsamples = 1134\nvalue = [1594, 197]\nclass = 0", fillcolor="#e58139df"] ;
1 -> 2 ;
3 [label="JobPostingDate <= 23.5\ngini = 0.41\nsamples = 165\nvalue = [172, 68]\nclass = 0", fillcolor="#e581399a"] ;
2 -> 3 ;
4 [label="InternalEmployee <= 0.5\ngini = 0.05\nsamples = 71\nvalue = [104, 3]\nclass = 0", fillcolor="#e58139f8"] ;
3 -> 4 ;
5 [label="gini = 0.06\nsamples = 67\nvalue = [99, 3]\nclass = 0", fillcolor="#e58139f7"] ;
4 -> 5 ;
6 [label="gini = 0.0\nsamples = 4\nvalue = [5, 0]\nclass = 0", fillcolor="#e58139ff"] ;
4 -> 6 ;
7 [label="InternalEmployee <= 0.5\ngini = 0.5\nsamples = 94\nvalue = [68, 65]\nclass = 0", fillcolor="#e581390b"] ;
3 -> 7 ;
8 [label="gini = 0.47\nsamples = 83\nvalue = [68, 43]\nclass = 0", fillcolor="#e581395e"] ;
7 -> 8 ;
9 [label="gini = 0.0\nsamples = 11\nvalue = [0, 22]\nclass = 1", fillcolor="#399de5ff"] ;
7 -> 9 ;
10 [label="HighEduLevelCompleted <= -0.5\ngini = 0.15\nsamples = 969\nvalue = [1422, 129]\nclass = 0", fillcolor="#e58139e8"] ;
2 -> 10 ;
11 [label="gini = 0.41\nsamples = 46\nvalue = [58, 24]\nclass = 0", fillcolor="#e5813995"] ;
10 -> 11 ;
12 [label="WorkingForJobAppliedFor <= 0.5\ngini = 0.13\nsamples = 923\nvalue = [1364, 105]\nclass = 0", fillcolor="#e58139eb"] ;
10 -> 12 ;
13 [label="gini = 0.08\nsamples = 643\nvalue = [977, 42]\nclass = 0", fillcolor="#e58139f4"] ;
12 -> 13 ;
14 [label="gini = 0.24\nsamples = 280\nvalue = [387, 63]\nclass = 0", fillcolor="#e58139d5"] ;
12 -> 14 ;
15 [label="JobShiftWeekend <= 0.5\ngini = 0.13\nsamples = 1720\nvalue = [2574, 191]\nclass = 0", fillcolor="#e58139ec"] ;
1 -> 15 ;
16 [label="RecentTrainingExperience2From <= 359.5\ngini = 0.19\nsamples = 922\nvalue = [1298, 150]\nclass = 0", fillcolor="#e58139e2"] ;
15 -> 16 ;
17 [label="ApplicationType <= 1.0\ngini = 0.24\nsamples = 420\nvalue = [565, 89]\nclass = 0", fillcolor="#e58139d7"] ;
16 -> 17 ;
18 [label="gini = 0.2\nsamples = 400\nvalue = [549, 68]\nclass = 0", fillcolor="#e58139df"] ;
17 -> 18 ;
19 [label="gini = 0.49\nsamples = 20\nvalue = [16, 21]\nclass = 1", fillcolor="#399de53d"] ;
17 -> 19 ;
20 [label="PositionForTrainingPokemon <= 26.5\ngini = 0.14\nsamples = 502\nvalue = [733, 61]\nclass = 0", fillcolor="#e58139ea"] ;
16 -> 20 ;
21 [label="gini = 0.16\nsamples = 447\nvalue = [649, 61]\nclass = 0", fillcolor="#e58139e7"] ;
20 -> 21 ;
22 [label="gini = 0.0\nsamples = 55\nvalue = [84, 0]\nclass = 0", fillcolor="#e58139ff"] ;
20 -> 22 ;
23 [label="ApplicationType <= 1.0\ngini = 0.06\nsamples = 798\nvalue = [1276, 41]\nclass = 0", fillcolor="#e58139f7"] ;
15 -> 23 ;
24 [label="HighEduLevelCompleted <= 7.0\ngini = 0.05\nsamples = 780\nvalue = [1258, 35]\nclass = 0", fillcolor="#e58139f8"] ;
23 -> 24 ;
25 [label="gini = 0.05\nsamples = 766\nvalue = [1237, 32]\nclass = 0", fillcolor="#e58139f8"] ;
24 -> 25 ;
26 [label="gini = 0.22\nsamples = 14\nvalue = [21, 3]\nclass = 0", fillcolor="#e58139db"] ;
24 -> 26 ;
27 [label="gini = 0.38\nsamples = 18\nvalue = [18, 6]\nclass = 0", fillcolor="#e58139aa"] ;
23 -> 27 ;
28 [label="ApplicationType <= 1.0\ngini = 0.03\nsamples = 39800\nvalue = [62030, 838]\nclass = 0", fillcolor="#e58139fc"] ;
0 -> 28 [labeldistance=2.5, labelangle=-45, headlabel="False"] ;
29 [label="RecentTrainingExperience4PayRateEndValue <= 1370.5\ngini = 0.02\nsamples = 39030\nvalue = [61134, 529]\nclass = 0", fillcolor="#e58139fd"] ;
28 -> 29 ;
30 [label="RecentTrainingExperience2PayRateEndValue <= 2366.0\ngini = 0.02\nsamples = 39028\nvalue = [61131, 526]\nclass = 0", fillcolor="#e58139fd"] ;
29 -> 30 ;
31 [label="RecentTrainingExperience1PayRateEndValue <= 1.5\ngini = 0.02\nsamples = 39021\nvalue = [61125, 524]\nclass = 0", fillcolor="#e58139fd"] ;
30 -> 31 ;
32 [label="gini = 0.03\nsamples = 9714\nvalue = [15067, 208]\nclass = 0", fillcolor="#e58139fb"] ;
31 -> 32 ;
33 [label="gini = 0.01\nsamples = 29307\nvalue = [46058, 316]\nclass = 0", fillcolor="#e58139fd"] ;
31 -> 33 ;
34 [label="gini = 0.38\nsamples = 7\nvalue = [6, 2]\nclass = 0", fillcolor="#e58139aa"] ;
30 -> 34 ;
35 [label="gini = 0.5\nsamples = 2\nvalue = [3, 3]\nclass = 0", fillcolor="#e5813900"] ;
29 -> 35 ;
36 [label="RecentTrainingExperienceContactForRefPostHire <= -0.5\ngini = 0.38\nsamples = 770\nvalue = [896, 309]\nclass = 0", fillcolor="#e58139a7"] ;
28 -> 36 ;
37 [label="RecentTrainingExperience1To <= 215.5\ngini = 0.48\nsamples = 287\nvalue = [280, 178]\nclass = 0", fillcolor="#e581395d"] ;
36 -> 37 ;
38 [label="PositionForTrainingPokemon <= 8.5\ngini = 0.46\nsamples = 243\nvalue = [256, 138]\nclass = 0", fillcolor="#e5813976"] ;
37 -> 38 ;
39 [label="gini = 0.37\nsamples = 141\nvalue = [171, 56]\nclass = 0", fillcolor="#e58139ab"] ;
38 -> 39 ;
40 [label="gini = 0.5\nsamples = 102\nvalue = [85, 82]\nclass = 0", fillcolor="#e5813909"] ;
38 -> 40 ;
41 [label="gini = 0.47\nsamples = 44\nvalue = [24, 40]\nclass = 1", fillcolor="#399de566"] ;
37 -> 41 ;
42 [label="GymCertificationEverSuspended <= -0.5\ngini = 0.29\nsamples = 483\nvalue = [616, 131]\nclass = 0", fillcolor="#e58139c9"] ;
36 -> 42 ;
43 [label="JobPostingDate <= 934.0\ngini = 0.15\nsamples = 220\nvalue = [317, 28]\nclass = 0", fillcolor="#e58139e8"] ;
42 -> 43 ;
44 [label="gini = 0.11\nsamples = 201\nvalue = [302, 18]\nclass = 0", fillcolor="#e58139f0"] ;
43 -> 44 ;
45 [label="gini = 0.48\nsamples = 19\nvalue = [15, 10]\nclass = 0", fillcolor="#e5813955"] ;
43 -> 45 ;
46 [label="RecentTrainingExperience4ContactForRef <= 0.5\ngini = 0.38\nsamples = 263\nvalue = [299, 103]\nclass = 0", fillcolor="#e58139a7"] ;
42 -> 46 ;
47 [label="gini = 0.41\nsamples = 169\nvalue = [183, 73]\nclass = 0", fillcolor="#e5813999"] ;
46 -> 47 ;
48 [label="gini = 0.33\nsamples = 94\nvalue = [116, 30]\nclass = 0", fillcolor="#e58139bd"] ;
46 -> 48 ;
}