digraph Tree {
node [shape=box, style="filled, rounded", color="black", fontname=helvetica] ;
edge [fontname=helvetica] ;
0 [label="GymBadgeTemp1 <= -0.5\ngini = 0.04\nsamples = 42492\nvalue = [66143, 1281]\nclass = 0", fillcolor="#e58139fa"] ;
1 [label="ApplicationType <= 0.5\ngini = 0.17\nsamples = 2808\nvalue = [4060, 422]\nclass = 0", fillcolor="#e58139e4"] ;
0 -> 1 [labeldistance=2.5, labelangle=45, headlabel="True"] ;
2 [label="JobShiftDay <= -0.5\ngini = 0.15\nsamples = 2704\nvalue = [3963, 358]\nclass = 0", fillcolor="#e58139e8"] ;
1 -> 2 ;
3 [label="InternalEmployee <= 0.5\ngini = 0.42\nsamples = 152\nvalue = [173, 76]\nclass = 0", fillcolor="#e581398f"] ;
2 -> 3 ;
4 [label="RecentTrainingExperienceContactForRefPostHire <= -0.5\ngini = 0.37\nsamples = 135\nvalue = [167, 55]\nclass = 0", fillcolor="#e58139ab"] ;
3 -> 4 ;
5 [label="gini = 0.38\nsamples = 129\nvalue = [157, 55]\nclass = 0", fillcolor="#e58139a6"] ;
4 -> 5 ;
6 [label="gini = 0.0\nsamples = 6\nvalue = [10, 0]\nclass = 0", fillcolor="#e58139ff"] ;
4 -> 6 ;
7 [label="gini = 0.35\nsamples = 17\nvalue = [6, 21]\nclass = 1", fillcolor="#399de5b6"] ;
3 -> 7 ;
8 [label="RecentTrainingExperience3To <= 296.0\ngini = 0.13\nsamples = 2552\nvalue = [3790, 282]\nclass = 0", fillcolor="#e58139ec"] ;
2 -> 8 ;
9 [label="TotalYearsOfExp <= 4.0\ngini = 0.16\nsamples = 1388\nvalue = [1997, 199]\nclass = 0", fillcolor="#e58139e6"] ;
8 -> 9 ;
10 [label="gini = 0.12\nsamples = 742\nvalue = [1078, 75]\nclass = 0", fillcolor="#e58139ed"] ;
9 -> 10 ;
11 [label="gini = 0.21\nsamples = 646\nvalue = [919, 124]\nclass = 0", fillcolor="#e58139dd"] ;
9 -> 11 ;
12 [label="SpokenWithCurrentBoss <= 0.5\ngini = 0.08\nsamples = 1164\nvalue = [1793, 83]\nclass = 0", fillcolor="#e58139f3"] ;
8 -> 12 ;
13 [label="gini = 0.03\nsamples = 325\nvalue = [519, 9]\nclass = 0", fillcolor="#e58139fb"] ;
12 -> 13 ;
14 [label="gini = 0.1\nsamples = 839\nvalue = [1274, 74]\nclass = 0", fillcolor="#e58139f0"] ;
12 -> 14 ;
15 [label="PositionForTrainingPokemon <= 7.5\ngini = 0.48\nsamples = 104\nvalue = [97, 64]\nclass = 0", fillcolor="#e5813957"] ;
1 -> 15 ;
16 [label="gini = 0.42\nsamples = 49\nvalue = [54, 23]\nclass = 0", fillcolor="#e5813992"] ;
15 -> 16 ;
17 [label="SpokenWithCurrentBoss <= -0.5\ngini = 0.5\nsamples = 55\nvalue = [43, 41]\nclass = 0", fillcolor="#e581390c"] ;
15 -> 17 ;
18 [label="gini = 0.26\nsamples = 15\nvalue = [17, 3]\nclass = 0", fillcolor="#e58139d2"] ;
17 -> 18 ;
19 [label="gini = 0.48\nsamples = 40\nvalue = [26, 38]\nclass = 1", fillcolor="#399de551"] ;
17 -> 19 ;
20 [label="GymBadgePerm1 <= 0.5\ngini = 0.03\nsamples = 39684\nvalue = [62083, 859]\nclass = 0", fillcolor="#e58139fb"] ;
0 -> 20 [labeldistance=2.5, labelangle=-45, headlabel="False"] ;
21 [label="ApplicationType <= 1.0\ngini = 0.02\nsamples = 26516\nvalue = [41589, 420]\nclass = 0", fillcolor="#e58139fc"] ;
20 -> 21 ;
22 [label="GraduateSchoolGPA <= 4.03\ngini = 0.01\nsamples = 26007\nvalue = [40933, 280]\nclass = 0", fillcolor="#e58139fd"] ;
21 -> 22 ;
23 [label="TotalYearsOfExp <= 9.5\ngini = 0.01\nsamples = 26006\nvalue = [40933, 277]\nclass = 0", fillcolor="#e58139fd"] ;
22 -> 23 ;
24 [label="gini = 0.01\nsamples = 22094\nvalue = [34837, 207]\nclass = 0", fillcolor="#e58139fd"] ;
23 -> 24 ;
25 [label="gini = 0.02\nsamples = 3912\nvalue = [6096, 70]\nclass = 0", fillcolor="#e58139fc"] ;
23 -> 25 ;
26 [label="gini = 0.0\nsamples = 1\nvalue = [0, 3]\nclass = 1", fillcolor="#399de5ff"] ;
22 -> 26 ;
27 [label="RecentTrainingExperience1To <= 207.5\ngini = 0.29\nsamples = 509\nvalue = [656, 140]\nclass = 0", fillcolor="#e58139c9"] ;
21 -> 27 ;
28 [label="UndergradSchoolGPA <= 3.74\ngini = 0.24\nsamples = 454\nvalue = [616, 102]\nclass = 0", fillcolor="#e58139d5"] ;
27 -> 28 ;
29 [label="gini = 0.25\nsamples = 440\nvalue = [594, 102]\nclass = 0", fillcolor="#e58139d3"] ;
28 -> 29 ;
30 [label="gini = 0.0\nsamples = 14\nvalue = [22, 0]\nclass = 0", fillcolor="#e58139ff"] ;
28 -> 30 ;
31 [label="RecentTrainingExperienceContactForRefYes <= 0.5\ngini = 0.5\nsamples = 55\nvalue = [40, 38]\nclass = 0", fillcolor="#e581390d"] ;
27 -> 31 ;
32 [label="gini = 0.47\nsamples = 39\nvalue = [34, 21]\nclass = 0", fillcolor="#e5813961"] ;
31 -> 32 ;
33 [label="gini = 0.39\nsamples = 16\nvalue = [6, 17]\nclass = 1", fillcolor="#399de5a5"] ;
31 -> 33 ;
34 [label="JobShiftWeekend <= 0.5\ngini = 0.04\nsamples = 13168\nvalue = [20494, 439]\nclass = 0", fillcolor="#e58139fa"] ;
20 -> 34 ;
35 [label="PokemonTrainerClass <= 6.5\ngini = 0.06\nsamples = 4005\nvalue = [6196, 200]\nclass = 0", fillcolor="#e58139f7"] ;
34 -> 35 ;
36 [label="RecentTrainingExperience1To <= 234.5\ngini = 0.07\nsamples = 3450\nvalue = [5309, 193]\nclass = 0", fillcolor="#e58139f6"] ;
35 -> 36 ;
37 [label="gini = 0.07\nsamples = 3438\nvalue = [5292, 189]\nclass = 0", fillcolor="#e58139f6"] ;
36 -> 37 ;
38 [label="gini = 0.31\nsamples = 12\nvalue = [17, 4]\nclass = 0", fillcolor="#e58139c3"] ;
36 -> 38 ;
39 [label="RecentTrainingExperience3From <= 420.5\ngini = 0.02\nsamples = 555\nvalue = [887, 7]\nclass = 0", fillcolor="#e58139fd"] ;
35 -> 39 ;
40 [label="gini = 0.0\nsamples = 419\nvalue = [676, 0]\nclass = 0", fillcolor="#e58139ff"] ;
39 -> 40 ;
41 [label="gini = 0.06\nsamples = 136\nvalue = [211, 7]\nclass = 0", fillcolor="#e58139f7"] ;
39 -> 41 ;
42 [label="JobStatusPerDiem <= 0.5\ngini = 0.03\nsamples = 9163\nvalue = [14298, 239]\nclass = 0", fillcolor="#e58139fb"] ;
34 -> 42 ;
43 [label="ApplicationType <= 1.0\ngini = 0.03\nsamples = 5852\nvalue = [9138, 126]\nclass = 0", fillcolor="#e58139fb"] ;
42 -> 43 ;
44 [label="gini = 0.02\nsamples = 5760\nvalue = [9035, 74]\nclass = 0", fillcolor="#e58139fd"] ;
43 -> 44 ;
45 [label="gini = 0.45\nsamples = 92\nvalue = [103, 52]\nclass = 0", fillcolor="#e581397e"] ;
43 -> 45 ;
46 [label="JobPostingDate <= 1297.0\ngini = 0.04\nsamples = 3311\nvalue = [5160, 113]\nclass = 0", fillcolor="#e58139f9"] ;
42 -> 46 ;
47 [label="gini = 0.04\nsamples = 3310\nvalue = [5160, 110]\nclass = 0", fillcolor="#e58139fa"] ;
46 -> 47 ;
48 [label="gini = 0.0\nsamples = 1\nvalue = [0, 3]\nclass = 1", fillcolor="#399de5ff"] ;
46 -> 48 ;
}