digraph Tree {
node [shape=box, style="filled, rounded", color="black", fontname=helvetica] ;
edge [fontname=helvetica] ;
0 [label="GymBadgeTemp3 <= -0.5\ngini = 0.04\nsamples = 42629\nvalue = [66177, 1247]\nclass = 0", fillcolor="#e58139fa"] ;
1 [label="JobShiftNight <= -0.5\ngini = 0.17\nsamples = 2818\nvalue = [4095, 426]\nclass = 0", fillcolor="#e58139e4"] ;
0 -> 1 [labeldistance=2.5, labelangle=45, headlabel="True"] ;
2 [label="PositionForTrainingPokemon <= 25.0\ngini = 0.44\nsamples = 176\nvalue = [193, 93]\nclass = 0", fillcolor="#e5813984"] ;
1 -> 2 ;
3 [label="PokemonTrainerClass <= 1.5\ngini = 0.42\nsamples = 164\nvalue = [189, 80]\nclass = 0", fillcolor="#e5813993"] ;
2 -> 3 ;
4 [label="gini = 0.0\nsamples = 1\nvalue = [0, 4]\nclass = 1", fillcolor="#399de5ff"] ;
3 -> 4 ;
5 [label="JobPostingDate <= 107.5\ngini = 0.41\nsamples = 163\nvalue = [189, 76]\nclass = 0", fillcolor="#e5813998"] ;
3 -> 5 ;
6 [label="gini = 0.17\nsamples = 89\nvalue = [128, 13]\nclass = 0", fillcolor="#e58139e5"] ;
5 -> 6 ;
7 [label="gini = 0.5\nsamples = 74\nvalue = [61, 63]\nclass = 1", fillcolor="#399de508"] ;
5 -> 7 ;
8 [label="gini = 0.36\nsamples = 12\nvalue = [4, 13]\nclass = 1", fillcolor="#399de5b1"] ;
2 -> 8 ;
9 [label="RecentTrainingExperience1Pokemon <= 10.5\ngini = 0.14\nsamples = 2642\nvalue = [3902, 333]\nclass = 0", fillcolor="#e58139e9"] ;
1 -> 9 ;
10 [label="GraduateSchoolGraduate <= 0.5\ngini = 0.13\nsamples = 1440\nvalue = [2158, 164]\nclass = 0", fillcolor="#e58139ec"] ;
9 -> 10 ;
11 [label="JobSchedule <= 5.5\ngini = 0.12\nsamples = 1377\nvalue = [2073, 139]\nclass = 0", fillcolor="#e58139ee"] ;
10 -> 11 ;
12 [label="gini = 0.13\nsamples = 1200\nvalue = [1792, 133]\nclass = 0", fillcolor="#e58139ec"] ;
11 -> 12 ;
13 [label="gini = 0.04\nsamples = 177\nvalue = [281, 6]\nclass = 0", fillcolor="#e58139fa"] ;
11 -> 13 ;
14 [label="RecentTrainingExperience2From <= 564.5\ngini = 0.35\nsamples = 63\nvalue = [85, 25]\nclass = 0", fillcolor="#e58139b4"] ;
10 -> 14 ;
15 [label="gini = 0.32\nsamples = 61\nvalue = [85, 21]\nclass = 0", fillcolor="#e58139c0"] ;
14 -> 15 ;
16 [label="gini = 0.0\nsamples = 2\nvalue = [0, 4]\nclass = 1", fillcolor="#399de5ff"] ;
14 -> 16 ;
17 [label="JobShiftEvening <= 0.5\ngini = 0.16\nsamples = 1202\nvalue = [1744, 169]\nclass = 0", fillcolor="#e58139e6"] ;
9 -> 17 ;
18 [label="HighEduLevelCompleted <= -0.5\ngini = 0.21\nsamples = 636\nvalue = [903, 120]\nclass = 0", fillcolor="#e58139dd"] ;
17 -> 18 ;
19 [label="gini = 0.5\nsamples = 43\nvalue = [36, 33]\nclass = 0", fillcolor="#e5813915"] ;
18 -> 19 ;
20 [label="gini = 0.17\nsamples = 593\nvalue = [867, 87]\nclass = 0", fillcolor="#e58139e5"] ;
18 -> 20 ;
21 [label="HighSchoolGraduate <= -0.5\ngini = 0.1\nsamples = 566\nvalue = [841, 49]\nclass = 0", fillcolor="#e58139f0"] ;
17 -> 21 ;
22 [label="gini = 0.28\nsamples = 56\nvalue = [69, 14]\nclass = 0", fillcolor="#e58139cb"] ;
21 -> 22 ;
23 [label="gini = 0.08\nsamples = 510\nvalue = [772, 35]\nclass = 0", fillcolor="#e58139f3"] ;
21 -> 23 ;
24 [label="CurrentlyWorkInThisRegion <= 0.5\ngini = 0.03\nsamples = 39811\nvalue = [62082, 821]\nclass = 0", fillcolor="#e58139fc"] ;
0 -> 24 [labeldistance=2.5, labelangle=-45, headlabel="False"] ;
25 [label="JobShiftNight <= 0.5\ngini = 0.02\nsamples = 39207\nvalue = [61243, 771]\nclass = 0", fillcolor="#e58139fc"] ;
24 -> 25 ;
26 [label="RecentTrainingExperience1To <= 226.5\ngini = 0.03\nsamples = 15672\nvalue = [24403, 409]\nclass = 0", fillcolor="#e58139fb"] ;
25 -> 26 ;
27 [label="PokemonTrainerClass <= 6.5\ngini = 0.03\nsamples = 15559\nvalue = [24248, 396]\nclass = 0", fillcolor="#e58139fb"] ;
26 -> 27 ;
28 [label="gini = 0.04\nsamples = 10915\nvalue = [16983, 350]\nclass = 0", fillcolor="#e58139fa"] ;
27 -> 28 ;
29 [label="gini = 0.01\nsamples = 4644\nvalue = [7265, 46]\nclass = 0", fillcolor="#e58139fd"] ;
27 -> 29 ;
30 [label="RecentTrainingExperience1Pokemon <= 35.0\ngini = 0.14\nsamples = 113\nvalue = [155, 13]\nclass = 0", fillcolor="#e58139ea"] ;
26 -> 30 ;
31 [label="gini = 0.13\nsamples = 109\nvalue = [152, 11]\nclass = 0", fillcolor="#e58139ed"] ;
30 -> 31 ;
32 [label="gini = 0.48\nsamples = 4\nvalue = [3, 2]\nclass = 0", fillcolor="#e5813955"] ;
30 -> 32 ;
33 [label="RecentTrainingExperience4PayRateEndValue <= 1369.5\ngini = 0.02\nsamples = 23535\nvalue = [36840, 362]\nclass = 0", fillcolor="#e58139fc"] ;
25 -> 33 ;
34 [label="RecentTrainingExperience4From <= 531.0\ngini = 0.02\nsamples = 23533\nvalue = [36838, 360]\nclass = 0", fillcolor="#e58139fd"] ;
33 -> 34 ;
35 [label="gini = 0.02\nsamples = 23532\nvalue = [36838, 358]\nclass = 0", fillcolor="#e58139fd"] ;
34 -> 35 ;
36 [label="gini = 0.0\nsamples = 1\nvalue = [0, 2]\nclass = 1", fillcolor="#399de5ff"] ;
34 -> 36 ;
37 [label="gini = 0.5\nsamples = 2\nvalue = [2, 2]\nclass = 0", fillcolor="#e5813900"] ;
33 -> 37 ;
38 [label="ApplicationType <= 1.0\ngini = 0.11\nsamples = 604\nvalue = [839, 50]\nclass = 0", fillcolor="#e58139f0"] ;
24 -> 38 ;
39 [label="JobPostingDate <= 390.0\ngini = 0.08\nsamples = 583\nvalue = [821, 36]\nclass = 0", fillcolor="#e58139f4"] ;
38 -> 39 ;
40 [label="WorkedInThisRegion <= 0.5\ngini = 0.18\nsamples = 127\nvalue = [166, 18]\nclass = 0", fillcolor="#e58139e3"] ;
39 -> 40 ;
41 [label="gini = 0.05\nsamples = 60\nvalue = [78, 2]\nclass = 0", fillcolor="#e58139f8"] ;
40 -> 41 ;
42 [label="gini = 0.26\nsamples = 67\nvalue = [88, 16]\nclass = 0", fillcolor="#e58139d1"] ;
40 -> 42 ;
43 [label="JobShiftEvening <= 0.5\ngini = 0.05\nsamples = 456\nvalue = [655, 18]\nclass = 0", fillcolor="#e58139f8"] ;
39 -> 43 ;
44 [label="gini = 0.09\nsamples = 186\nvalue = [250, 12]\nclass = 0", fillcolor="#e58139f3"] ;
43 -> 44 ;
45 [label="gini = 0.03\nsamples = 270\nvalue = [405, 6]\nclass = 0", fillcolor="#e58139fb"] ;
43 -> 45 ;
46 [label="gini = 0.49\nsamples = 21\nvalue = [18, 14]\nclass = 0", fillcolor="#e5813939"] ;
38 -> 46 ;
}