digraph Tree {
node [shape=box, style="filled, rounded", color="black", fontname=helvetica] ;
edge [fontname=helvetica] ;
0 [label="GymBadgeTemp4 <= -0.5\ngini = 0.03\nsamples = 42585\nvalue = [66237, 1187]\nclass = 0", fillcolor="#e58139fa"] ;
1 [label="TechnicalSchoolGraduate <= 0.5\ngini = 0.16\nsamples = 2745\nvalue = [3994, 384]\nclass = 0", fillcolor="#e58139e6"] ;
0 -> 1 [labeldistance=2.5, labelangle=45, headlabel="True"] ;
2 [label="LastPerformaceRating <= -0.5\ngini = 0.18\nsamples = 1906\nvalue = [2728, 311]\nclass = 0", fillcolor="#e58139e2"] ;
1 -> 2 ;
3 [label="HighEduLevelCompleted <= -0.5\ngini = 0.43\nsamples = 171\nvalue = [170, 76]\nclass = 0", fillcolor="#e581398d"] ;
2 -> 3 ;
4 [label="JobPostingDate <= 134.5\ngini = 0.47\nsamples = 135\nvalue = [117, 74]\nclass = 0", fillcolor="#e581395e"] ;
3 -> 4 ;
5 [label="gini = 0.05\nsamples = 61\nvalue = [75, 2]\nclass = 0", fillcolor="#e58139f8"] ;
4 -> 5 ;
6 [label="gini = 0.47\nsamples = 74\nvalue = [42, 72]\nclass = 1", fillcolor="#399de56a"] ;
4 -> 6 ;
7 [label="gini = 0.07\nsamples = 36\nvalue = [53, 2]\nclass = 0", fillcolor="#e58139f5"] ;
3 -> 7 ;
8 [label="TotalYearsOfExp <= 0.0\ngini = 0.15\nsamples = 1735\nvalue = [2558, 235]\nclass = 0", fillcolor="#e58139e8"] ;
2 -> 8 ;
9 [label="ApplicationType <= 1.0\ngini = 0.45\nsamples = 80\nvalue = [81, 42]\nclass = 0", fillcolor="#e581397b"] ;
8 -> 9 ;
10 [label="gini = 0.18\nsamples = 31\nvalue = [46, 5]\nclass = 0", fillcolor="#e58139e3"] ;
9 -> 10 ;
11 [label="gini = 0.5\nsamples = 49\nvalue = [35, 37]\nclass = 1", fillcolor="#399de50e"] ;
9 -> 11 ;
12 [label="HighEduLevelCompleted <= 8.0\ngini = 0.13\nsamples = 1655\nvalue = [2477, 193]\nclass = 0", fillcolor="#e58139eb"] ;
8 -> 12 ;
13 [label="gini = 0.11\nsamples = 1570\nvalue = [2372, 146]\nclass = 0", fillcolor="#e58139ef"] ;
12 -> 13 ;
14 [label="gini = 0.43\nsamples = 85\nvalue = [105, 47]\nclass = 0", fillcolor="#e581398d"] ;
12 -> 14 ;
15 [label="JobShiftDay <= 0.5\ngini = 0.1\nsamples = 839\nvalue = [1266, 73]\nclass = 0", fillcolor="#e58139f0"] ;
1 -> 15 ;
16 [label="RecentTrainingExperience3To <= 407.5\ngini = 0.22\nsamples = 97\nvalue = [135, 19]\nclass = 0", fillcolor="#e58139db"] ;
15 -> 16 ;
17 [label="RecentTrainingExperience3Pokemon <= 14.5\ngini = 0.2\nsamples = 94\nvalue = [133, 17]\nclass = 0", fillcolor="#e58139de"] ;
16 -> 17 ;
18 [label="gini = 0.22\nsamples = 84\nvalue = [118, 17]\nclass = 0", fillcolor="#e58139da"] ;
17 -> 18 ;
19 [label="gini = 0.0\nsamples = 10\nvalue = [15, 0]\nclass = 0", fillcolor="#e58139ff"] ;
17 -> 19 ;
20 [label="gini = 0.5\nsamples = 3\nvalue = [2, 2]\nclass = 0", fillcolor="#e5813900"] ;
16 -> 20 ;
21 [label="TotalYearsOfExp <= 0.0\ngini = 0.09\nsamples = 742\nvalue = [1131, 54]\nclass = 0", fillcolor="#e58139f3"] ;
15 -> 21 ;
22 [label="gini = 0.49\nsamples = 26\nvalue = [21, 16]\nclass = 0", fillcolor="#e581393d"] ;
21 -> 22 ;
23 [label="HighEduLevelCompleted <= 9.5\ngini = 0.06\nsamples = 716\nvalue = [1110, 38]\nclass = 0", fillcolor="#e58139f6"] ;
21 -> 23 ;
24 [label="gini = 0.06\nsamples = 715\nvalue = [1110, 36]\nclass = 0", fillcolor="#e58139f7"] ;
23 -> 24 ;
25 [label="gini = 0.0\nsamples = 1\nvalue = [0, 2]\nclass = 1", fillcolor="#399de5ff"] ;
23 -> 25 ;
26 [label="PokemonTrainerClass <= 6.5\ngini = 0.03\nsamples = 39840\nvalue = [62243, 803]\nclass = 0", fillcolor="#e58139fc"] ;
0 -> 26 [labeldistance=2.5, labelangle=-45, headlabel="False"] ;
27 [label="GraduateSchoolGraduate <= 0.5\ngini = 0.03\nsamples = 30159\nvalue = [47029, 714]\nclass = 0", fillcolor="#e58139fb"] ;
26 -> 27 ;
28 [label="CurrentlyWorkInThisRegion <= 0.5\ngini = 0.03\nsamples = 27893\nvalue = [43565, 594]\nclass = 0", fillcolor="#e58139fc"] ;
27 -> 28 ;
29 [label="RecentTrainingExperience1To <= 207.5\ngini = 0.03\nsamples = 27512\nvalue = [42989, 564]\nclass = 0", fillcolor="#e58139fc"] ;
28 -> 29 ;
30 [label="gini = 0.02\nsamples = 21464\nvalue = [33597, 380]\nclass = 0", fillcolor="#e58139fc"] ;
29 -> 30 ;
31 [label="gini = 0.04\nsamples = 6048\nvalue = [9392, 184]\nclass = 0", fillcolor="#e58139fa"] ;
29 -> 31 ;
32 [label="RecentTrainingExperience1PayRateEndValue <= 2311.5\ngini = 0.09\nsamples = 381\nvalue = [576, 30]\nclass = 0", fillcolor="#e58139f2"] ;
28 -> 32 ;
33 [label="gini = 0.07\nsamples = 314\nvalue = [479, 18]\nclass = 0", fillcolor="#e58139f5"] ;
32 -> 33 ;
34 [label="gini = 0.2\nsamples = 67\nvalue = [97, 12]\nclass = 0", fillcolor="#e58139df"] ;
32 -> 34 ;
35 [label="HighEduLevelCompleted <= 7.5\ngini = 0.06\nsamples = 2266\nvalue = [3464, 120]\nclass = 0", fillcolor="#e58139f6"] ;
27 -> 35 ;
36 [label="JobStatusFullTime <= 0.5\ngini = 0.05\nsamples = 1150\nvalue = [1773, 45]\nclass = 0", fillcolor="#e58139f9"] ;
35 -> 36 ;
37 [label="gini = 0.1\nsamples = 102\nvalue = [148, 8]\nclass = 0", fillcolor="#e58139f1"] ;
36 -> 37 ;
38 [label="gini = 0.04\nsamples = 1048\nvalue = [1625, 37]\nclass = 0", fillcolor="#e58139f9"] ;
36 -> 38 ;
39 [label="JobStatusFullTime <= 0.5\ngini = 0.08\nsamples = 1116\nvalue = [1691, 75]\nclass = 0", fillcolor="#e58139f4"] ;
35 -> 39 ;
40 [label="gini = 0.22\nsamples = 95\nvalue = [131, 19]\nclass = 0", fillcolor="#e58139da"] ;
39 -> 40 ;
41 [label="gini = 0.07\nsamples = 1021\nvalue = [1560, 56]\nclass = 0", fillcolor="#e58139f6"] ;
39 -> 41 ;
42 [label="RecentTrainingExperience1ContactForRef <= 0.5\ngini = 0.01\nsamples = 9681\nvalue = [15214, 89]\nclass = 0", fillcolor="#e58139fe"] ;
26 -> 42 ;
43 [label="ApplicationType <= 1.0\ngini = 0.04\nsamples = 715\nvalue = [1068, 20]\nclass = 0", fillcolor="#e58139fa"] ;
42 -> 43 ;
44 [label="RecentTrainingExperience1From <= 433.5\ngini = 0.03\nsamples = 709\nvalue = [1059, 16]\nclass = 0", fillcolor="#e58139fb"] ;
43 -> 44 ;
45 [label="gini = 0.01\nsamples = 407\nvalue = [623, 2]\nclass = 0", fillcolor="#e58139fe"] ;
44 -> 45 ;
46 [label="gini = 0.06\nsamples = 302\nvalue = [436, 14]\nclass = 0", fillcolor="#e58139f7"] ;
44 -> 46 ;
47 [label="gini = 0.43\nsamples = 6\nvalue = [9, 4]\nclass = 0", fillcolor="#e581398e"] ;
43 -> 47 ;
48 [label="CurrentlyWorkInThisRegion <= 0.5\ngini = 0.01\nsamples = 8966\nvalue = [14146, 69]\nclass = 0", fillcolor="#e58139fe"] ;
42 -> 48 ;
49 [label="JobShiftRotating <= 0.5\ngini = 0.01\nsamples = 8800\nvalue = [13891, 61]\nclass = 0", fillcolor="#e58139fe"] ;
48 -> 49 ;
50 [label="gini = 0.01\nsamples = 5767\nvalue = [9075, 51]\nclass = 0", fillcolor="#e58139fe"] ;
49 -> 50 ;
51 [label="gini = 0.0\nsamples = 3033\nvalue = [4816, 10]\nclass = 0", fillcolor="#e58139fe"] ;
49 -> 51 ;
52 [label="JobShiftNight <= 0.5\ngini = 0.06\nsamples = 166\nvalue = [255, 8]\nclass = 0", fillcolor="#e58139f7"] ;
48 -> 52 ;
53 [label="gini = 0.12\nsamples = 82\nvalue = [121, 8]\nclass = 0", fillcolor="#e58139ee"] ;
52 -> 53 ;
54 [label="gini = 0.0\nsamples = 84\nvalue = [134, 0]\nclass = 0", fillcolor="#e58139ff"] ;
52 -> 54 ;
}