digraph Tree {
node [shape=box, style="filled, rounded", color="black", fontname=helvetica] ;
edge [fontname=helvetica] ;
0 [label="TotalYearsOfExp <= 0.0\ngini = 0.03\nsamples = 42666\nvalue = [66276, 1148]\nclass = 0", fillcolor="#e58139fb"] ;
1 [label="ApplicationType <= 0.5\ngini = 0.33\nsamples = 1352\nvalue = [1739, 455]\nclass = 0", fillcolor="#e58139bc"] ;
0 -> 1 [labeldistance=2.5, labelangle=45, headlabel="True"] ;
2 [label="JobStatusTemp <= -0.5\ngini = 0.19\nsamples = 494\nvalue = [705, 86]\nclass = 0", fillcolor="#e58139e0"] ;
1 -> 2 ;
3 [label="PokemonTrainerClass <= 3.5\ngini = 0.45\nsamples = 111\nvalue = [111, 58]\nclass = 0", fillcolor="#e581397a"] ;
2 -> 3 ;
4 [label="gini = 0.3\nsamples = 33\nvalue = [41, 9]\nclass = 0", fillcolor="#e58139c7"] ;
3 -> 4 ;
5 [label="JobPostingDate <= 22.5\ngini = 0.48\nsamples = 78\nvalue = [70, 49]\nclass = 0", fillcolor="#e581394d"] ;
3 -> 5 ;
6 [label="gini = 0.0\nsamples = 25\nvalue = [42, 0]\nclass = 0", fillcolor="#e58139ff"] ;
5 -> 6 ;
7 [label="gini = 0.46\nsamples = 53\nvalue = [28, 49]\nclass = 1", fillcolor="#399de56d"] ;
5 -> 7 ;
8 [label="CurrentlyWorkInThisRegion <= -0.5\ngini = 0.09\nsamples = 383\nvalue = [594, 28]\nclass = 0", fillcolor="#e58139f3"] ;
2 -> 8 ;
9 [label="GymBadgePerm1 <= -0.5\ngini = 0.2\nsamples = 71\nvalue = [101, 13]\nclass = 0", fillcolor="#e58139de"] ;
8 -> 9 ;
10 [label="gini = 0.37\nsamples = 34\nvalue = [40, 13]\nclass = 0", fillcolor="#e58139ac"] ;
9 -> 10 ;
11 [label="gini = 0.0\nsamples = 37\nvalue = [61, 0]\nclass = 0", fillcolor="#e58139ff"] ;
9 -> 11 ;
12 [label="GraduateSchoolGPA <= 3.92\ngini = 0.06\nsamples = 312\nvalue = [493, 15]\nclass = 0", fillcolor="#e58139f7"] ;
8 -> 12 ;
13 [label="gini = 0.05\nsamples = 311\nvalue = [493, 13]\nclass = 0", fillcolor="#e58139f8"] ;
12 -> 13 ;
14 [label="gini = 0.0\nsamples = 1\nvalue = [0, 2]\nclass = 1", fillcolor="#399de5ff"] ;
12 -> 14 ;
15 [label="GymBadgePerm1 <= 0.5\ngini = 0.39\nsamples = 858\nvalue = [1034, 369]\nclass = 0", fillcolor="#e58139a4"] ;
1 -> 15 ;
16 [label="RecentTrainingExperience1To <= 206.5\ngini = 0.34\nsamples = 600\nvalue = [773, 214]\nclass = 0", fillcolor="#e58139b8"] ;
15 -> 16 ;
17 [label="ApplyDate <= 400.0\ngini = 0.32\nsamples = 551\nvalue = [725, 180]\nclass = 0", fillcolor="#e58139c0"] ;
16 -> 17 ;
18 [label="gini = 0.49\nsamples = 86\nvalue = [82, 63]\nclass = 0", fillcolor="#e581393b"] ;
17 -> 18 ;
19 [label="gini = 0.26\nsamples = 465\nvalue = [643, 117]\nclass = 0", fillcolor="#e58139d1"] ;
17 -> 19 ;
20 [label="gini = 0.49\nsamples = 49\nvalue = [48, 34]\nclass = 0", fillcolor="#e581394a"] ;
16 -> 20 ;
21 [label="RecentTrainingExperience3PayRateEndValue <= 1507.0\ngini = 0.47\nsamples = 258\nvalue = [261, 155]\nclass = 0", fillcolor="#e5813968"] ;
15 -> 21 ;
22 [label="JobPostingDate <= 1094.0\ngini = 0.48\nsamples = 229\nvalue = [222, 148]\nclass = 0", fillcolor="#e5813955"] ;
21 -> 22 ;
23 [label="gini = 0.44\nsamples = 198\nvalue = [209, 101]\nclass = 0", fillcolor="#e5813984"] ;
22 -> 23 ;
24 [label="gini = 0.34\nsamples = 31\nvalue = [13, 47]\nclass = 1", fillcolor="#399de5b8"] ;
22 -> 24 ;
25 [label="gini = 0.26\nsamples = 29\nvalue = [39, 7]\nclass = 0", fillcolor="#e58139d1"] ;
21 -> 25 ;
26 [label="InternalEmployee <= 0.5\ngini = 0.02\nsamples = 41314\nvalue = [64537, 693]\nclass = 0", fillcolor="#e58139fc"] ;
0 -> 26 [labeldistance=2.5, labelangle=-45, headlabel="False"] ;
27 [label="GraduateSchoolGraduate <= 0.5\ngini = 0.02\nsamples = 38822\nvalue = [60881, 465]\nclass = 0", fillcolor="#e58139fd"] ;
26 -> 27 ;
28 [label="JobStatusPartTime <= 0.5\ngini = 0.01\nsamples = 36216\nvalue = [56910, 383]\nclass = 0", fillcolor="#e58139fd"] ;
27 -> 28 ;
29 [label="RecentTrainingExperience1From <= 440.5\ngini = 0.02\nsamples = 14053\nvalue = [22023, 205]\nclass = 0", fillcolor="#e58139fd"] ;
28 -> 29 ;
30 [label="gini = 0.01\nsamples = 8935\nvalue = [14013, 102]\nclass = 0", fillcolor="#e58139fd"] ;
29 -> 30 ;
31 [label="gini = 0.03\nsamples = 5118\nvalue = [8010, 103]\nclass = 0", fillcolor="#e58139fc"] ;
29 -> 31 ;
32 [label="JobShiftRotating <= 0.5\ngini = 0.01\nsamples = 22163\nvalue = [34887, 178]\nclass = 0", fillcolor="#e58139fe"] ;
28 -> 32 ;
33 [label="gini = 0.01\nsamples = 11206\nvalue = [17661, 113]\nclass = 0", fillcolor="#e58139fd"] ;
32 -> 33 ;
34 [label="gini = 0.01\nsamples = 10957\nvalue = [17226, 65]\nclass = 0", fillcolor="#e58139fe"] ;
32 -> 34 ;
35 [label="JobStatusPartTime <= 0.5\ngini = 0.04\nsamples = 2606\nvalue = [3971, 82]\nclass = 0", fillcolor="#e58139fa"] ;
27 -> 35 ;
36 [label="JobStatusFullTime <= 0.5\ngini = 0.05\nsamples = 1290\nvalue = [1935, 54]\nclass = 0", fillcolor="#e58139f8"] ;
35 -> 36 ;
37 [label="gini = 0.22\nsamples = 36\nvalue = [48, 7]\nclass = 0", fillcolor="#e58139da"] ;
36 -> 37 ;
38 [label="gini = 0.05\nsamples = 1254\nvalue = [1887, 47]\nclass = 0", fillcolor="#e58139f9"] ;
36 -> 38 ;
39 [label="RecentTrainingExperience4EmploymentStatus <= 1.5\ngini = 0.03\nsamples = 1316\nvalue = [2036, 28]\nclass = 0", fillcolor="#e58139fb"] ;
35 -> 39 ;
40 [label="gini = 0.02\nsamples = 1170\nvalue = [1824, 22]\nclass = 0", fillcolor="#e58139fc"] ;
39 -> 40 ;
41 [label="gini = 0.05\nsamples = 146\nvalue = [212, 6]\nclass = 0", fillcolor="#e58139f8"] ;
39 -> 41 ;
42 [label="JobShiftWeekend <= 0.5\ngini = 0.11\nsamples = 2492\nvalue = [3656, 228]\nclass = 0", fillcolor="#e58139ef"] ;
26 -> 42 ;
43 [label="JobShiftDay <= -0.5\ngini = 0.15\nsamples = 1404\nvalue = [1976, 173]\nclass = 0", fillcolor="#e58139e9"] ;
42 -> 43 ;
44 [label="gini = 0.0\nsamples = 1\nvalue = [0, 1]\nclass = 1", fillcolor="#399de5ff"] ;
43 -> 44 ;
45 [label="UndergradSchoolGraduate <= 0.5\ngini = 0.15\nsamples = 1403\nvalue = [1976, 172]\nclass = 0", fillcolor="#e58139e9"] ;
43 -> 45 ;
46 [label="gini = 0.12\nsamples = 989\nvalue = [1433, 98]\nclass = 0", fillcolor="#e58139ee"] ;
45 -> 46 ;
47 [label="gini = 0.21\nsamples = 414\nvalue = [543, 74]\nclass = 0", fillcolor="#e58139dc"] ;
45 -> 47 ;
48 [label="RecentTrainingExperience1From <= 491.5\ngini = 0.06\nsamples = 1088\nvalue = [1680, 55]\nclass = 0", fillcolor="#e58139f7"] ;
42 -> 48 ;
49 [label="JobSchedule <= 3.0\ngini = 0.06\nsamples = 1086\nvalue = [1678, 53]\nclass = 0", fillcolor="#e58139f7"] ;
48 -> 49 ;
50 [label="gini = 0.07\nsamples = 792\nvalue = [1193, 45]\nclass = 0", fillcolor="#e58139f5"] ;
49 -> 50 ;
51 [label="gini = 0.03\nsamples = 294\nvalue = [485, 8]\nclass = 0", fillcolor="#e58139fb"] ;
49 -> 51 ;
52 [label="gini = 0.5\nsamples = 2\nvalue = [2, 2]\nclass = 0", fillcolor="#e5813900"] ;
48 -> 52 ;
}