digraph Tree {
node [shape=box, style="filled, rounded", color="black", fontname=helvetica] ;
edge [fontname=helvetica] ;
0 [label="GymBadgeTemp1 <= -0.5\ngini = 0.03\nsamples = 42603\nvalue = [66263, 1161]\nclass = 0", fillcolor="#e58139fb"] ;
1 [label="JobStatusPartTime <= -0.5\ngini = 0.16\nsamples = 2823\nvalue = [4047, 394]\nclass = 0", fillcolor="#e58139e6"] ;
0 -> 1 [labeldistance=2.5, labelangle=45, headlabel="True"] ;
2 [label="PokemonWorldRegion <= 1.5\ngini = 0.42\nsamples = 163\nvalue = [168, 71]\nclass = 0", fillcolor="#e5813993"] ;
1 -> 2 ;
3 [label="gini = 0.5\nsamples = 24\nvalue = [17, 15]\nclass = 0", fillcolor="#e581391e"] ;
2 -> 3 ;
4 [label="RecentTrainingExperienceContactForRefYes <= -0.5\ngini = 0.39\nsamples = 139\nvalue = [151, 56]\nclass = 0", fillcolor="#e58139a0"] ;
2 -> 4 ;
5 [label="PokemonTrainerClass <= 3.5\ngini = 0.4\nsamples = 135\nvalue = [146, 56]\nclass = 0", fillcolor="#e581399d"] ;
4 -> 5 ;
6 [label="gini = 0.21\nsamples = 39\nvalue = [53, 7]\nclass = 0", fillcolor="#e58139dd"] ;
5 -> 6 ;
7 [label="gini = 0.45\nsamples = 96\nvalue = [93, 49]\nclass = 0", fillcolor="#e5813979"] ;
5 -> 7 ;
8 [label="gini = 0.0\nsamples = 4\nvalue = [5, 0]\nclass = 0", fillcolor="#e58139ff"] ;
4 -> 8 ;
9 [label="JobShiftWeekend <= 0.5\ngini = 0.14\nsamples = 2660\nvalue = [3879, 323]\nclass = 0", fillcolor="#e58139ea"] ;
1 -> 9 ;
10 [label="RecentTrainingExperience1Pokemon <= 10.5\ngini = 0.18\nsamples = 1512\nvalue = [2138, 231]\nclass = 0", fillcolor="#e58139e3"] ;
9 -> 10 ;
11 [label="UndergradSchoolGraduate <= 0.5\ngini = 0.15\nsamples = 829\nvalue = [1198, 108]\nclass = 0", fillcolor="#e58139e8"] ;
10 -> 11 ;
12 [label="gini = 0.11\nsamples = 626\nvalue = [920, 55]\nclass = 0", fillcolor="#e58139f0"] ;
11 -> 12 ;
13 [label="gini = 0.27\nsamples = 203\nvalue = [278, 53]\nclass = 0", fillcolor="#e58139ce"] ;
11 -> 13 ;
14 [label="PokemonWorldRegion <= 1.5\ngini = 0.2\nsamples = 683\nvalue = [940, 123]\nclass = 0", fillcolor="#e58139de"] ;
10 -> 14 ;
15 [label="gini = 0.36\nsamples = 113\nvalue = [125, 39]\nclass = 0", fillcolor="#e58139af"] ;
14 -> 15 ;
16 [label="gini = 0.17\nsamples = 570\nvalue = [815, 84]\nclass = 0", fillcolor="#e58139e5"] ;
14 -> 16 ;
17 [label="RecentTrainingExperience3To <= 183.5\ngini = 0.1\nsamples = 1148\nvalue = [1741, 92]\nclass = 0", fillcolor="#e58139f2"] ;
9 -> 17 ;
18 [label="LastPerformaceRating <= 2.5\ngini = 0.15\nsamples = 384\nvalue = [564, 51]\nclass = 0", fillcolor="#e58139e8"] ;
17 -> 18 ;
19 [label="gini = 0.15\nsamples = 379\nvalue = [560, 49]\nclass = 0", fillcolor="#e58139e9"] ;
18 -> 19 ;
20 [label="gini = 0.44\nsamples = 5\nvalue = [4, 2]\nclass = 0", fillcolor="#e581397f"] ;
18 -> 20 ;
21 [label="JobStatusPerDiem <= 0.5\ngini = 0.07\nsamples = 764\nvalue = [1177, 41]\nclass = 0", fillcolor="#e58139f6"] ;
17 -> 21 ;
22 [label="gini = 0.06\nsamples = 632\nvalue = [980, 30]\nclass = 0", fillcolor="#e58139f7"] ;
21 -> 22 ;
23 [label="gini = 0.1\nsamples = 132\nvalue = [197, 11]\nclass = 0", fillcolor="#e58139f1"] ;
21 -> 23 ;
24 [label="JobStatusFullTime <= 0.5\ngini = 0.02\nsamples = 39780\nvalue = [62216, 767]\nclass = 0", fillcolor="#e58139fc"] ;
0 -> 24 [labeldistance=2.5, labelangle=-45, headlabel="False"] ;
25 [label="JobShiftEvening <= 0.5\ngini = 0.05\nsamples = 3119\nvalue = [4853, 133]\nclass = 0", fillcolor="#e58139f8"] ;
24 -> 25 ;
26 [label="RecentTrainingExperience1To <= 250.5\ngini = 0.08\nsamples = 930\nvalue = [1413, 65]\nclass = 0", fillcolor="#e58139f3"] ;
25 -> 26 ;
27 [label="GraduateSchoolGraduate <= 0.5\ngini = 0.08\nsamples = 929\nvalue = [1413, 64]\nclass = 0", fillcolor="#e58139f3"] ;
26 -> 27 ;
28 [label="gini = 0.06\nsamples = 852\nvalue = [1311, 42]\nclass = 0", fillcolor="#e58139f7"] ;
27 -> 28 ;
29 [label="gini = 0.29\nsamples = 77\nvalue = [102, 22]\nclass = 0", fillcolor="#e58139c8"] ;
27 -> 29 ;
30 [label="gini = 0.0\nsamples = 1\nvalue = [0, 1]\nclass = 1", fillcolor="#399de5ff"] ;
26 -> 30 ;
31 [label="RecentTrainingExperience1PayRateEndFreq <= 1.5\ngini = 0.04\nsamples = 2189\nvalue = [3440, 68]\nclass = 0", fillcolor="#e58139fa"] ;
25 -> 31 ;
32 [label="ApplyDate <= 14.5\ngini = 0.06\nsamples = 627\nvalue = [990, 29]\nclass = 0", fillcolor="#e58139f8"] ;
31 -> 32 ;
33 [label="gini = 0.49\nsamples = 4\nvalue = [3, 4]\nclass = 1", fillcolor="#399de540"] ;
32 -> 33 ;
34 [label="gini = 0.05\nsamples = 623\nvalue = [987, 25]\nclass = 0", fillcolor="#e58139f9"] ;
32 -> 34 ;
35 [label="RecentTrainingExperience2To <= 359.5\ngini = 0.03\nsamples = 1562\nvalue = [2450, 39]\nclass = 0", fillcolor="#e58139fb"] ;
31 -> 35 ;
36 [label="gini = 0.02\nsamples = 1074\nvalue = [1676, 17]\nclass = 0", fillcolor="#e58139fc"] ;
35 -> 36 ;
37 [label="gini = 0.05\nsamples = 488\nvalue = [774, 22]\nclass = 0", fillcolor="#e58139f8"] ;
35 -> 37 ;
38 [label="PokemonTrainerClass <= 6.5\ngini = 0.02\nsamples = 36661\nvalue = [57363, 634]\nclass = 0", fillcolor="#e58139fc"] ;
24 -> 38 ;
39 [label="PokemonTrainerClass <= 3.5\ngini = 0.03\nsamples = 27574\nvalue = [43056, 558]\nclass = 0", fillcolor="#e58139fc"] ;
38 -> 39 ;
40 [label="RecentTrainingExperience1To <= 315.5\ngini = 0.02\nsamples = 12624\nvalue = [19725, 162]\nclass = 0", fillcolor="#e58139fd"] ;
39 -> 40 ;
41 [label="gini = 0.02\nsamples = 12622\nvalue = [19723, 160]\nclass = 0", fillcolor="#e58139fd"] ;
40 -> 41 ;
42 [label="gini = 0.5\nsamples = 2\nvalue = [2, 2]\nclass = 0", fillcolor="#e5813900"] ;
40 -> 42 ;
43 [label="JobShiftEvening <= 0.5\ngini = 0.03\nsamples = 14950\nvalue = [23331, 396]\nclass = 0", fillcolor="#e58139fb"] ;
39 -> 43 ;
44 [label="gini = 0.05\nsamples = 4068\nvalue = [6193, 163]\nclass = 0", fillcolor="#e58139f8"] ;
43 -> 44 ;
45 [label="gini = 0.03\nsamples = 10882\nvalue = [17138, 233]\nclass = 0", fillcolor="#e58139fc"] ;
43 -> 45 ;
46 [label="TotalYearsOfExp <= 0.0\ngini = 0.01\nsamples = 9087\nvalue = [14307, 76]\nclass = 0", fillcolor="#e58139fe"] ;
38 -> 46 ;
47 [label="RecentTrainingExperience3Pokemon <= 28.5\ngini = 0.11\nsamples = 216\nvalue = [312, 20]\nclass = 0", fillcolor="#e58139ef"] ;
46 -> 47 ;
48 [label="gini = 0.09\nsamples = 204\nvalue = [297, 15]\nclass = 0", fillcolor="#e58139f2"] ;
47 -> 48 ;
49 [label="gini = 0.38\nsamples = 12\nvalue = [15, 5]\nclass = 0", fillcolor="#e58139aa"] ;
47 -> 49 ;
50 [label="RecentTrainingExperience2PayRateEndValue <= 361.0\ngini = 0.01\nsamples = 8871\nvalue = [13995, 56]\nclass = 0", fillcolor="#e58139fe"] ;
46 -> 50 ;
51 [label="gini = 0.0\nsamples = 4701\nvalue = [7380, 16]\nclass = 0", fillcolor="#e58139fe"] ;
50 -> 51 ;
52 [label="gini = 0.01\nsamples = 4170\nvalue = [6615, 40]\nclass = 0", fillcolor="#e58139fd"] ;
50 -> 52 ;
}