digraph Tree {
node [shape=box, style="filled, rounded", color="black", fontname=helvetica] ;
edge [fontname=helvetica] ;
0 [label="GymBadgeTemp2 <= -0.5\ngini = 0.04\nsamples = 42665\nvalue = [66218, 1206]\nclass = 0", fillcolor="#e58139fa"] ;
1 [label="RecentTrainingExperience3To <= 279.5\ngini = 0.17\nsamples = 2841\nvalue = [4067, 408]\nclass = 0", fillcolor="#e58139e5"] ;
0 -> 1 [labeldistance=2.5, labelangle=45, headlabel="True"] ;
2 [label="ApplicationType <= 0.5\ngini = 0.21\nsamples = 1516\nvalue = [2094, 291]\nclass = 0", fillcolor="#e58139dc"] ;
1 -> 2 ;
3 [label="WorkingForJobAppliedFor <= -0.5\ngini = 0.19\nsamples = 1447\nvalue = [2043, 246]\nclass = 0", fillcolor="#e58139e0"] ;
2 -> 3 ;
4 [label="JobPostingDate <= 64.5\ngini = 0.39\nsamples = 157\nvalue = [190, 67]\nclass = 0", fillcolor="#e58139a5"] ;
3 -> 4 ;
5 [label="gini = 0.03\nsamples = 79\nvalue = [134, 2]\nclass = 0", fillcolor="#e58139fb"] ;
4 -> 5 ;
6 [label="gini = 0.5\nsamples = 78\nvalue = [56, 65]\nclass = 1", fillcolor="#399de523"] ;
4 -> 6 ;
7 [label="HighEduLevelCompleted <= 8.0\ngini = 0.16\nsamples = 1290\nvalue = [1853, 179]\nclass = 0", fillcolor="#e58139e6"] ;
3 -> 7 ;
8 [label="gini = 0.15\nsamples = 1237\nvalue = [1789, 154]\nclass = 0", fillcolor="#e58139e9"] ;
7 -> 8 ;
9 [label="gini = 0.4\nsamples = 53\nvalue = [64, 25]\nclass = 0", fillcolor="#e581399b"] ;
7 -> 9 ;
10 [label="LastPerformaceRating <= 1.5\ngini = 0.5\nsamples = 69\nvalue = [51, 45]\nclass = 0", fillcolor="#e581391e"] ;
2 -> 10 ;
11 [label="gini = 0.36\nsamples = 25\nvalue = [29, 9]\nclass = 0", fillcolor="#e58139b0"] ;
10 -> 11 ;
12 [label="gini = 0.47\nsamples = 44\nvalue = [22, 36]\nclass = 1", fillcolor="#399de563"] ;
10 -> 12 ;
13 [label="ApplicationType <= 1.0\ngini = 0.11\nsamples = 1325\nvalue = [1973, 117]\nclass = 0", fillcolor="#e58139f0"] ;
1 -> 13 ;
14 [label="JobShiftEvening <= 0.5\ngini = 0.09\nsamples = 1289\nvalue = [1941, 94]\nclass = 0", fillcolor="#e58139f3"] ;
13 -> 14 ;
15 [label="HighSchoolGraduate <= 0.5\ngini = 0.13\nsamples = 576\nvalue = [847, 62]\nclass = 0", fillcolor="#e58139ec"] ;
14 -> 15 ;
16 [label="gini = 0.0\nsamples = 40\nvalue = [66, 0]\nclass = 0", fillcolor="#e58139ff"] ;
15 -> 16 ;
17 [label="gini = 0.14\nsamples = 536\nvalue = [781, 62]\nclass = 0", fillcolor="#e58139eb"] ;
15 -> 17 ;
18 [label="WorkingForJobAppliedFor <= 0.5\ngini = 0.06\nsamples = 713\nvalue = [1094, 32]\nclass = 0", fillcolor="#e58139f8"] ;
14 -> 18 ;
19 [label="gini = 0.03\nsamples = 459\nvalue = [708, 11]\nclass = 0", fillcolor="#e58139fb"] ;
18 -> 19 ;
20 [label="gini = 0.1\nsamples = 254\nvalue = [386, 21]\nclass = 0", fillcolor="#e58139f1"] ;
18 -> 20 ;
21 [label="gini = 0.49\nsamples = 36\nvalue = [32, 23]\nclass = 0", fillcolor="#e5813948"] ;
13 -> 21 ;
22 [label="UndergradSchoolGraduate <= 0.5\ngini = 0.03\nsamples = 39824\nvalue = [62151, 798]\nclass = 0", fillcolor="#e58139fc"] ;
0 -> 22 [labeldistance=2.5, labelangle=-45, headlabel="False"] ;
23 [label="GymBadgePerm1 <= 0.5\ngini = 0.02\nsamples = 29155\nvalue = [45472, 526]\nclass = 0", fillcolor="#e58139fc"] ;
22 -> 23 ;
24 [label="JobShiftDay <= 0.5\ngini = 0.02\nsamples = 21201\nvalue = [33121, 310]\nclass = 0", fillcolor="#e58139fd"] ;
23 -> 24 ;
25 [label="HighEduLevelCompleted <= 4.5\ngini = 0.03\nsamples = 2290\nvalue = [3610, 48]\nclass = 0", fillcolor="#e58139fc"] ;
24 -> 25 ;
26 [label="gini = 0.09\nsamples = 230\nvalue = [355, 18]\nclass = 0", fillcolor="#e58139f2"] ;
25 -> 26 ;
27 [label="gini = 0.02\nsamples = 2060\nvalue = [3255, 30]\nclass = 0", fillcolor="#e58139fd"] ;
25 -> 27 ;
28 [label="RecentTrainingExperience4PayRateEndValue <= 1353.5\ngini = 0.02\nsamples = 18911\nvalue = [29511, 262]\nclass = 0", fillcolor="#e58139fd"] ;
24 -> 28 ;
29 [label="gini = 0.02\nsamples = 18902\nvalue = [29501, 259]\nclass = 0", fillcolor="#e58139fd"] ;
28 -> 29 ;
30 [label="gini = 0.36\nsamples = 9\nvalue = [10, 3]\nclass = 0", fillcolor="#e58139b3"] ;
28 -> 30 ;
31 [label="ApplyDate <= 0.5\ngini = 0.03\nsamples = 7954\nvalue = [12351, 216]\nclass = 0", fillcolor="#e58139fb"] ;
23 -> 31 ;
32 [label="gini = 0.5\nsamples = 3\nvalue = [2, 2]\nclass = 0", fillcolor="#e5813900"] ;
31 -> 32 ;
33 [label="JobSchedule <= 5.5\ngini = 0.03\nsamples = 7951\nvalue = [12349, 214]\nclass = 0", fillcolor="#e58139fb"] ;
31 -> 33 ;
34 [label="gini = 0.04\nsamples = 6057\nvalue = [9415, 181]\nclass = 0", fillcolor="#e58139fa"] ;
33 -> 34 ;
35 [label="gini = 0.02\nsamples = 1894\nvalue = [2934, 33]\nclass = 0", fillcolor="#e58139fc"] ;
33 -> 35 ;
36 [label="GraduateSchoolGPA <= 3.9\ngini = 0.03\nsamples = 10669\nvalue = [16679, 272]\nclass = 0", fillcolor="#e58139fb"] ;
22 -> 36 ;
37 [label="CurrentlyWorkInThisRegion <= 0.5\ngini = 0.03\nsamples = 10417\nvalue = [16289, 253]\nclass = 0", fillcolor="#e58139fb"] ;
36 -> 37 ;
38 [label="GymCertificationEverSuspended <= -0.5\ngini = 0.03\nsamples = 10275\nvalue = [16086, 241]\nclass = 0", fillcolor="#e58139fb"] ;
37 -> 38 ;
39 [label="gini = 0.02\nsamples = 3104\nvalue = [4856, 41]\nclass = 0", fillcolor="#e58139fd"] ;
38 -> 39 ;
40 [label="gini = 0.03\nsamples = 7171\nvalue = [11230, 200]\nclass = 0", fillcolor="#e58139fa"] ;
38 -> 40 ;
41 [label="RecentTrainingExperienceContactForRefPostHire <= 0.5\ngini = 0.11\nsamples = 142\nvalue = [203, 12]\nclass = 0", fillcolor="#e58139f0"] ;
37 -> 41 ;
42 [label="gini = 0.09\nsamples = 139\nvalue = [201, 10]\nclass = 0", fillcolor="#e58139f2"] ;
41 -> 42 ;
43 [label="gini = 0.5\nsamples = 3\nvalue = [2, 2]\nclass = 0", fillcolor="#e5813900"] ;
41 -> 43 ;
44 [label="RecentTrainingExperience2From <= 381.0\ngini = 0.09\nsamples = 252\nvalue = [390, 19]\nclass = 0", fillcolor="#e58139f3"] ;
36 -> 44 ;
45 [label="ReferenceRelationship1 <= 4.5\ngini = 0.02\nsamples = 80\nvalue = [127, 1]\nclass = 0", fillcolor="#e58139fd"] ;
44 -> 45 ;
46 [label="gini = 0.0\nsamples = 65\nvalue = [106, 0]\nclass = 0", fillcolor="#e58139ff"] ;
45 -> 46 ;
47 [label="gini = 0.09\nsamples = 15\nvalue = [21, 1]\nclass = 0", fillcolor="#e58139f3"] ;
45 -> 47 ;
48 [label="JobStatusPerDiem <= 0.5\ngini = 0.12\nsamples = 172\nvalue = [263, 18]\nclass = 0", fillcolor="#e58139ee"] ;
44 -> 48 ;
49 [label="gini = 0.05\nsamples = 127\nvalue = [211, 5]\nclass = 0", fillcolor="#e58139f9"] ;
48 -> 49 ;
50 [label="gini = 0.32\nsamples = 45\nvalue = [52, 13]\nclass = 0", fillcolor="#e58139bf"] ;
48 -> 50 ;
}