digraph Tree {
node [shape=box, style="filled, rounded", color="black", fontname=helvetica] ;
edge [fontname=helvetica] ;
0 [label="JobShiftDay <= -0.5\ngini = 0.03\nsamples = 42626\nvalue = [66230, 1194]\nclass = 0", fillcolor="#e58139fa"] ;
1 [label="ApplyDate <= 132.5\ngini = 0.42\nsamples = 162\nvalue = [185, 78]\nclass = 0", fillcolor="#e5813993"] ;
0 -> 1 [labeldistance=2.5, labelangle=45, headlabel="True"] ;
2 [label="gini = 0.17\nsamples = 21\nvalue = [29, 3]\nclass = 0", fillcolor="#e58139e5"] ;
1 -> 2 ;
3 [label="PokemonWorldRegion <= 1.5\ngini = 0.44\nsamples = 141\nvalue = [156, 75]\nclass = 0", fillcolor="#e5813984"] ;
1 -> 3 ;
4 [label="gini = 0.5\nsamples = 26\nvalue = [19, 18]\nclass = 0", fillcolor="#e581390d"] ;
3 -> 4 ;
5 [label="RecentTrainingExperienceContactForRefNo <= -0.5\ngini = 0.41\nsamples = 115\nvalue = [137, 57]\nclass = 0", fillcolor="#e5813995"] ;
3 -> 5 ;
6 [label="JobPostingDate <= 22.5\ngini = 0.43\nsamples = 109\nvalue = [127, 57]\nclass = 0", fillcolor="#e581398d"] ;
5 -> 6 ;
7 [label="gini = 0.04\nsamples = 58\nvalue = [99, 2]\nclass = 0", fillcolor="#e58139fa"] ;
6 -> 7 ;
8 [label="gini = 0.45\nsamples = 51\nvalue = [28, 55]\nclass = 1", fillcolor="#399de57d"] ;
6 -> 8 ;
9 [label="gini = 0.0\nsamples = 6\nvalue = [10, 0]\nclass = 0", fillcolor="#e58139ff"] ;
5 -> 9 ;
10 [label="HighEduLevelCompleted <= -0.5\ngini = 0.03\nsamples = 42464\nvalue = [66045, 1116]\nclass = 0", fillcolor="#e58139fb"] ;
0 -> 10 [labeldistance=2.5, labelangle=-45, headlabel="False"] ;
11 [label="RecentTrainingExperience1PayRateEndValue <= 709.0\ngini = 0.23\nsamples = 386\nvalue = [534, 84]\nclass = 0", fillcolor="#e58139d7"] ;
10 -> 11 ;
12 [label="GymBadgePerm2 <= -0.5\ngini = 0.27\nsamples = 319\nvalue = [428, 84]\nclass = 0", fillcolor="#e58139cd"] ;
11 -> 12 ;
13 [label="RecentTrainingExperience1From <= 349.5\ngini = 0.42\nsamples = 142\nvalue = [155, 66]\nclass = 0", fillcolor="#e5813992"] ;
12 -> 13 ;
14 [label="gini = 0.12\nsamples = 10\nvalue = [1, 14]\nclass = 1", fillcolor="#399de5ed"] ;
13 -> 14 ;
15 [label="gini = 0.38\nsamples = 132\nvalue = [154, 52]\nclass = 0", fillcolor="#e58139a9"] ;
13 -> 15 ;
16 [label="OtherSchoolGPA <= 1.0\ngini = 0.12\nsamples = 177\nvalue = [273, 18]\nclass = 0", fillcolor="#e58139ee"] ;
12 -> 16 ;
17 [label="gini = 0.11\nsamples = 174\nvalue = [269, 16]\nclass = 0", fillcolor="#e58139f0"] ;
16 -> 17 ;
18 [label="gini = 0.44\nsamples = 3\nvalue = [4, 2]\nclass = 0", fillcolor="#e581397f"] ;
16 -> 18 ;
19 [label="gini = 0.0\nsamples = 67\nvalue = [106, 0]\nclass = 0", fillcolor="#e58139ff"] ;
11 -> 19 ;
20 [label="ApplicationType <= 1.0\ngini = 0.03\nsamples = 42078\nvalue = [65511, 1032]\nclass = 0", fillcolor="#e58139fb"] ;
10 -> 20 ;
21 [label="SpokenWithCurrentBoss <= 0.5\ngini = 0.02\nsamples = 41399\nvalue = [64716, 755]\nclass = 0", fillcolor="#e58139fc"] ;
20 -> 21 ;
22 [label="CurrentlyWorkInThisRegion <= 0.5\ngini = 0.02\nsamples = 39676\nvalue = [62228, 552]\nclass = 0", fillcolor="#e58139fd"] ;
21 -> 22 ;
23 [label="gini = 0.02\nsamples = 39070\nvalue = [61301, 511]\nclass = 0", fillcolor="#e58139fd"] ;
22 -> 23 ;
24 [label="gini = 0.08\nsamples = 606\nvalue = [927, 41]\nclass = 0", fillcolor="#e58139f4"] ;
22 -> 24 ;
25 [label="WorkingForJobAppliedFor <= 0.5\ngini = 0.14\nsamples = 1723\nvalue = [2488, 203]\nclass = 0", fillcolor="#e58139ea"] ;
21 -> 25 ;
26 [label="gini = 0.11\nsamples = 1044\nvalue = [1518, 90]\nclass = 0", fillcolor="#e58139f0"] ;
25 -> 26 ;
27 [label="gini = 0.19\nsamples = 679\nvalue = [970, 113]\nclass = 0", fillcolor="#e58139e1"] ;
25 -> 27 ;
28 [label="GymBadgePerm1 <= 0.5\ngini = 0.38\nsamples = 679\nvalue = [795, 277]\nclass = 0", fillcolor="#e58139a6"] ;
20 -> 28 ;
29 [label="RecentTrainingExperience2To <= 452.5\ngini = 0.3\nsamples = 435\nvalue = [555, 122]\nclass = 0", fillcolor="#e58139c7"] ;
28 -> 29 ;
30 [label="gini = 0.29\nsamples = 427\nvalue = [548, 116]\nclass = 0", fillcolor="#e58139c9"] ;
29 -> 30 ;
31 [label="gini = 0.5\nsamples = 8\nvalue = [7, 6]\nclass = 0", fillcolor="#e5813924"] ;
29 -> 31 ;
32 [label="RecentTrainingExperienceContactForRefNo <= -0.5\ngini = 0.48\nsamples = 244\nvalue = [240, 155]\nclass = 0", fillcolor="#e581395a"] ;
28 -> 32 ;
33 [label="gini = 0.5\nsamples = 121\nvalue = [104, 96]\nclass = 0", fillcolor="#e5813914"] ;
32 -> 33 ;
34 [label="gini = 0.42\nsamples = 123\nvalue = [136, 59]\nclass = 0", fillcolor="#e5813990"] ;
32 -> 34 ;
}