digraph Tree {
node [shape=box, style="filled, rounded", color="black", fontname=helvetica] ;
edge [fontname=helvetica] ;
0 [label="SpokenWithCurrentBoss <= -0.5\ngini = 0.04\nsamples = 42621\nvalue = [66189, 1235]\nclass = 0", fillcolor="#e58139fa"] ;
1 [label="ReferenceRelationship2 <= 1.5\ngini = 0.03\nsamples = 40043\nvalue = [62457, 894]\nclass = 0", fillcolor="#e58139fb"] ;
0 -> 1 [labeldistance=2.5, labelangle=45, headlabel="True"] ;
2 [label="RecentTrainingExperience1ContactForRef <= -0.5\ngini = 0.03\nsamples = 20467\nvalue = [31794, 567]\nclass = 0", fillcolor="#e58139fa"] ;
1 -> 2 ;
3 [label="PositionForTrainingPokemon <= 25.0\ngini = 0.4\nsamples = 166\nvalue = [194, 73]\nclass = 0", fillcolor="#e581399f"] ;
2 -> 3 ;
4 [label="RecentTrainingExperienceContactForRefNo <= -0.5\ngini = 0.37\nsamples = 157\nvalue = [189, 61]\nclass = 0", fillcolor="#e58139ad"] ;
3 -> 4 ;
5 [label="gini = 0.38\nsamples = 152\nvalue = [182, 61]\nclass = 0", fillcolor="#e58139aa"] ;
4 -> 5 ;
6 [label="gini = 0.0\nsamples = 5\nvalue = [7, 0]\nclass = 0", fillcolor="#e58139ff"] ;
4 -> 6 ;
7 [label="gini = 0.42\nsamples = 9\nvalue = [5, 12]\nclass = 1", fillcolor="#399de595"] ;
3 -> 7 ;
8 [label="UndergradSchoolGraduate <= 0.5\ngini = 0.03\nsamples = 20301\nvalue = [31600, 494]\nclass = 0", fillcolor="#e58139fb"] ;
2 -> 8 ;
9 [label="ApplicationType <= 1.0\ngini = 0.02\nsamples = 15268\nvalue = [23784, 289]\nclass = 0", fillcolor="#e58139fc"] ;
8 -> 9 ;
10 [label="gini = 0.01\nsamples = 14975\nvalue = [23424, 167]\nclass = 0", fillcolor="#e58139fd"] ;
9 -> 10 ;
11 [label="gini = 0.38\nsamples = 293\nvalue = [360, 122]\nclass = 0", fillcolor="#e58139a9"] ;
9 -> 11 ;
12 [label="CurrentlyWorkInThisRegion <= 0.5\ngini = 0.05\nsamples = 5033\nvalue = [7816, 205]\nclass = 0", fillcolor="#e58139f8"] ;
8 -> 12 ;
13 [label="gini = 0.05\nsamples = 4954\nvalue = [7705, 190]\nclass = 0", fillcolor="#e58139f9"] ;
12 -> 13 ;
14 [label="gini = 0.21\nsamples = 79\nvalue = [111, 15]\nclass = 0", fillcolor="#e58139dd"] ;
12 -> 14 ;
15 [label="RecentTrainingExperience2PayRateEndValue <= 1.5\ngini = 0.02\nsamples = 19576\nvalue = [30663, 327]\nclass = 0", fillcolor="#e58139fc"] ;
1 -> 15 ;
16 [label="ApplicationType <= 1.0\ngini = 0.03\nsamples = 6235\nvalue = [9748, 135]\nclass = 0", fillcolor="#e58139fb"] ;
15 -> 16 ;
17 [label="RecentTrainingExperience2EmploymentStatus <= 1.5\ngini = 0.02\nsamples = 6101\nvalue = [9588, 90]\nclass = 0", fillcolor="#e58139fd"] ;
16 -> 17 ;
18 [label="gini = 0.02\nsamples = 5178\nvalue = [8138, 65]\nclass = 0", fillcolor="#e58139fd"] ;
17 -> 18 ;
19 [label="gini = 0.03\nsamples = 923\nvalue = [1450, 25]\nclass = 0", fillcolor="#e58139fb"] ;
17 -> 19 ;
20 [label="RecentTrainingExperienceContactForRefNo <= -0.5\ngini = 0.34\nsamples = 134\nvalue = [160, 45]\nclass = 0", fillcolor="#e58139b7"] ;
16 -> 20 ;
21 [label="gini = 0.49\nsamples = 49\nvalue = [42, 34]\nclass = 0", fillcolor="#e5813931"] ;
20 -> 21 ;
22 [label="gini = 0.16\nsamples = 85\nvalue = [118, 11]\nclass = 0", fillcolor="#e58139e7"] ;
20 -> 22 ;
23 [label="GraduateSchoolGraduate <= -0.5\ngini = 0.02\nsamples = 13341\nvalue = [20915, 192]\nclass = 0", fillcolor="#e58139fd"] ;
15 -> 23 ;
24 [label="HighSchoolGraduate <= -0.5\ngini = 0.02\nsamples = 12139\nvalue = [19081, 154]\nclass = 0", fillcolor="#e58139fd"] ;
23 -> 24 ;
25 [label="gini = 0.04\nsamples = 527\nvalue = [813, 19]\nclass = 0", fillcolor="#e58139f9"] ;
24 -> 25 ;
26 [label="gini = 0.01\nsamples = 11612\nvalue = [18268, 135]\nclass = 0", fillcolor="#e58139fd"] ;
24 -> 26 ;
27 [label="RecentTrainingExperience1EmploymentStatus <= 0.5\ngini = 0.04\nsamples = 1202\nvalue = [1834, 38]\nclass = 0", fillcolor="#e58139fa"] ;
23 -> 27 ;
28 [label="gini = 0.14\nsamples = 132\nvalue = [203, 16]\nclass = 0", fillcolor="#e58139eb"] ;
27 -> 28 ;
29 [label="gini = 0.03\nsamples = 1070\nvalue = [1631, 22]\nclass = 0", fillcolor="#e58139fc"] ;
27 -> 29 ;
30 [label="ApplicationType <= 1.0\ngini = 0.15\nsamples = 2578\nvalue = [3732, 341]\nclass = 0", fillcolor="#e58139e8"] ;
0 -> 30 [labeldistance=2.5, labelangle=-45, headlabel="False"] ;
31 [label="LastPerformaceRating <= 0.5\ngini = 0.13\nsamples = 2494\nvalue = [3666, 283]\nclass = 0", fillcolor="#e58139eb"] ;
30 -> 31 ;
32 [label="JobShiftRotating <= 0.5\ngini = 0.27\nsamples = 187\nvalue = [272, 52]\nclass = 0", fillcolor="#e58139ce"] ;
31 -> 32 ;
33 [label="HighEduLevelCompleted <= 8.0\ngini = 0.32\nsamples = 152\nvalue = [213, 52]\nclass = 0", fillcolor="#e58139c1"] ;
32 -> 33 ;
34 [label="gini = 0.28\nsamples = 142\nvalue = [203, 42]\nclass = 0", fillcolor="#e58139ca"] ;
33 -> 34 ;
35 [label="gini = 0.5\nsamples = 10\nvalue = [10, 10]\nclass = 0", fillcolor="#e5813900"] ;
33 -> 35 ;
36 [label="gini = 0.0\nsamples = 35\nvalue = [59, 0]\nclass = 0", fillcolor="#e58139ff"] ;
32 -> 36 ;
37 [label="JobPostingDate <= 337.5\ngini = 0.12\nsamples = 2307\nvalue = [3394, 231]\nclass = 0", fillcolor="#e58139ee"] ;
31 -> 37 ;
38 [label="RecentTrainingExperience3From <= 381.5\ngini = 0.04\nsamples = 449\nvalue = [684, 15]\nclass = 0", fillcolor="#e58139f9"] ;
37 -> 38 ;
39 [label="gini = 0.03\nsamples = 324\nvalue = [501, 7]\nclass = 0", fillcolor="#e58139fb"] ;
38 -> 39 ;
40 [label="gini = 0.08\nsamples = 125\nvalue = [183, 8]\nclass = 0", fillcolor="#e58139f4"] ;
38 -> 40 ;
41 [label="PokemonTrainerClass <= 6.5\ngini = 0.14\nsamples = 1858\nvalue = [2710, 216]\nclass = 0", fillcolor="#e58139eb"] ;
37 -> 41 ;
42 [label="gini = 0.17\nsamples = 1143\nvalue = [1653, 174]\nclass = 0", fillcolor="#e58139e4"] ;
41 -> 42 ;
43 [label="gini = 0.07\nsamples = 715\nvalue = [1057, 42]\nclass = 0", fillcolor="#e58139f5"] ;
41 -> 43 ;
44 [label="RecentTrainingExperience1From <= 430.0\ngini = 0.5\nsamples = 84\nvalue = [66, 58]\nclass = 0", fillcolor="#e581391f"] ;
30 -> 44 ;
45 [label="gini = 0.44\nsamples = 33\nvalue = [16, 32]\nclass = 1", fillcolor="#399de57f"] ;
44 -> 45 ;
46 [label="JobShiftRotating <= 0.5\ngini = 0.45\nsamples = 51\nvalue = [50, 26]\nclass = 0", fillcolor="#e581397a"] ;
44 -> 46 ;
47 [label="gini = 0.49\nsamples = 34\nvalue = [27, 21]\nclass = 0", fillcolor="#e5813939"] ;
46 -> 47 ;
48 [label="gini = 0.29\nsamples = 17\nvalue = [23, 5]\nclass = 0", fillcolor="#e58139c8"] ;
46 -> 48 ;
}