digraph Tree {
node [shape=box, style="filled, rounded", color="black", fontname=helvetica] ;
edge [fontname=helvetica] ;
0 [label="GymBadgePerm2 <= -0.5\ngini = 0.04\nsamples = 42524\nvalue = [66186, 1238]\nclass = 0", fillcolor="#e58139fa"] ;
1 [label="JobStatusFlexTime <= -0.5\ngini = 0.16\nsamples = 2793\nvalue = [4062, 402]\nclass = 0", fillcolor="#e58139e6"] ;
0 -> 1 [labeldistance=2.5, labelangle=45, headlabel="True"] ;
2 [label="JobPostingDate <= 23.5\ngini = 0.42\nsamples = 161\nvalue = [170, 74]\nclass = 0", fillcolor="#e5813990"] ;
1 -> 2 ;
3 [label="ApplyDate <= 1683.5\ngini = 0.02\nsamples = 67\nvalue = [104, 1]\nclass = 0", fillcolor="#e58139fd"] ;
2 -> 3 ;
4 [label="gini = 0.0\nsamples = 63\nvalue = [99, 0]\nclass = 0", fillcolor="#e58139ff"] ;
3 -> 4 ;
5 [label="gini = 0.28\nsamples = 4\nvalue = [5, 1]\nclass = 0", fillcolor="#e58139cc"] ;
3 -> 5 ;
6 [label="InternalEmployee <= 0.5\ngini = 0.5\nsamples = 94\nvalue = [66, 73]\nclass = 1", fillcolor="#399de518"] ;
2 -> 6 ;
7 [label="TotalYearsOfExp <= 0.0\ngini = 0.5\nsamples = 81\nvalue = [65, 54]\nclass = 0", fillcolor="#e581392b"] ;
6 -> 7 ;
8 [label="gini = 0.5\nsamples = 68\nvalue = [50, 54]\nclass = 1", fillcolor="#399de513"] ;
7 -> 8 ;
9 [label="gini = 0.0\nsamples = 13\nvalue = [15, 0]\nclass = 0", fillcolor="#e58139ff"] ;
7 -> 9 ;
10 [label="gini = 0.09\nsamples = 13\nvalue = [1, 19]\nclass = 1", fillcolor="#399de5f2"] ;
6 -> 10 ;
11 [label="JobPostingDate <= 722.5\ngini = 0.14\nsamples = 2632\nvalue = [3892, 328]\nclass = 0", fillcolor="#e58139ea"] ;
1 -> 11 ;
12 [label="GraduateSchoolGraduate <= 0.5\ngini = 0.12\nsamples = 1217\nvalue = [1840, 123]\nclass = 0", fillcolor="#e58139ee"] ;
11 -> 12 ;
13 [label="GymBadge2Pokemon <= -0.5\ngini = 0.11\nsamples = 1160\nvalue = [1761, 110]\nclass = 0", fillcolor="#e58139ef"] ;
12 -> 13 ;
14 [label="gini = 0.12\nsamples = 978\nvalue = [1477, 103]\nclass = 0", fillcolor="#e58139ed"] ;
13 -> 14 ;
15 [label="gini = 0.05\nsamples = 182\nvalue = [284, 7]\nclass = 0", fillcolor="#e58139f9"] ;
13 -> 15 ;
16 [label="GymBadge4Pokemon <= 2.5\ngini = 0.24\nsamples = 57\nvalue = [79, 13]\nclass = 0", fillcolor="#e58139d5"] ;
12 -> 16 ;
17 [label="gini = 0.21\nsamples = 56\nvalue = [79, 11]\nclass = 0", fillcolor="#e58139db"] ;
16 -> 17 ;
18 [label="gini = 0.0\nsamples = 1\nvalue = [0, 2]\nclass = 1", fillcolor="#399de5ff"] ;
16 -> 18 ;
19 [label="JobStatusPartTime <= 0.5\ngini = 0.17\nsamples = 1415\nvalue = [2052, 205]\nclass = 0", fillcolor="#e58139e6"] ;
11 -> 19 ;
20 [label="UndergradSchoolGraduate <= 0.5\ngini = 0.2\nsamples = 882\nvalue = [1266, 159]\nclass = 0", fillcolor="#e58139df"] ;
19 -> 20 ;
21 [label="gini = 0.17\nsamples = 624\nvalue = [892, 90]\nclass = 0", fillcolor="#e58139e5"] ;
20 -> 21 ;
22 [label="gini = 0.26\nsamples = 258\nvalue = [374, 69]\nclass = 0", fillcolor="#e58139d0"] ;
20 -> 22 ;
23 [label="RecentTrainingExperience2To <= 267.0\ngini = 0.1\nsamples = 533\nvalue = [786, 46]\nclass = 0", fillcolor="#e58139f0"] ;
19 -> 23 ;
24 [label="gini = 0.19\nsamples = 152\nvalue = [220, 26]\nclass = 0", fillcolor="#e58139e1"] ;
23 -> 24 ;
25 [label="gini = 0.07\nsamples = 381\nvalue = [566, 20]\nclass = 0", fillcolor="#e58139f6"] ;
23 -> 25 ;
26 [label="UndergradSchoolGraduate <= 0.5\ngini = 0.03\nsamples = 39731\nvalue = [62124, 836]\nclass = 0", fillcolor="#e58139fc"] ;
0 -> 26 [labeldistance=2.5, labelangle=-45, headlabel="False"] ;
27 [label="HighEduLevelCompleted <= -0.5\ngini = 0.02\nsamples = 29122\nvalue = [45632, 513]\nclass = 0", fillcolor="#e58139fc"] ;
26 -> 27 ;
28 [label="RecentTrainingExperience1To <= 210.5\ngini = 0.08\nsamples = 210\nvalue = [325, 15]\nclass = 0", fillcolor="#e58139f3"] ;
27 -> 28 ;
29 [label="RecentTrainingExperience3Pokemon <= 27.5\ngini = 0.05\nsamples = 178\nvalue = [279, 8]\nclass = 0", fillcolor="#e58139f8"] ;
28 -> 29 ;
30 [label="gini = 0.04\nsamples = 174\nvalue = [276, 6]\nclass = 0", fillcolor="#e58139f9"] ;
29 -> 30 ;
31 [label="gini = 0.48\nsamples = 4\nvalue = [3, 2]\nclass = 0", fillcolor="#e5813955"] ;
29 -> 31 ;
32 [label="gini = 0.23\nsamples = 32\nvalue = [46, 7]\nclass = 0", fillcolor="#e58139d8"] ;
28 -> 32 ;
33 [label="RecentTrainingExperience2EmploymentStatus <= 0.5\ngini = 0.02\nsamples = 28912\nvalue = [45307, 498]\nclass = 0", fillcolor="#e58139fc"] ;
27 -> 33 ;
34 [label="CurrentlyWorkInThisRegion <= 0.5\ngini = 0.03\nsamples = 8229\nvalue = [12822, 185]\nclass = 0", fillcolor="#e58139fb"] ;
33 -> 34 ;
35 [label="gini = 0.03\nsamples = 8107\nvalue = [12640, 173]\nclass = 0", fillcolor="#e58139fc"] ;
34 -> 35 ;
36 [label="gini = 0.12\nsamples = 122\nvalue = [182, 12]\nclass = 0", fillcolor="#e58139ee"] ;
34 -> 36 ;
37 [label="UndergradSchoolGPA <= 3.49\ngini = 0.02\nsamples = 20683\nvalue = [32485, 313]\nclass = 0", fillcolor="#e58139fd"] ;
33 -> 37 ;
38 [label="gini = 0.02\nsamples = 19752\nvalue = [31033, 286]\nclass = 0", fillcolor="#e58139fd"] ;
37 -> 38 ;
39 [label="gini = 0.04\nsamples = 931\nvalue = [1452, 27]\nclass = 0", fillcolor="#e58139fa"] ;
37 -> 39 ;
40 [label="GymCertificationEverSuspended <= -0.5\ngini = 0.04\nsamples = 10609\nvalue = [16492, 323]\nclass = 0", fillcolor="#e58139fa"] ;
26 -> 40 ;
41 [label="RecentTrainingExperience1From <= 425.5\ngini = 0.02\nsamples = 3197\nvalue = [5053, 56]\nclass = 0", fillcolor="#e58139fc"] ;
40 -> 41 ;
42 [label="UndergradSchoolGPA <= 3.11\ngini = 0.01\nsamples = 1436\nvalue = [2271, 12]\nclass = 0", fillcolor="#e58139fe"] ;
41 -> 42 ;
43 [label="gini = 0.01\nsamples = 1044\nvalue = [1675, 12]\nclass = 0", fillcolor="#e58139fd"] ;
42 -> 43 ;
44 [label="gini = 0.0\nsamples = 392\nvalue = [596, 0]\nclass = 0", fillcolor="#e58139ff"] ;
42 -> 44 ;
45 [label="PositionForTrainingPokemon <= 7.5\ngini = 0.03\nsamples = 1761\nvalue = [2782, 44]\nclass = 0", fillcolor="#e58139fb"] ;
41 -> 45 ;
46 [label="gini = 0.02\nsamples = 927\nvalue = [1506, 12]\nclass = 0", fillcolor="#e58139fd"] ;
45 -> 46 ;
47 [label="gini = 0.05\nsamples = 834\nvalue = [1276, 32]\nclass = 0", fillcolor="#e58139f9"] ;
45 -> 47 ;
48 [label="TotalYearsOfExp <= 0.0\ngini = 0.04\nsamples = 7412\nvalue = [11439, 267]\nclass = 0", fillcolor="#e58139f9"] ;
40 -> 48 ;
49 [label="JobPostingDate <= 1184.5\ngini = 0.37\nsamples = 218\nvalue = [270, 89]\nclass = 0", fillcolor="#e58139ab"] ;
48 -> 49 ;
50 [label="gini = 0.34\nsamples = 206\nvalue = [266, 73]\nclass = 0", fillcolor="#e58139b9"] ;
49 -> 50 ;
51 [label="gini = 0.32\nsamples = 12\nvalue = [4, 16]\nclass = 1", fillcolor="#399de5bf"] ;
49 -> 51 ;
52 [label="JobShiftEvening <= 0.5\ngini = 0.03\nsamples = 7194\nvalue = [11169, 178]\nclass = 0", fillcolor="#e58139fb"] ;
48 -> 52 ;
53 [label="gini = 0.06\nsamples = 1880\nvalue = [2831, 97]\nclass = 0", fillcolor="#e58139f6"] ;
52 -> 53 ;
54 [label="gini = 0.02\nsamples = 5314\nvalue = [8338, 81]\nclass = 0", fillcolor="#e58139fd"] ;
52 -> 54 ;
}