digraph Tree {
node [shape=box, style="filled, rounded", color="black", fontname=helvetica] ;
edge [fontname=helvetica] ;
0 [label="GymBadgeTemp4 <= -0.5\ngini = 0.03\nsamples = 42572\nvalue = [66235, 1189]\nclass = 0", fillcolor="#e58139fa"] ;
1 [label="JobShiftRotating <= -0.5\ngini = 0.16\nsamples = 2766\nvalue = [4026, 379]\nclass = 0", fillcolor="#e58139e7"] ;
0 -> 1 [labeldistance=2.5, labelangle=45, headlabel="True"] ;
2 [label="HighEduLevelCompleted <= -0.5\ngini = 0.39\nsamples = 167\nvalue = [196, 70]\nclass = 0", fillcolor="#e58139a4"] ;
1 -> 2 ;
3 [label="PositionForTrainingPokemon <= 2.0\ngini = 0.45\nsamples = 126\nvalue = [133, 68]\nclass = 0", fillcolor="#e581397d"] ;
2 -> 3 ;
4 [label="gini = 0.49\nsamples = 28\nvalue = [19, 25]\nclass = 1", fillcolor="#399de53d"] ;
3 -> 4 ;
5 [label="JobPostingDate <= 107.5\ngini = 0.4\nsamples = 98\nvalue = [114, 43]\nclass = 0", fillcolor="#e581399f"] ;
3 -> 5 ;
6 [label="gini = 0.09\nsamples = 50\nvalue = [77, 4]\nclass = 0", fillcolor="#e58139f2"] ;
5 -> 6 ;
7 [label="gini = 0.5\nsamples = 48\nvalue = [37, 39]\nclass = 1", fillcolor="#399de50d"] ;
5 -> 7 ;
8 [label="gini = 0.06\nsamples = 41\nvalue = [63, 2]\nclass = 0", fillcolor="#e58139f7"] ;
2 -> 8 ;
9 [label="TotalYearsOfExp <= 0.0\ngini = 0.14\nsamples = 2599\nvalue = [3830, 309]\nclass = 0", fillcolor="#e58139ea"] ;
1 -> 9 ;
10 [label="PositionForTrainingPokemon <= 7.5\ngini = 0.42\nsamples = 111\nvalue = [138, 60]\nclass = 0", fillcolor="#e5813990"] ;
9 -> 10 ;
11 [label="RecentTrainingExperience1From <= 352.5\ngini = 0.31\nsamples = 55\nvalue = [85, 20]\nclass = 0", fillcolor="#e58139c3"] ;
10 -> 11 ;
12 [label="gini = 0.0\nsamples = 2\nvalue = [0, 5]\nclass = 1", fillcolor="#399de5ff"] ;
11 -> 12 ;
13 [label="gini = 0.26\nsamples = 53\nvalue = [85, 15]\nclass = 0", fillcolor="#e58139d2"] ;
11 -> 13 ;
14 [label="RecentTrainingExperience3To <= 330.0\ngini = 0.49\nsamples = 56\nvalue = [53, 40]\nclass = 0", fillcolor="#e581393f"] ;
10 -> 14 ;
15 [label="gini = 0.49\nsamples = 40\nvalue = [30, 37]\nclass = 1", fillcolor="#399de530"] ;
14 -> 15 ;
16 [label="gini = 0.2\nsamples = 16\nvalue = [23, 3]\nclass = 0", fillcolor="#e58139de"] ;
14 -> 16 ;
17 [label="WorkingForJobAppliedFor <= 0.5\ngini = 0.12\nsamples = 2488\nvalue = [3692, 249]\nclass = 0", fillcolor="#e58139ee"] ;
9 -> 17 ;
18 [label="TotalYearsOfExp <= 4.0\ngini = 0.08\nsamples = 1541\nvalue = [2344, 97]\nclass = 0", fillcolor="#e58139f4"] ;
17 -> 18 ;
19 [label="gini = 0.06\nsamples = 985\nvalue = [1515, 50]\nclass = 0", fillcolor="#e58139f7"] ;
18 -> 19 ;
20 [label="gini = 0.1\nsamples = 556\nvalue = [829, 47]\nclass = 0", fillcolor="#e58139f1"] ;
18 -> 20 ;
21 [label="HighEduLevelCompleted <= 7.0\ngini = 0.18\nsamples = 947\nvalue = [1348, 152]\nclass = 0", fillcolor="#e58139e2"] ;
17 -> 21 ;
22 [label="gini = 0.17\nsamples = 906\nvalue = [1303, 136]\nclass = 0", fillcolor="#e58139e4"] ;
21 -> 22 ;
23 [label="gini = 0.39\nsamples = 41\nvalue = [45, 16]\nclass = 0", fillcolor="#e58139a4"] ;
21 -> 23 ;
24 [label="GymBadge4Pokemon <= 26.5\ngini = 0.03\nsamples = 39806\nvalue = [62209, 810]\nclass = 0", fillcolor="#e58139fc"] ;
0 -> 24 [labeldistance=2.5, labelangle=-45, headlabel="False"] ;
25 [label="ApplicationType <= 1.0\ngini = 0.03\nsamples = 39795\nvalue = [62195, 807]\nclass = 0", fillcolor="#e58139fc"] ;
24 -> 25 ;
26 [label="JobShiftEvening <= 0.5\ngini = 0.02\nsamples = 39065\nvalue = [61354, 505]\nclass = 0", fillcolor="#e58139fd"] ;
25 -> 26 ;
27 [label="RecentTrainingExperience1PayRateEndFreq <= 0.5\ngini = 0.03\nsamples = 11084\nvalue = [17304, 236]\nclass = 0", fillcolor="#e58139fc"] ;
26 -> 27 ;
28 [label="gini = 0.04\nsamples = 2795\nvalue = [4302, 88]\nclass = 0", fillcolor="#e58139fa"] ;
27 -> 28 ;
29 [label="gini = 0.02\nsamples = 8289\nvalue = [13002, 148]\nclass = 0", fillcolor="#e58139fc"] ;
27 -> 29 ;
30 [label="PokemonTrainerClass <= 6.5\ngini = 0.01\nsamples = 27981\nvalue = [44050, 269]\nclass = 0", fillcolor="#e58139fd"] ;
26 -> 30 ;
31 [label="gini = 0.01\nsamples = 21748\nvalue = [34231, 241]\nclass = 0", fillcolor="#e58139fd"] ;
30 -> 31 ;
32 [label="gini = 0.01\nsamples = 6233\nvalue = [9819, 28]\nclass = 0", fillcolor="#e58139fe"] ;
30 -> 32 ;
33 [label="RecentTrainingExperienceContactForRefPostHire <= -0.5\ngini = 0.39\nsamples = 730\nvalue = [841, 302]\nclass = 0", fillcolor="#e58139a3"] ;
25 -> 33 ;
34 [label="RecentTrainingExperience1PayRateEndFreq <= 2.5\ngini = 0.48\nsamples = 273\nvalue = [258, 164]\nclass = 0", fillcolor="#e581395d"] ;
33 -> 34 ;
35 [label="gini = 0.48\nsamples = 241\nvalue = [228, 157]\nclass = 0", fillcolor="#e581394f"] ;
34 -> 35 ;
36 [label="gini = 0.31\nsamples = 32\nvalue = [30, 7]\nclass = 0", fillcolor="#e58139c4"] ;
34 -> 36 ;
37 [label="RecentTrainingExperience1To <= 210.5\ngini = 0.31\nsamples = 457\nvalue = [583, 138]\nclass = 0", fillcolor="#e58139c3"] ;
33 -> 37 ;
38 [label="gini = 0.28\nsamples = 435\nvalue = [570, 114]\nclass = 0", fillcolor="#e58139cc"] ;
37 -> 38 ;
39 [label="gini = 0.46\nsamples = 22\nvalue = [13, 24]\nclass = 1", fillcolor="#399de575"] ;
37 -> 39 ;
40 [label="gini = 0.29\nsamples = 11\nvalue = [14, 3]\nclass = 0", fillcolor="#e58139c8"] ;
24 -> 40 ;
}