digraph Tree {
node [shape=box, style="filled, rounded", color="black", fontname=helvetica] ;
edge [fontname=helvetica] ;
0 [label="GymBadgeTemp3 <= -0.5\ngini = 0.04\nsamples = 42566\nvalue = [66178, 1246]\nclass = 0", fillcolor="#e58139fa"] ;
1 [label="JobShiftWeekend <= -0.5\ngini = 0.17\nsamples = 2789\nvalue = [4003, 419]\nclass = 0", fillcolor="#e58139e4"] ;
0 -> 1 [labeldistance=2.5, labelangle=45, headlabel="True"] ;
2 [label="HighEduLevelCompleted <= -0.5\ngini = 0.42\nsamples = 161\nvalue = [169, 72]\nclass = 0", fillcolor="#e5813992"] ;
1 -> 2 ;
3 [label="JobSchedule <= 5.5\ngini = 0.48\nsamples = 123\nvalue = [112, 72]\nclass = 0", fillcolor="#e581395b"] ;
2 -> 3 ;
4 [label="PositionForTrainingPokemon <= 25.0\ngini = 0.49\nsamples = 95\nvalue = [79, 58]\nclass = 0", fillcolor="#e5813944"] ;
3 -> 4 ;
5 [label="gini = 0.48\nsamples = 87\nvalue = [78, 50]\nclass = 0", fillcolor="#e581395c"] ;
4 -> 5 ;
6 [label="gini = 0.2\nsamples = 8\nvalue = [1, 8]\nclass = 1", fillcolor="#399de5df"] ;
4 -> 6 ;
7 [label="gini = 0.42\nsamples = 28\nvalue = [33, 14]\nclass = 0", fillcolor="#e5813993"] ;
3 -> 7 ;
8 [label="gini = 0.0\nsamples = 38\nvalue = [57, 0]\nclass = 0", fillcolor="#e58139ff"] ;
2 -> 8 ;
9 [label="PokemonTrainerClass <= 6.5\ngini = 0.15\nsamples = 2628\nvalue = [3834, 347]\nclass = 0", fillcolor="#e58139e8"] ;
1 -> 9 ;
10 [label="RecentTrainingExperience2From <= 403.5\ngini = 0.2\nsamples = 1650\nvalue = [2320, 292]\nclass = 0", fillcolor="#e58139df"] ;
9 -> 10 ;
11 [label="JobStatusPartTime <= 0.5\ngini = 0.25\nsamples = 816\nvalue = [1096, 191]\nclass = 0", fillcolor="#e58139d3"] ;
10 -> 11 ;
12 [label="gini = 0.29\nsamples = 572\nvalue = [742, 159]\nclass = 0", fillcolor="#e58139c8"] ;
11 -> 12 ;
13 [label="gini = 0.15\nsamples = 244\nvalue = [354, 32]\nclass = 0", fillcolor="#e58139e8"] ;
11 -> 13 ;
14 [label="ApplicationType <= 1.0\ngini = 0.14\nsamples = 834\nvalue = [1224, 101]\nclass = 0", fillcolor="#e58139ea"] ;
10 -> 14 ;
15 [label="gini = 0.11\nsamples = 803\nvalue = [1195, 77]\nclass = 0", fillcolor="#e58139ef"] ;
14 -> 15 ;
16 [label="gini = 0.5\nsamples = 31\nvalue = [29, 24]\nclass = 0", fillcolor="#e581392c"] ;
14 -> 16 ;
17 [label="SpokenWithCurrentBoss <= 0.5\ngini = 0.07\nsamples = 978\nvalue = [1514, 55]\nclass = 0", fillcolor="#e58139f6"] ;
9 -> 17 ;
18 [label="PositionForTrainingPokemon <= 29.0\ngini = 0.02\nsamples = 333\nvalue = [529, 5]\nclass = 0", fillcolor="#e58139fd"] ;
17 -> 18 ;
19 [label="gini = 0.01\nsamples = 312\nvalue = [501, 2]\nclass = 0", fillcolor="#e58139fe"] ;
18 -> 19 ;
20 [label="gini = 0.17\nsamples = 21\nvalue = [28, 3]\nclass = 0", fillcolor="#e58139e4"] ;
18 -> 20 ;
21 [label="JobSchedule <= 2.5\ngini = 0.09\nsamples = 645\nvalue = [985, 50]\nclass = 0", fillcolor="#e58139f2"] ;
17 -> 21 ;
22 [label="gini = 0.11\nsamples = 547\nvalue = [819, 49]\nclass = 0", fillcolor="#e58139f0"] ;
21 -> 22 ;
23 [label="gini = 0.01\nsamples = 98\nvalue = [166, 1]\nclass = 0", fillcolor="#e58139fd"] ;
21 -> 23 ;
24 [label="PokemonTrainerClass <= 6.5\ngini = 0.03\nsamples = 39777\nvalue = [62175, 827]\nclass = 0", fillcolor="#e58139fc"] ;
0 -> 24 [labeldistance=2.5, labelangle=-45, headlabel="False"] ;
25 [label="GymBadgePerm1 <= 0.5\ngini = 0.03\nsamples = 30055\nvalue = [46849, 745]\nclass = 0", fillcolor="#e58139fb"] ;
24 -> 25 ;
26 [label="RecentTrainingExperience1PayRateEndValue <= 2803.5\ngini = 0.02\nsamples = 18297\nvalue = [28651, 360]\nclass = 0", fillcolor="#e58139fc"] ;
25 -> 26 ;
27 [label="HighSchoolGPA <= 4.16\ngini = 0.03\nsamples = 13138\nvalue = [20606, 304]\nclass = 0", fillcolor="#e58139fb"] ;
26 -> 27 ;
28 [label="gini = 0.03\nsamples = 13127\nvalue = [20595, 301]\nclass = 0", fillcolor="#e58139fb"] ;
27 -> 28 ;
29 [label="gini = 0.34\nsamples = 11\nvalue = [11, 3]\nclass = 0", fillcolor="#e58139b9"] ;
27 -> 29 ;
30 [label="ApplicationType <= 1.0\ngini = 0.01\nsamples = 5159\nvalue = [8045, 56]\nclass = 0", fillcolor="#e58139fd"] ;
26 -> 30 ;
31 [label="gini = 0.01\nsamples = 5043\nvalue = [7881, 37]\nclass = 0", fillcolor="#e58139fe"] ;
30 -> 31 ;
32 [label="gini = 0.19\nsamples = 116\nvalue = [164, 19]\nclass = 0", fillcolor="#e58139e1"] ;
30 -> 32 ;
33 [label="GraduateSchoolGraduate <= -0.5\ngini = 0.04\nsamples = 11758\nvalue = [18198, 385]\nclass = 0", fillcolor="#e58139fa"] ;
25 -> 33 ;
34 [label="PositionForTrainingPokemon <= 2.5\ngini = 0.03\nsamples = 10109\nvalue = [15661, 281]\nclass = 0", fillcolor="#e58139fa"] ;
33 -> 34 ;
35 [label="gini = 0.05\nsamples = 2791\nvalue = [4272, 113]\nclass = 0", fillcolor="#e58139f8"] ;
34 -> 35 ;
36 [label="gini = 0.03\nsamples = 7318\nvalue = [11389, 168]\nclass = 0", fillcolor="#e58139fb"] ;
34 -> 36 ;
37 [label="JobShiftEvening <= 0.5\ngini = 0.08\nsamples = 1649\nvalue = [2537, 104]\nclass = 0", fillcolor="#e58139f5"] ;
33 -> 37 ;
38 [label="gini = 0.11\nsamples = 610\nvalue = [917, 55]\nclass = 0", fillcolor="#e58139f0"] ;
37 -> 38 ;
39 [label="gini = 0.06\nsamples = 1039\nvalue = [1620, 49]\nclass = 0", fillcolor="#e58139f7"] ;
37 -> 39 ;
40 [label="TotalYearsOfExp <= 0.0\ngini = 0.01\nsamples = 9722\nvalue = [15326, 82]\nclass = 0", fillcolor="#e58139fe"] ;
24 -> 40 ;
41 [label="PokemonWorldRegion <= 5.0\ngini = 0.1\nsamples = 244\nvalue = [375, 22]\nclass = 0", fillcolor="#e58139f0"] ;
40 -> 41 ;
42 [label="GymCertificationEverSuspended <= 0.5\ngini = 0.1\nsamples = 240\nvalue = [373, 20]\nclass = 0", fillcolor="#e58139f1"] ;
41 -> 42 ;
43 [label="gini = 0.09\nsamples = 239\nvalue = [373, 19]\nclass = 0", fillcolor="#e58139f2"] ;
42 -> 43 ;
44 [label="gini = 0.0\nsamples = 1\nvalue = [0, 1]\nclass = 1", fillcolor="#399de5ff"] ;
42 -> 44 ;
45 [label="gini = 0.5\nsamples = 4\nvalue = [2, 2]\nclass = 0", fillcolor="#e5813900"] ;
41 -> 45 ;
46 [label="TotalYearsOfExp <= 7.0\ngini = 0.01\nsamples = 9478\nvalue = [14951, 60]\nclass = 0", fillcolor="#e58139fe"] ;
40 -> 46 ;
47 [label="ReferenceRelationship3 <= 4.5\ngini = 0.0\nsamples = 6521\nvalue = [10260, 21]\nclass = 0", fillcolor="#e58139fe"] ;
46 -> 47 ;
48 [label="gini = 0.0\nsamples = 5059\nvalue = [7954, 9]\nclass = 0", fillcolor="#e58139ff"] ;
47 -> 48 ;
49 [label="gini = 0.01\nsamples = 1462\nvalue = [2306, 12]\nclass = 0", fillcolor="#e58139fe"] ;
47 -> 49 ;
50 [label="GymBadge1Pokemon <= 31.0\ngini = 0.02\nsamples = 2957\nvalue = [4691, 39]\nclass = 0", fillcolor="#e58139fd"] ;
46 -> 50 ;
51 [label="gini = 0.02\nsamples = 2948\nvalue = [4675, 37]\nclass = 0", fillcolor="#e58139fd"] ;
50 -> 51 ;
52 [label="gini = 0.2\nsamples = 9\nvalue = [16, 2]\nclass = 0", fillcolor="#e58139df"] ;
50 -> 52 ;
}