digraph Tree {
node [shape=box, style="filled, rounded", color="black", fontname=helvetica] ;
edge [fontname=helvetica] ;
0 [label="CurrentlyWorkInThisRegion <= -0.5\ngini = 0.03\nsamples = 42697\nvalue = [66303, 1121]\nclass = 0", fillcolor="#e58139fb"] ;
1 [label="JobStatusTemp <= -0.5\ngini = 0.15\nsamples = 3251\nvalue = [4717, 403]\nclass = 0", fillcolor="#e58139e9"] ;
0 -> 1 [labeldistance=2.5, labelangle=45, headlabel="True"] ;
2 [label="RecentTrainingExperienceContactForRefYes <= -0.5\ngini = 0.38\nsamples = 169\nvalue = [198, 69]\nclass = 0", fillcolor="#e58139a6"] ;
1 -> 2 ;
3 [label="PokemonTrainerClass <= 3.5\ngini = 0.39\nsamples = 163\nvalue = [189, 69]\nclass = 0", fillcolor="#e58139a2"] ;
2 -> 3 ;
4 [label="gini = 0.21\nsamples = 48\nvalue = [66, 9]\nclass = 0", fillcolor="#e58139dc"] ;
3 -> 4 ;
5 [label="InternalEmployee <= 0.5\ngini = 0.44\nsamples = 115\nvalue = [123, 60]\nclass = 0", fillcolor="#e5813983"] ;
3 -> 5 ;
6 [label="gini = 0.42\nsamples = 102\nvalue = [115, 49]\nclass = 0", fillcolor="#e5813992"] ;
5 -> 6 ;
7 [label="gini = 0.49\nsamples = 13\nvalue = [8, 11]\nclass = 1", fillcolor="#399de546"] ;
5 -> 7 ;
8 [label="gini = 0.0\nsamples = 6\nvalue = [9, 0]\nclass = 0", fillcolor="#e58139ff"] ;
2 -> 8 ;
9 [label="HighEduLevelCompleted <= -0.5\ngini = 0.13\nsamples = 3082\nvalue = [4519, 334]\nclass = 0", fillcolor="#e58139ec"] ;
1 -> 9 ;
10 [label="RecentTrainingExperience1From <= 322.5\ngini = 0.32\nsamples = 176\nvalue = [225, 56]\nclass = 0", fillcolor="#e58139c0"] ;
9 -> 10 ;
11 [label="gini = 0.36\nsamples = 8\nvalue = [3, 10]\nclass = 1", fillcolor="#399de5b3"] ;
10 -> 11 ;
12 [label="GymBadge4Pokemon <= 0.0\ngini = 0.28\nsamples = 168\nvalue = [222, 46]\nclass = 0", fillcolor="#e58139ca"] ;
10 -> 12 ;
13 [label="gini = 0.27\nsamples = 166\nvalue = [222, 43]\nclass = 0", fillcolor="#e58139ce"] ;
12 -> 13 ;
14 [label="gini = 0.0\nsamples = 2\nvalue = [0, 3]\nclass = 1", fillcolor="#399de5ff"] ;
12 -> 14 ;
15 [label="JobShiftWeekend <= 0.5\ngini = 0.11\nsamples = 2906\nvalue = [4294, 278]\nclass = 0", fillcolor="#e58139ee"] ;
9 -> 15 ;
16 [label="UndergradSchoolGraduate <= 0.5\ngini = 0.15\nsamples = 1616\nvalue = [2363, 206]\nclass = 0", fillcolor="#e58139e9"] ;
15 -> 16 ;
17 [label="gini = 0.12\nsamples = 1184\nvalue = [1753, 122]\nclass = 0", fillcolor="#e58139ed"] ;
16 -> 17 ;
18 [label="gini = 0.21\nsamples = 432\nvalue = [610, 84]\nclass = 0", fillcolor="#e58139dc"] ;
16 -> 18 ;
19 [label="GymBadgeTemp3 <= -0.5\ngini = 0.07\nsamples = 1290\nvalue = [1931, 72]\nclass = 0", fillcolor="#e58139f5"] ;
15 -> 19 ;
20 [label="gini = 0.08\nsamples = 1088\nvalue = [1622, 68]\nclass = 0", fillcolor="#e58139f4"] ;
19 -> 20 ;
21 [label="gini = 0.03\nsamples = 202\nvalue = [309, 4]\nclass = 0", fillcolor="#e58139fc"] ;
19 -> 21 ;
22 [label="RecentTrainingExperience4PayRateEndValue <= 1354.5\ngini = 0.02\nsamples = 39446\nvalue = [61586, 718]\nclass = 0", fillcolor="#e58139fc"] ;
0 -> 22 [labeldistance=2.5, labelangle=-45, headlabel="False"] ;
23 [label="CurrentlyEmployed <= 0.5\ngini = 0.02\nsamples = 39425\nvalue = [61567, 714]\nclass = 0", fillcolor="#e58139fc"] ;
22 -> 23 ;
24 [label="ApplicationType <= 1.0\ngini = 0.02\nsamples = 21221\nvalue = [33265, 305]\nclass = 0", fillcolor="#e58139fd"] ;
23 -> 24 ;
25 [label="TotalYearsOfExp <= 9.5\ngini = 0.01\nsamples = 20857\nvalue = [32808, 209]\nclass = 0", fillcolor="#e58139fd"] ;
24 -> 25 ;
26 [label="gini = 0.01\nsamples = 17545\nvalue = [27635, 147]\nclass = 0", fillcolor="#e58139fe"] ;
25 -> 26 ;
27 [label="gini = 0.02\nsamples = 3312\nvalue = [5173, 62]\nclass = 0", fillcolor="#e58139fc"] ;
25 -> 27 ;
28 [label="GymBadgePerm1 <= 0.5\ngini = 0.29\nsamples = 364\nvalue = [457, 96]\nclass = 0", fillcolor="#e58139c9"] ;
24 -> 28 ;
29 [label="gini = 0.18\nsamples = 261\nvalue = [362, 41]\nclass = 0", fillcolor="#e58139e2"] ;
28 -> 29 ;
30 [label="gini = 0.46\nsamples = 103\nvalue = [95, 55]\nclass = 0", fillcolor="#e581396b"] ;
28 -> 30 ;
31 [label="TotalYearsOfExp <= 0.0\ngini = 0.03\nsamples = 18204\nvalue = [28302, 409]\nclass = 0", fillcolor="#e58139fb"] ;
23 -> 31 ;
32 [label="PokemonTrainerClass <= 5.5\ngini = 0.34\nsamples = 501\nvalue = [643, 178]\nclass = 0", fillcolor="#e58139b8"] ;
31 -> 32 ;
33 [label="gini = 0.39\nsamples = 371\nvalue = [444, 163]\nclass = 0", fillcolor="#e58139a1"] ;
32 -> 33 ;
34 [label="gini = 0.13\nsamples = 130\nvalue = [199, 15]\nclass = 0", fillcolor="#e58139ec"] ;
32 -> 34 ;
35 [label="PositionForTrainingPokemon <= -0.5\ngini = 0.02\nsamples = 17703\nvalue = [27659, 231]\nclass = 0", fillcolor="#e58139fd"] ;
31 -> 35 ;
36 [label="gini = 0.03\nsamples = 4348\nvalue = [6740, 91]\nclass = 0", fillcolor="#e58139fc"] ;
35 -> 36 ;
37 [label="gini = 0.01\nsamples = 13355\nvalue = [20919, 140]\nclass = 0", fillcolor="#e58139fd"] ;
35 -> 37 ;
38 [label="gini = 0.29\nsamples = 21\nvalue = [19, 4]\nclass = 0", fillcolor="#e58139c9"] ;
22 -> 38 ;
}