digraph Tree {
node [shape=box, style="filled, rounded", color="black", fontname=helvetica] ;
edge [fontname=helvetica] ;
0 [label="WorkedInThisRegion <= -0.5\ngini = 0.04\nsamples = 42597\nvalue = [66145, 1279]\nclass = 0", fillcolor="#e58139fa"] ;
1 [label="JobStatusPartTime <= -0.5\ngini = 0.13\nsamples = 3965\nvalue = [5824, 454]\nclass = 0", fillcolor="#e58139eb"] ;
0 -> 1 [labeldistance=2.5, labelangle=45, headlabel="True"] ;
2 [label="HighEduLevelCompleted <= -0.5\ngini = 0.42\nsamples = 184\nvalue = [198, 86]\nclass = 0", fillcolor="#e5813990"] ;
1 -> 2 ;
3 [label="ApplicationType <= 1.5\ngini = 0.47\nsamples = 146\nvalue = [138, 82]\nclass = 0", fillcolor="#e5813967"] ;
2 -> 3 ;
4 [label="InternalEmployee <= 0.5\ngini = 0.48\nsamples = 131\nvalue = [119, 80]\nclass = 0", fillcolor="#e5813954"] ;
3 -> 4 ;
5 [label="gini = 0.45\nsamples = 115\nvalue = [116, 62]\nclass = 0", fillcolor="#e5813977"] ;
4 -> 5 ;
6 [label="gini = 0.24\nsamples = 16\nvalue = [3, 18]\nclass = 1", fillcolor="#399de5d4"] ;
4 -> 6 ;
7 [label="gini = 0.17\nsamples = 15\nvalue = [19, 2]\nclass = 0", fillcolor="#e58139e4"] ;
3 -> 7 ;
8 [label="gini = 0.12\nsamples = 38\nvalue = [60, 4]\nclass = 0", fillcolor="#e58139ee"] ;
2 -> 8 ;
9 [label="JobStatusPartTime <= 0.5\ngini = 0.12\nsamples = 3781\nvalue = [5626, 368]\nclass = 0", fillcolor="#e58139ee"] ;
1 -> 9 ;
10 [label="SpokenWithCurrentBoss <= 0.5\ngini = 0.15\nsamples = 2196\nvalue = [3197, 281]\nclass = 0", fillcolor="#e58139e9"] ;
9 -> 10 ;
11 [label="WorkingForJobAppliedFor <= 0.5\ngini = 0.08\nsamples = 1051\nvalue = [1590, 69]\nclass = 0", fillcolor="#e58139f4"] ;
10 -> 11 ;
12 [label="gini = 0.06\nsamples = 873\nvalue = [1335, 44]\nclass = 0", fillcolor="#e58139f7"] ;
11 -> 12 ;
13 [label="gini = 0.16\nsamples = 178\nvalue = [255, 25]\nclass = 0", fillcolor="#e58139e6"] ;
11 -> 13 ;
14 [label="PokemonTrainerClass <= 4.5\ngini = 0.21\nsamples = 1145\nvalue = [1607, 212]\nclass = 0", fillcolor="#e58139dd"] ;
10 -> 14 ;
15 [label="gini = 0.3\nsamples = 365\nvalue = [489, 109]\nclass = 0", fillcolor="#e58139c6"] ;
14 -> 15 ;
16 [label="gini = 0.15\nsamples = 780\nvalue = [1118, 103]\nclass = 0", fillcolor="#e58139e8"] ;
14 -> 16 ;
17 [label="ApplicationType <= 1.0\ngini = 0.07\nsamples = 1585\nvalue = [2429, 87]\nclass = 0", fillcolor="#e58139f6"] ;
9 -> 17 ;
18 [label="SpokenWithCurrentBoss <= 0.5\ngini = 0.06\nsamples = 1546\nvalue = [2393, 72]\nclass = 0", fillcolor="#e58139f7"] ;
17 -> 18 ;
19 [label="gini = 0.03\nsamples = 888\nvalue = [1390, 19]\nclass = 0", fillcolor="#e58139fc"] ;
18 -> 19 ;
20 [label="gini = 0.1\nsamples = 658\nvalue = [1003, 53]\nclass = 0", fillcolor="#e58139f2"] ;
18 -> 20 ;
21 [label="gini = 0.42\nsamples = 39\nvalue = [36, 15]\nclass = 0", fillcolor="#e5813995"] ;
17 -> 21 ;
22 [label="GraduateSchoolGraduate <= 0.5\ngini = 0.03\nsamples = 38632\nvalue = [60321, 825]\nclass = 0", fillcolor="#e58139fc"] ;
0 -> 22 [labeldistance=2.5, labelangle=-45, headlabel="False"] ;
23 [label="PositionForTrainingPokemon <= 0.5\ngini = 0.02\nsamples = 36049\nvalue = [56379, 704]\nclass = 0", fillcolor="#e58139fc"] ;
22 -> 23 ;
24 [label="GymCertificationEverSuspended <= -0.5\ngini = 0.03\nsamples = 8939\nvalue = [13874, 230]\nclass = 0", fillcolor="#e58139fb"] ;
23 -> 24 ;
25 [label="ApplyDate <= 1716.5\ngini = 0.02\nsamples = 3932\nvalue = [6111, 65]\nclass = 0", fillcolor="#e58139fc"] ;
24 -> 25 ;
26 [label="gini = 0.02\nsamples = 3795\nvalue = [5916, 58]\nclass = 0", fillcolor="#e58139fc"] ;
25 -> 26 ;
27 [label="gini = 0.07\nsamples = 137\nvalue = [195, 7]\nclass = 0", fillcolor="#e58139f6"] ;
25 -> 27 ;
28 [label="GymCertified <= -0.5\ngini = 0.04\nsamples = 5007\nvalue = [7763, 165]\nclass = 0", fillcolor="#e58139fa"] ;
24 -> 28 ;
29 [label="gini = 0.09\nsamples = 785\nvalue = [1174, 60]\nclass = 0", fillcolor="#e58139f2"] ;
28 -> 29 ;
30 [label="gini = 0.03\nsamples = 4222\nvalue = [6589, 105]\nclass = 0", fillcolor="#e58139fb"] ;
28 -> 30 ;
31 [label="RecentTrainingExperience1From <= 427.5\ngini = 0.02\nsamples = 27110\nvalue = [42505, 474]\nclass = 0", fillcolor="#e58139fc"] ;
23 -> 31 ;
32 [label="GymBadgePerm1 <= 0.5\ngini = 0.02\nsamples = 12298\nvalue = [19299, 169]\nclass = 0", fillcolor="#e58139fd"] ;
31 -> 32 ;
33 [label="gini = 0.01\nsamples = 8612\nvalue = [13548, 79]\nclass = 0", fillcolor="#e58139fe"] ;
32 -> 33 ;
34 [label="gini = 0.03\nsamples = 3686\nvalue = [5751, 90]\nclass = 0", fillcolor="#e58139fb"] ;
32 -> 34 ;
35 [label="ApplicationType <= 1.0\ngini = 0.03\nsamples = 14812\nvalue = [23206, 305]\nclass = 0", fillcolor="#e58139fc"] ;
31 -> 35 ;
36 [label="gini = 0.01\nsamples = 14523\nvalue = [22872, 171]\nclass = 0", fillcolor="#e58139fd"] ;
35 -> 36 ;
37 [label="gini = 0.41\nsamples = 289\nvalue = [334, 134]\nclass = 0", fillcolor="#e5813999"] ;
35 -> 37 ;
38 [label="CurrentlyEmployed <= 0.5\ngini = 0.06\nsamples = 2583\nvalue = [3942, 121]\nclass = 0", fillcolor="#e58139f7"] ;
22 -> 38 ;
39 [label="ApplyDate <= 136.5\ngini = 0.03\nsamples = 1253\nvalue = [1926, 31]\nclass = 0", fillcolor="#e58139fb"] ;
38 -> 39 ;
40 [label="JobPostingDate <= 234.0\ngini = 0.12\nsamples = 88\nvalue = [132, 9]\nclass = 0", fillcolor="#e58139ee"] ;
39 -> 40 ;
41 [label="gini = 0.1\nsamples = 87\nvalue = [132, 7]\nclass = 0", fillcolor="#e58139f1"] ;
40 -> 41 ;
42 [label="gini = 0.0\nsamples = 1\nvalue = [0, 2]\nclass = 1", fillcolor="#399de5ff"] ;
40 -> 42 ;
43 [label="WorkedInThisRegion <= 0.5\ngini = 0.02\nsamples = 1165\nvalue = [1794, 22]\nclass = 0", fillcolor="#e58139fc"] ;
39 -> 43 ;
44 [label="gini = 0.02\nsamples = 1081\nvalue = [1682, 15]\nclass = 0", fillcolor="#e58139fd"] ;
43 -> 44 ;
45 [label="gini = 0.11\nsamples = 84\nvalue = [112, 7]\nclass = 0", fillcolor="#e58139ef"] ;
43 -> 45 ;
46 [label="RecentTrainingExperience3To <= 330.5\ngini = 0.08\nsamples = 1330\nvalue = [2016, 90]\nclass = 0", fillcolor="#e58139f4"] ;
38 -> 46 ;
47 [label="PositionForTrainingPokemon <= -0.5\ngini = 0.1\nsamples = 800\nvalue = [1191, 65]\nclass = 0", fillcolor="#e58139f1"] ;
46 -> 47 ;
48 [label="gini = 0.15\nsamples = 239\nvalue = [334, 29]\nclass = 0", fillcolor="#e58139e9"] ;
47 -> 48 ;
49 [label="gini = 0.08\nsamples = 561\nvalue = [857, 36]\nclass = 0", fillcolor="#e58139f4"] ;
47 -> 49 ;
50 [label="RecentTrainingExperience3EmploymentStatus <= -0.5\ngini = 0.06\nsamples = 530\nvalue = [825, 25]\nclass = 0", fillcolor="#e58139f7"] ;
46 -> 50 ;
51 [label="gini = 0.25\nsamples = 19\nvalue = [29, 5]\nclass = 0", fillcolor="#e58139d3"] ;
50 -> 51 ;
52 [label="gini = 0.05\nsamples = 511\nvalue = [796, 20]\nclass = 0", fillcolor="#e58139f9"] ;
50 -> 52 ;
}