digraph Tree {
node [shape=box, style="filled, rounded", color="black", fontname=helvetica] ;
edge [fontname=helvetica] ;
0 [label="TotalYearsOfExp <= 0.0\ngini = 0.03\nsamples = 42633\nvalue = [66256, 1168]\nclass = 0", fillcolor="#e58139fb"] ;
1 [label="RecentTrainingExperienceContactForRefNA <= -0.5\ngini = 0.32\nsamples = 1342\nvalue = [1672, 419]\nclass = 0", fillcolor="#e58139bf"] ;
0 -> 1 [labeldistance=2.5, labelangle=45, headlabel="True"] ;
2 [label="RecentTrainingExperience1Pokemon <= 19.5\ngini = 0.39\nsamples = 742\nvalue = [838, 305]\nclass = 0", fillcolor="#e58139a2"] ;
1 -> 2 ;
3 [label="GymBadgeTemp2 <= -0.5\ngini = 0.41\nsamples = 603\nvalue = [656, 271]\nclass = 0", fillcolor="#e5813996"] ;
2 -> 3 ;
4 [label="JobStatusPartTime <= 0.5\ngini = 0.46\nsamples = 219\nvalue = [213, 123]\nclass = 0", fillcolor="#e581396c"] ;
3 -> 4 ;
5 [label="gini = 0.48\nsamples = 191\nvalue = [176, 117]\nclass = 0", fillcolor="#e5813955"] ;
4 -> 5 ;
6 [label="gini = 0.24\nsamples = 28\nvalue = [37, 6]\nclass = 0", fillcolor="#e58139d6"] ;
4 -> 6 ;
7 [label="UndergradSchoolGPA <= 3.45\ngini = 0.38\nsamples = 384\nvalue = [443, 148]\nclass = 0", fillcolor="#e58139aa"] ;
3 -> 7 ;
8 [label="gini = 0.36\nsamples = 353\nvalue = [417, 128]\nclass = 0", fillcolor="#e58139b1"] ;
7 -> 8 ;
9 [label="gini = 0.49\nsamples = 31\nvalue = [26, 20]\nclass = 0", fillcolor="#e581393b"] ;
7 -> 9 ;
10 [label="RecentTrainingExperience2PayRateEndValue <= 2233.5\ngini = 0.27\nsamples = 139\nvalue = [182, 34]\nclass = 0", fillcolor="#e58139cf"] ;
2 -> 10 ;
11 [label="ApplicationType <= 1.0\ngini = 0.24\nsamples = 136\nvalue = [182, 30]\nclass = 0", fillcolor="#e58139d5"] ;
10 -> 11 ;
12 [label="gini = 0.04\nsamples = 61\nvalue = [99, 2]\nclass = 0", fillcolor="#e58139fa"] ;
11 -> 12 ;
13 [label="gini = 0.38\nsamples = 75\nvalue = [83, 28]\nclass = 0", fillcolor="#e58139a9"] ;
11 -> 13 ;
14 [label="gini = 0.0\nsamples = 3\nvalue = [0, 4]\nclass = 1", fillcolor="#399de5ff"] ;
10 -> 14 ;
15 [label="PokemonTrainerClass <= 6.5\ngini = 0.21\nsamples = 600\nvalue = [834, 114]\nclass = 0", fillcolor="#e58139dc"] ;
1 -> 15 ;
16 [label="GymBadgePerm1 <= 0.5\ngini = 0.26\nsamples = 428\nvalue = [568, 105]\nclass = 0", fillcolor="#e58139d0"] ;
15 -> 16 ;
17 [label="JobPostingDate <= 1032.5\ngini = 0.15\nsamples = 271\nvalue = [399, 36]\nclass = 0", fillcolor="#e58139e8"] ;
16 -> 17 ;
18 [label="gini = 0.12\nsamples = 262\nvalue = [394, 28]\nclass = 0", fillcolor="#e58139ed"] ;
17 -> 18 ;
19 [label="gini = 0.47\nsamples = 9\nvalue = [5, 8]\nclass = 1", fillcolor="#399de560"] ;
17 -> 19 ;
20 [label="JobPostingDate <= 792.5\ngini = 0.41\nsamples = 157\nvalue = [169, 69]\nclass = 0", fillcolor="#e5813997"] ;
16 -> 20 ;
21 [label="gini = 0.25\nsamples = 77\nvalue = [99, 17]\nclass = 0", fillcolor="#e58139d3"] ;
20 -> 21 ;
22 [label="gini = 0.49\nsamples = 80\nvalue = [70, 52]\nclass = 0", fillcolor="#e5813942"] ;
20 -> 22 ;
23 [label="ApplyDate <= 980.0\ngini = 0.06\nsamples = 172\nvalue = [266, 9]\nclass = 0", fillcolor="#e58139f6"] ;
15 -> 23 ;
24 [label="RecentTrainingExperience3To <= 385.5\ngini = 0.02\nsamples = 107\nvalue = [175, 2]\nclass = 0", fillcolor="#e58139fc"] ;
23 -> 24 ;
25 [label="gini = 0.01\nsamples = 100\nvalue = [168, 1]\nclass = 0", fillcolor="#e58139fd"] ;
24 -> 25 ;
26 [label="gini = 0.22\nsamples = 7\nvalue = [7, 1]\nclass = 0", fillcolor="#e58139db"] ;
24 -> 26 ;
27 [label="JobPostingDate <= 777.5\ngini = 0.13\nsamples = 65\nvalue = [91, 7]\nclass = 0", fillcolor="#e58139eb"] ;
23 -> 27 ;
28 [label="gini = 0.0\nsamples = 1\nvalue = [0, 2]\nclass = 1", fillcolor="#399de5ff"] ;
27 -> 28 ;
29 [label="gini = 0.1\nsamples = 64\nvalue = [91, 5]\nclass = 0", fillcolor="#e58139f1"] ;
27 -> 29 ;
30 [label="InternalEmployee <= 0.5\ngini = 0.02\nsamples = 41291\nvalue = [64584, 749]\nclass = 0", fillcolor="#e58139fc"] ;
0 -> 30 [labeldistance=2.5, labelangle=-45, headlabel="False"] ;
31 [label="UndergradSchoolGraduate <= 0.5\ngini = 0.02\nsamples = 38796\nvalue = [60899, 492]\nclass = 0", fillcolor="#e58139fd"] ;
30 -> 31 ;
32 [label="JobShiftNight <= 0.5\ngini = 0.01\nsamples = 28505\nvalue = [44744, 270]\nclass = 0", fillcolor="#e58139fd"] ;
31 -> 32 ;
33 [label="RecentTrainingExperience2To <= 429.5\ngini = 0.02\nsamples = 11554\nvalue = [18096, 159]\nclass = 0", fillcolor="#e58139fd"] ;
32 -> 33 ;
34 [label="gini = 0.02\nsamples = 10699\nvalue = [16805, 131]\nclass = 0", fillcolor="#e58139fd"] ;
33 -> 34 ;
35 [label="gini = 0.04\nsamples = 855\nvalue = [1291, 28]\nclass = 0", fillcolor="#e58139f9"] ;
33 -> 35 ;
36 [label="GymBadge1Pokemon <= -0.5\ngini = 0.01\nsamples = 16951\nvalue = [26648, 111]\nclass = 0", fillcolor="#e58139fe"] ;
32 -> 36 ;
37 [label="gini = 0.01\nsamples = 11462\nvalue = [18016, 55]\nclass = 0", fillcolor="#e58139fe"] ;
36 -> 37 ;
38 [label="gini = 0.01\nsamples = 5489\nvalue = [8632, 56]\nclass = 0", fillcolor="#e58139fd"] ;
36 -> 38 ;
39 [label="JobShiftEvening <= 0.5\ngini = 0.03\nsamples = 10291\nvalue = [16155, 222]\nclass = 0", fillcolor="#e58139fb"] ;
31 -> 39 ;
40 [label="WorkedInThisRegion <= 0.5\ngini = 0.05\nsamples = 3077\nvalue = [4766, 136]\nclass = 0", fillcolor="#e58139f8"] ;
39 -> 40 ;
41 [label="gini = 0.04\nsamples = 2754\nvalue = [4303, 101]\nclass = 0", fillcolor="#e58139f9"] ;
40 -> 41 ;
42 [label="gini = 0.13\nsamples = 323\nvalue = [463, 35]\nclass = 0", fillcolor="#e58139ec"] ;
40 -> 42 ;
43 [label="PositionForTrainingPokemon <= 2.5\ngini = 0.01\nsamples = 7214\nvalue = [11389, 86]\nclass = 0", fillcolor="#e58139fd"] ;
39 -> 43 ;
44 [label="gini = 0.02\nsamples = 2026\nvalue = [3197, 36]\nclass = 0", fillcolor="#e58139fc"] ;
43 -> 44 ;
45 [label="gini = 0.01\nsamples = 5188\nvalue = [8192, 50]\nclass = 0", fillcolor="#e58139fd"] ;
43 -> 45 ;
46 [label="WorkingForJobAppliedFor <= 0.5\ngini = 0.12\nsamples = 2495\nvalue = [3685, 257]\nclass = 0", fillcolor="#e58139ed"] ;
30 -> 46 ;
47 [label="GraduateSchoolGraduate <= 0.5\ngini = 0.08\nsamples = 1523\nvalue = [2285, 96]\nclass = 0", fillcolor="#e58139f4"] ;
46 -> 47 ;
48 [label="JobShiftWeekend <= 0.5\ngini = 0.07\nsamples = 1461\nvalue = [2202, 79]\nclass = 0", fillcolor="#e58139f6"] ;
47 -> 48 ;
49 [label="gini = 0.1\nsamples = 789\nvalue = [1170, 67]\nclass = 0", fillcolor="#e58139f0"] ;
48 -> 49 ;
50 [label="gini = 0.02\nsamples = 672\nvalue = [1032, 12]\nclass = 0", fillcolor="#e58139fc"] ;
48 -> 50 ;
51 [label="PositionForTrainingPokemon <= 29.5\ngini = 0.28\nsamples = 62\nvalue = [83, 17]\nclass = 0", fillcolor="#e58139cb"] ;
47 -> 51 ;
52 [label="gini = 0.25\nsamples = 61\nvalue = [83, 14]\nclass = 0", fillcolor="#e58139d4"] ;
51 -> 52 ;
53 [label="gini = 0.0\nsamples = 1\nvalue = [0, 3]\nclass = 1", fillcolor="#399de5ff"] ;
51 -> 53 ;
54 [label="PositionForTrainingPokemon <= 21.0\ngini = 0.19\nsamples = 972\nvalue = [1400, 161]\nclass = 0", fillcolor="#e58139e2"] ;
46 -> 54 ;
55 [label="RecentTrainingExperience1From <= 487.5\ngini = 0.2\nsamples = 768\nvalue = [1092, 141]\nclass = 0", fillcolor="#e58139de"] ;
54 -> 55 ;
56 [label="gini = 0.2\nsamples = 765\nvalue = [1091, 136]\nclass = 0", fillcolor="#e58139df"] ;
55 -> 56 ;
57 [label="gini = 0.28\nsamples = 3\nvalue = [1, 5]\nclass = 1", fillcolor="#399de5cc"] ;
55 -> 57 ;
58 [label="UndergradSchoolGraduate <= 0.5\ngini = 0.11\nsamples = 204\nvalue = [308, 20]\nclass = 0", fillcolor="#e58139ee"] ;
54 -> 58 ;
59 [label="gini = 0.06\nsamples = 161\nvalue = [245, 8]\nclass = 0", fillcolor="#e58139f7"] ;
58 -> 59 ;
60 [label="gini = 0.27\nsamples = 43\nvalue = [63, 12]\nclass = 0", fillcolor="#e58139ce"] ;
58 -> 60 ;
}