digraph Tree {
node [shape=box, style="filled, rounded", color="black", fontname=helvetica] ;
edge [fontname=helvetica] ;
0 [label="GymBadgePerm1 <= -0.5\ngini = 0.03\nsamples = 42609\nvalue = [66252, 1172]\nclass = 0", fillcolor="#e58139fa"] ;
1 [label="ApplicationType <= 0.5\ngini = 0.16\nsamples = 2752\nvalue = [3945, 389]\nclass = 0", fillcolor="#e58139e6"] ;
0 -> 1 [labeldistance=2.5, labelangle=45, headlabel="True"] ;
2 [label="JobShiftRotating <= -0.5\ngini = 0.14\nsamples = 2652\nvalue = [3857, 325]\nclass = 0", fillcolor="#e58139ea"] ;
1 -> 2 ;
3 [label="InternalEmployee <= 0.5\ngini = 0.4\nsamples = 152\nvalue = [179, 67]\nclass = 0", fillcolor="#e58139a0"] ;
2 -> 3 ;
4 [label="RecentTrainingExperienceContactForRefPostHire <= -0.5\ngini = 0.35\nsamples = 138\nvalue = [175, 51]\nclass = 0", fillcolor="#e58139b5"] ;
3 -> 4 ;
5 [label="gini = 0.36\nsamples = 129\nvalue = [165, 51]\nclass = 0", fillcolor="#e58139b0"] ;
4 -> 5 ;
6 [label="gini = 0.0\nsamples = 9\nvalue = [10, 0]\nclass = 0", fillcolor="#e58139ff"] ;
4 -> 6 ;
7 [label="gini = 0.32\nsamples = 14\nvalue = [4, 16]\nclass = 1", fillcolor="#399de5bf"] ;
3 -> 7 ;
8 [label="HighEduLevelCompleted <= 9.5\ngini = 0.12\nsamples = 2500\nvalue = [3678, 258]\nclass = 0", fillcolor="#e58139ed"] ;
2 -> 8 ;
9 [label="WorkingForJobAppliedFor <= 0.5\ngini = 0.12\nsamples = 2497\nvalue = [3678, 255]\nclass = 0", fillcolor="#e58139ed"] ;
8 -> 9 ;
10 [label="gini = 0.09\nsamples = 1521\nvalue = [2284, 109]\nclass = 0", fillcolor="#e58139f3"] ;
9 -> 10 ;
11 [label="gini = 0.17\nsamples = 976\nvalue = [1394, 146]\nclass = 0", fillcolor="#e58139e4"] ;
9 -> 11 ;
12 [label="gini = 0.0\nsamples = 3\nvalue = [0, 3]\nclass = 1", fillcolor="#399de5ff"] ;
8 -> 12 ;
13 [label="JobPostingDate <= 190.5\ngini = 0.49\nsamples = 100\nvalue = [88, 64]\nclass = 0", fillcolor="#e5813946"] ;
1 -> 13 ;
14 [label="gini = 0.22\nsamples = 26\nvalue = [35, 5]\nclass = 0", fillcolor="#e58139db"] ;
13 -> 14 ;
15 [label="RecentTrainingExperience3From <= 280.0\ngini = 0.5\nsamples = 74\nvalue = [53, 59]\nclass = 1", fillcolor="#399de51a"] ;
13 -> 15 ;
16 [label="gini = 0.46\nsamples = 43\nvalue = [24, 43]\nclass = 1", fillcolor="#399de571"] ;
15 -> 16 ;
17 [label="gini = 0.46\nsamples = 31\nvalue = [29, 16]\nclass = 0", fillcolor="#e5813972"] ;
15 -> 17 ;
18 [label="CurrentlyWorkInThisRegion <= 0.5\ngini = 0.02\nsamples = 39857\nvalue = [62307, 783]\nclass = 0", fillcolor="#e58139fc"] ;
0 -> 18 [labeldistance=2.5, labelangle=-45, headlabel="False"] ;
19 [label="GymBadgePerm1 <= 0.5\ngini = 0.02\nsamples = 39227\nvalue = [61347, 728]\nclass = 0", fillcolor="#e58139fc"] ;
18 -> 19 ;
20 [label="RecentTrainingExperience2Pokemon <= 9.5\ngini = 0.02\nsamples = 26327\nvalue = [41323, 364]\nclass = 0", fillcolor="#e58139fd"] ;
19 -> 20 ;
21 [label="WorkedInThisRegion <= 0.5\ngini = 0.01\nsamples = 19014\nvalue = [29860, 227]\nclass = 0", fillcolor="#e58139fd"] ;
20 -> 21 ;
22 [label="gini = 0.01\nsamples = 18106\nvalue = [28452, 203]\nclass = 0", fillcolor="#e58139fd"] ;
21 -> 22 ;
23 [label="gini = 0.03\nsamples = 908\nvalue = [1408, 24]\nclass = 0", fillcolor="#e58139fb"] ;
21 -> 23 ;
24 [label="ApplicationType <= 1.0\ngini = 0.02\nsamples = 7313\nvalue = [11463, 137]\nclass = 0", fillcolor="#e58139fc"] ;
20 -> 24 ;
25 [label="gini = 0.02\nsamples = 7192\nvalue = [11312, 95]\nclass = 0", fillcolor="#e58139fd"] ;
24 -> 25 ;
26 [label="gini = 0.34\nsamples = 121\nvalue = [151, 42]\nclass = 0", fillcolor="#e58139b8"] ;
24 -> 26 ;
27 [label="JobStatusPartTime <= 0.5\ngini = 0.04\nsamples = 12900\nvalue = [20024, 364]\nclass = 0", fillcolor="#e58139fa"] ;
19 -> 27 ;
28 [label="GraduateSchoolGPA <= 4.07\ngini = 0.04\nsamples = 4892\nvalue = [7632, 174]\nclass = 0", fillcolor="#e58139f9"] ;
27 -> 28 ;
29 [label="gini = 0.04\nsamples = 4889\nvalue = [7629, 172]\nclass = 0", fillcolor="#e58139f9"] ;
28 -> 29 ;
30 [label="gini = 0.48\nsamples = 3\nvalue = [3, 2]\nclass = 0", fillcolor="#e5813955"] ;
28 -> 30 ;
31 [label="GraduateSchoolGraduate <= 0.5\ngini = 0.03\nsamples = 8008\nvalue = [12392, 190]\nclass = 0", fillcolor="#e58139fb"] ;
27 -> 31 ;
32 [label="gini = 0.03\nsamples = 7288\nvalue = [11283, 151]\nclass = 0", fillcolor="#e58139fc"] ;
31 -> 32 ;
33 [label="gini = 0.07\nsamples = 720\nvalue = [1109, 39]\nclass = 0", fillcolor="#e58139f6"] ;
31 -> 33 ;
34 [label="JobShiftDay <= 0.5\ngini = 0.1\nsamples = 630\nvalue = [960, 55]\nclass = 0", fillcolor="#e58139f0"] ;
18 -> 34 ;
35 [label="RecentTrainingExperience2PayRateEndValue <= 1336.0\ngini = 0.21\nsamples = 80\nvalue = [124, 17]\nclass = 0", fillcolor="#e58139dc"] ;
34 -> 35 ;
36 [label="GymBadgePerm4 <= 0.5\ngini = 0.11\nsamples = 71\nvalue = [114, 7]\nclass = 0", fillcolor="#e58139ef"] ;
35 -> 36 ;
37 [label="gini = 0.09\nsamples = 70\nvalue = [114, 6]\nclass = 0", fillcolor="#e58139f2"] ;
36 -> 37 ;
38 [label="gini = 0.0\nsamples = 1\nvalue = [0, 1]\nclass = 1", fillcolor="#399de5ff"] ;
36 -> 38 ;
39 [label="gini = 0.5\nsamples = 9\nvalue = [10, 10]\nclass = 0", fillcolor="#e5813900"] ;
35 -> 39 ;
40 [label="ReferenceRelationship3 <= 1.5\ngini = 0.08\nsamples = 550\nvalue = [836, 38]\nclass = 0", fillcolor="#e58139f3"] ;
34 -> 40 ;
41 [label="RecentTrainingExperience4EmploymentStatus <= 1.5\ngini = 0.12\nsamples = 343\nvalue = [518, 34]\nclass = 0", fillcolor="#e58139ee"] ;
40 -> 41 ;
42 [label="gini = 0.14\nsamples = 281\nvalue = [424, 34]\nclass = 0", fillcolor="#e58139eb"] ;
41 -> 42 ;
43 [label="gini = 0.0\nsamples = 62\nvalue = [94, 0]\nclass = 0", fillcolor="#e58139ff"] ;
41 -> 43 ;
44 [label="GymBadgePerm4 <= 0.5\ngini = 0.02\nsamples = 207\nvalue = [318, 4]\nclass = 0", fillcolor="#e58139fc"] ;
40 -> 44 ;
45 [label="gini = 0.02\nsamples = 200\nvalue = [312, 3]\nclass = 0", fillcolor="#e58139fd"] ;
44 -> 45 ;
46 [label="gini = 0.24\nsamples = 7\nvalue = [6, 1]\nclass = 0", fillcolor="#e58139d4"] ;
44 -> 46 ;
}