digraph Tree {
node [shape=box, style="filled, rounded", color="black", fontname=helvetica] ;
edge [fontname=helvetica] ;
0 [label="JobStatusPerDiem <= -0.5\ngini = 0.04\nsamples = 42697\nvalue = [66209, 1215]\nclass = 0", fillcolor="#e58139fa"] ;
1 [label="HighEduLevelCompleted <= -0.5\ngini = 0.39\nsamples = 176\nvalue = [206, 73]\nclass = 0", fillcolor="#e58139a5"] ;
0 -> 1 [labeldistance=2.5, labelangle=45, headlabel="True"] ;
2 [label="ApplicationType <= 1.5\ngini = 0.45\nsamples = 136\nvalue = [142, 73]\nclass = 0", fillcolor="#e581397c"] ;
1 -> 2 ;
3 [label="JobPostingDate <= 22.5\ngini = 0.47\nsamples = 118\nvalue = [114, 72]\nclass = 0", fillcolor="#e581395e"] ;
2 -> 3 ;
4 [label="gini = 0.0\nsamples = 46\nvalue = [72, 0]\nclass = 0", fillcolor="#e58139ff"] ;
3 -> 4 ;
5 [label="InternalEmployee <= 0.5\ngini = 0.47\nsamples = 72\nvalue = [42, 72]\nclass = 1", fillcolor="#399de56a"] ;
3 -> 5 ;
6 [label="gini = 0.49\nsamples = 61\nvalue = [40, 55]\nclass = 1", fillcolor="#399de546"] ;
5 -> 6 ;
7 [label="gini = 0.19\nsamples = 11\nvalue = [2, 17]\nclass = 1", fillcolor="#399de5e1"] ;
5 -> 7 ;
8 [label="gini = 0.07\nsamples = 18\nvalue = [28, 1]\nclass = 0", fillcolor="#e58139f6"] ;
2 -> 8 ;
9 [label="gini = 0.0\nsamples = 40\nvalue = [64, 0]\nclass = 0", fillcolor="#e58139ff"] ;
1 -> 9 ;
10 [label="GymBadgeTemp4 <= -0.5\ngini = 0.03\nsamples = 42521\nvalue = [66003, 1142]\nclass = 0", fillcolor="#e58139fb"] ;
0 -> 10 [labeldistance=2.5, labelangle=-45, headlabel="False"] ;
11 [label="HighEduLevelCompleted <= -0.5\ngini = 0.15\nsamples = 2620\nvalue = [3690, 339]\nclass = 0", fillcolor="#e58139e8"] ;
10 -> 11 ;
12 [label="PositionForTrainingPokemon <= 7.5\ngini = 0.43\nsamples = 154\nvalue = [171, 76]\nclass = 0", fillcolor="#e581398e"] ;
11 -> 12 ;
13 [label="RecentTrainingExperience2From <= 534.0\ngini = 0.26\nsamples = 86\nvalue = [118, 22]\nclass = 0", fillcolor="#e58139cf"] ;
12 -> 13 ;
14 [label="gini = 0.26\nsamples = 85\nvalue = [118, 21]\nclass = 0", fillcolor="#e58139d2"] ;
13 -> 14 ;
15 [label="gini = 0.0\nsamples = 1\nvalue = [0, 1]\nclass = 1", fillcolor="#399de5ff"] ;
13 -> 15 ;
16 [label="GymBadge1Pokemon <= -0.5\ngini = 0.5\nsamples = 68\nvalue = [53, 54]\nclass = 1", fillcolor="#399de505"] ;
12 -> 16 ;
17 [label="gini = 0.42\nsamples = 35\nvalue = [39, 17]\nclass = 0", fillcolor="#e5813990"] ;
16 -> 17 ;
18 [label="gini = 0.4\nsamples = 33\nvalue = [14, 37]\nclass = 1", fillcolor="#399de59f"] ;
16 -> 18 ;
19 [label="JobShiftRotating <= 0.5\ngini = 0.13\nsamples = 2466\nvalue = [3519, 263]\nclass = 0", fillcolor="#e58139ec"] ;
11 -> 19 ;
20 [label="RecentTrainingExperience3To <= 360.5\ngini = 0.14\nsamples = 1929\nvalue = [2728, 222]\nclass = 0", fillcolor="#e58139ea"] ;
19 -> 20 ;
21 [label="gini = 0.15\nsamples = 1580\nvalue = [2220, 195]\nclass = 0", fillcolor="#e58139e9"] ;
20 -> 21 ;
22 [label="gini = 0.1\nsamples = 349\nvalue = [508, 27]\nclass = 0", fillcolor="#e58139f1"] ;
20 -> 22 ;
23 [label="HighEduLevelCompleted <= 7.0\ngini = 0.09\nsamples = 537\nvalue = [791, 41]\nclass = 0", fillcolor="#e58139f2"] ;
19 -> 23 ;
24 [label="gini = 0.08\nsamples = 525\nvalue = [777, 35]\nclass = 0", fillcolor="#e58139f4"] ;
23 -> 24 ;
25 [label="gini = 0.42\nsamples = 12\nvalue = [14, 6]\nclass = 0", fillcolor="#e5813992"] ;
23 -> 25 ;
26 [label="JobShiftEvening <= 0.5\ngini = 0.03\nsamples = 39901\nvalue = [62313, 803]\nclass = 0", fillcolor="#e58139fc"] ;
10 -> 26 ;
27 [label="RecentTrainingExperience3PayRateEndValue <= 0.5\ngini = 0.04\nsamples = 11269\nvalue = [17514, 322]\nclass = 0", fillcolor="#e58139fa"] ;
26 -> 27 ;
28 [label="RecentTrainingExperience1To <= 269.5\ngini = 0.04\nsamples = 6096\nvalue = [9461, 219]\nclass = 0", fillcolor="#e58139f9"] ;
27 -> 28 ;
29 [label="gini = 0.04\nsamples = 6092\nvalue = [9457, 213]\nclass = 0", fillcolor="#e58139f9"] ;
28 -> 29 ;
30 [label="gini = 0.48\nsamples = 4\nvalue = [4, 6]\nclass = 1", fillcolor="#399de555"] ;
28 -> 30 ;
31 [label="PokemonTrainerClass <= 6.5\ngini = 0.02\nsamples = 5173\nvalue = [8053, 103]\nclass = 0", fillcolor="#e58139fc"] ;
27 -> 31 ;
32 [label="gini = 0.03\nsamples = 3407\nvalue = [5307, 89]\nclass = 0", fillcolor="#e58139fb"] ;
31 -> 32 ;
33 [label="gini = 0.01\nsamples = 1766\nvalue = [2746, 14]\nclass = 0", fillcolor="#e58139fe"] ;
31 -> 33 ;
34 [label="RecentTrainingExperience4From <= 529.0\ngini = 0.02\nsamples = 28632\nvalue = [44799, 481]\nclass = 0", fillcolor="#e58139fc"] ;
26 -> 34 ;
35 [label="TotalYearsOfExp <= 0.0\ngini = 0.02\nsamples = 28630\nvalue = [44798, 480]\nclass = 0", fillcolor="#e58139fc"] ;
34 -> 35 ;
36 [label="gini = 0.28\nsamples = 797\nvalue = [1050, 216]\nclass = 0", fillcolor="#e58139cb"] ;
35 -> 36 ;
37 [label="gini = 0.01\nsamples = 27833\nvalue = [43748, 264]\nclass = 0", fillcolor="#e58139fd"] ;
35 -> 37 ;
38 [label="gini = 0.5\nsamples = 2\nvalue = [1, 1]\nclass = 0", fillcolor="#e5813900"] ;
34 -> 38 ;
}