digraph Tree {
node [shape=box, style="filled, rounded", color="black", fontname=helvetica] ;
edge [fontname=helvetica] ;
0 [label="ApplicationType <= 0.5\ngini = 0.03\nsamples = 42615\nvalue = [66229, 1195]\nclass = 0", fillcolor="#e58139fa"] ;
1 [label="JobStatusFullTime <= -0.5\ngini = 0.02\nsamples = 41784\nvalue = [65241, 831]\nclass = 0", fillcolor="#e58139fc"] ;
0 -> 1 [labeldistance=2.5, labelangle=45, headlabel="True"] ;
2 [label="InternalEmployee <= 0.5\ngini = 0.43\nsamples = 147\nvalue = [160, 74]\nclass = 0", fillcolor="#e5813989"] ;
1 -> 2 ;
3 [label="PokemonTrainerClass <= 1.5\ngini = 0.39\nsamples = 131\nvalue = [155, 56]\nclass = 0", fillcolor="#e58139a3"] ;
2 -> 3 ;
4 [label="gini = 0.0\nsamples = 1\nvalue = [0, 4]\nclass = 1", fillcolor="#399de5ff"] ;
3 -> 4 ;
5 [label="PokemonTrainerClass <= 3.5\ngini = 0.38\nsamples = 130\nvalue = [155, 52]\nclass = 0", fillcolor="#e58139a9"] ;
3 -> 5 ;
6 [label="gini = 0.07\nsamples = 37\nvalue = [52, 2]\nclass = 0", fillcolor="#e58139f5"] ;
5 -> 6 ;
7 [label="gini = 0.44\nsamples = 93\nvalue = [103, 50]\nclass = 0", fillcolor="#e5813983"] ;
5 -> 7 ;
8 [label="gini = 0.34\nsamples = 16\nvalue = [5, 18]\nclass = 1", fillcolor="#399de5b8"] ;
2 -> 8 ;
9 [label="SpokenWithCurrentBoss <= -0.5\ngini = 0.02\nsamples = 41637\nvalue = [65081, 757]\nclass = 0", fillcolor="#e58139fc"] ;
1 -> 9 ;
10 [label="RecentTrainingExperience2PayRateEndValue <= 0.5\ngini = 0.02\nsamples = 39135\nvalue = [61366, 480]\nclass = 0", fillcolor="#e58139fd"] ;
9 -> 10 ;
11 [label="TotalYearsOfExp <= 0.0\ngini = 0.02\nsamples = 13592\nvalue = [21339, 228]\nclass = 0", fillcolor="#e58139fc"] ;
10 -> 11 ;
12 [label="gini = 0.1\nsamples = 183\nvalue = [295, 16]\nclass = 0", fillcolor="#e58139f1"] ;
11 -> 12 ;
13 [label="gini = 0.02\nsamples = 13409\nvalue = [21044, 212]\nclass = 0", fillcolor="#e58139fc"] ;
11 -> 13 ;
14 [label="JobShiftWeekend <= 0.5\ngini = 0.01\nsamples = 25543\nvalue = [40027, 252]\nclass = 0", fillcolor="#e58139fd"] ;
10 -> 14 ;
15 [label="gini = 0.02\nsamples = 8389\nvalue = [13160, 136]\nclass = 0", fillcolor="#e58139fc"] ;
14 -> 15 ;
16 [label="gini = 0.01\nsamples = 17154\nvalue = [26867, 116]\nclass = 0", fillcolor="#e58139fe"] ;
14 -> 16 ;
17 [label="InternalEmployee <= 0.5\ngini = 0.13\nsamples = 2502\nvalue = [3715, 277]\nclass = 0", fillcolor="#e58139ec"] ;
9 -> 17 ;
18 [label="gini = 0.0\nsamples = 2\nvalue = [0, 3]\nclass = 1", fillcolor="#399de5ff"] ;
17 -> 18 ;
19 [label="JobStatusPartTime <= 0.5\ngini = 0.13\nsamples = 2500\nvalue = [3715, 274]\nclass = 0", fillcolor="#e58139ec"] ;
17 -> 19 ;
20 [label="gini = 0.15\nsamples = 1613\nvalue = [2374, 215]\nclass = 0", fillcolor="#e58139e8"] ;
19 -> 20 ;
21 [label="gini = 0.08\nsamples = 887\nvalue = [1341, 59]\nclass = 0", fillcolor="#e58139f4"] ;
19 -> 21 ;
22 [label="RecentTrainingExperienceContactForRefNo <= -0.5\ngini = 0.39\nsamples = 831\nvalue = [988, 364]\nclass = 0", fillcolor="#e58139a1"] ;
0 -> 22 [labeldistance=2.5, labelangle=-45, headlabel="False"] ;
23 [label="PokemonWorldRegion <= 4.5\ngini = 0.48\nsamples = 357\nvalue = [353, 225]\nclass = 0", fillcolor="#e581395c"] ;
22 -> 23 ;
24 [label="PositionForTrainingPokemon <= 7.5\ngini = 0.47\nsamples = 346\nvalue = [348, 211]\nclass = 0", fillcolor="#e5813964"] ;
23 -> 24 ;
25 [label="GymBadge1Pokemon <= 27.0\ngini = 0.33\nsamples = 137\nvalue = [178, 48]\nclass = 0", fillcolor="#e58139ba"] ;
24 -> 25 ;
26 [label="gini = 0.32\nsamples = 134\nvalue = [177, 44]\nclass = 0", fillcolor="#e58139c0"] ;
25 -> 26 ;
27 [label="gini = 0.32\nsamples = 3\nvalue = [1, 4]\nclass = 1", fillcolor="#399de5bf"] ;
25 -> 27 ;
28 [label="JobStatusPerDiem <= -0.5\ngini = 0.5\nsamples = 209\nvalue = [170, 163]\nclass = 0", fillcolor="#e581390b"] ;
24 -> 28 ;
29 [label="gini = 0.09\nsamples = 12\nvalue = [21, 1]\nclass = 0", fillcolor="#e58139f3"] ;
28 -> 29 ;
30 [label="gini = 0.5\nsamples = 197\nvalue = [149, 162]\nclass = 1", fillcolor="#399de514"] ;
28 -> 30 ;
31 [label="gini = 0.39\nsamples = 11\nvalue = [5, 14]\nclass = 1", fillcolor="#399de5a4"] ;
23 -> 31 ;
32 [label="GymBadgePerm1 <= 0.5\ngini = 0.29\nsamples = 474\nvalue = [635, 139]\nclass = 0", fillcolor="#e58139c7"] ;
22 -> 32 ;
33 [label="ApplyDate <= 1188.0\ngini = 0.21\nsamples = 338\nvalue = [483, 67]\nclass = 0", fillcolor="#e58139dc"] ;
32 -> 33 ;
34 [label="ApplyDate <= 788.0\ngini = 0.15\nsamples = 294\nvalue = [443, 40]\nclass = 0", fillcolor="#e58139e8"] ;
33 -> 34 ;
35 [label="gini = 0.48\nsamples = 9\nvalue = [6, 9]\nclass = 1", fillcolor="#399de555"] ;
34 -> 35 ;
36 [label="gini = 0.12\nsamples = 285\nvalue = [437, 31]\nclass = 0", fillcolor="#e58139ed"] ;
34 -> 36 ;
37 [label="gini = 0.48\nsamples = 44\nvalue = [40, 27]\nclass = 0", fillcolor="#e5813953"] ;
33 -> 37 ;
38 [label="JobShiftEvening <= 0.5\ngini = 0.44\nsamples = 136\nvalue = [152, 72]\nclass = 0", fillcolor="#e5813986"] ;
32 -> 38 ;
39 [label="PokemonTrainerClass <= 5.5\ngini = 0.5\nsamples = 52\nvalue = [44, 39]\nclass = 0", fillcolor="#e581391d"] ;
38 -> 39 ;
40 [label="gini = 0.5\nsamples = 46\nvalue = [34, 39]\nclass = 1", fillcolor="#399de521"] ;
39 -> 40 ;
41 [label="gini = 0.0\nsamples = 6\nvalue = [10, 0]\nclass = 0", fillcolor="#e58139ff"] ;
39 -> 41 ;
42 [label="PositionForTrainingPokemon <= 25.0\ngini = 0.36\nsamples = 84\nvalue = [108, 33]\nclass = 0", fillcolor="#e58139b1"] ;
38 -> 42 ;
43 [label="gini = 0.31\nsamples = 79\nvalue = [107, 25]\nclass = 0", fillcolor="#e58139c3"] ;
42 -> 43 ;
44 [label="gini = 0.2\nsamples = 5\nvalue = [1, 8]\nclass = 1", fillcolor="#399de5df"] ;
42 -> 44 ;
}