digraph Tree {
node [shape=box, style="filled, rounded", color="black", fontname=helvetica] ;
edge [fontname=helvetica] ;
0 [label="ApplicationType <= 1.0\ngini = 0.04\nsamples = 42500\nvalue = [66207, 1217]\nclass = 0", fillcolor="#e58139fa"] ;
1 [label="GymBadgePerm3 <= -0.5\ngini = 0.03\nsamples = 41649\nvalue = [65196, 863]\nclass = 0", fillcolor="#e58139fc"] ;
0 -> 1 [labeldistance=2.5, labelangle=45, headlabel="True"] ;
2 [label="SpokenWithCurrentBoss <= -0.5\ngini = 0.14\nsamples = 2665\nvalue = [3923, 333]\nclass = 0", fillcolor="#e58139e9"] ;
1 -> 2 ;
3 [label="PokemonWorldRegion <= 1.5\ngini = 0.45\nsamples = 149\nvalue = [153, 77]\nclass = 0", fillcolor="#e581397f"] ;
2 -> 3 ;
4 [label="gini = 0.4\nsamples = 23\nvalue = [9, 23]\nclass = 1", fillcolor="#399de59b"] ;
3 -> 4 ;
5 [label="PokemonTrainerClass <= 3.5\ngini = 0.4\nsamples = 126\nvalue = [144, 54]\nclass = 0", fillcolor="#e581399f"] ;
3 -> 5 ;
6 [label="gini = 0.18\nsamples = 44\nvalue = [63, 7]\nclass = 0", fillcolor="#e58139e3"] ;
5 -> 6 ;
7 [label="gini = 0.46\nsamples = 82\nvalue = [81, 47]\nclass = 0", fillcolor="#e581396b"] ;
5 -> 7 ;
8 [label="HighEduLevelCompleted <= 7.0\ngini = 0.12\nsamples = 2516\nvalue = [3770, 256]\nclass = 0", fillcolor="#e58139ee"] ;
2 -> 8 ;
9 [label="RecentTrainingExperience2From <= 209.0\ngini = 0.11\nsamples = 2408\nvalue = [3634, 215]\nclass = 0", fillcolor="#e58139f0"] ;
8 -> 9 ;
10 [label="gini = 0.15\nsamples = 616\nvalue = [926, 80]\nclass = 0", fillcolor="#e58139e9"] ;
9 -> 10 ;
11 [label="gini = 0.09\nsamples = 1792\nvalue = [2708, 135]\nclass = 0", fillcolor="#e58139f2"] ;
9 -> 11 ;
12 [label="RecentTrainingExperience1From <= 439.5\ngini = 0.36\nsamples = 108\nvalue = [136, 41]\nclass = 0", fillcolor="#e58139b2"] ;
8 -> 12 ;
13 [label="gini = 0.28\nsamples = 70\nvalue = [96, 19]\nclass = 0", fillcolor="#e58139cd"] ;
12 -> 13 ;
14 [label="gini = 0.46\nsamples = 38\nvalue = [40, 22]\nclass = 0", fillcolor="#e5813973"] ;
12 -> 14 ;
15 [label="JobStatusPartTime <= 0.5\ngini = 0.02\nsamples = 38984\nvalue = [61273, 530]\nclass = 0", fillcolor="#e58139fd"] ;
1 -> 15 ;
16 [label="RecentTrainingExperience1ContactForRef <= 0.5\ngini = 0.02\nsamples = 15305\nvalue = [24195, 291]\nclass = 0", fillcolor="#e58139fc"] ;
15 -> 16 ;
17 [label="RecentTrainingExperience4PayRateEndValue <= 1360.5\ngini = 0.05\nsamples = 1390\nvalue = [2213, 61]\nclass = 0", fillcolor="#e58139f8"] ;
16 -> 17 ;
18 [label="gini = 0.05\nsamples = 1389\nvalue = [2213, 59]\nclass = 0", fillcolor="#e58139f8"] ;
17 -> 18 ;
19 [label="gini = 0.0\nsamples = 1\nvalue = [0, 2]\nclass = 1", fillcolor="#399de5ff"] ;
17 -> 19 ;
20 [label="PokemonTrainerClass <= 6.5\ngini = 0.02\nsamples = 13915\nvalue = [21982, 230]\nclass = 0", fillcolor="#e58139fc"] ;
16 -> 20 ;
21 [label="gini = 0.02\nsamples = 10136\nvalue = [16015, 205]\nclass = 0", fillcolor="#e58139fc"] ;
20 -> 21 ;
22 [label="gini = 0.01\nsamples = 3779\nvalue = [5967, 25]\nclass = 0", fillcolor="#e58139fe"] ;
20 -> 22 ;
23 [label="PokemonWorldRegion <= 2.5\ngini = 0.01\nsamples = 23679\nvalue = [37078, 239]\nclass = 0", fillcolor="#e58139fd"] ;
15 -> 23 ;
24 [label="ApplyDate <= 2.5\ngini = 0.01\nsamples = 11159\nvalue = [17444, 74]\nclass = 0", fillcolor="#e58139fe"] ;
23 -> 24 ;
25 [label="gini = 0.17\nsamples = 8\nvalue = [10, 1]\nclass = 0", fillcolor="#e58139e6"] ;
24 -> 25 ;
26 [label="gini = 0.01\nsamples = 11151\nvalue = [17434, 73]\nclass = 0", fillcolor="#e58139fe"] ;
24 -> 26 ;
27 [label="CurrentlyWorkInThisRegion <= 0.5\ngini = 0.02\nsamples = 12520\nvalue = [19634, 165]\nclass = 0", fillcolor="#e58139fd"] ;
23 -> 27 ;
28 [label="gini = 0.02\nsamples = 12364\nvalue = [19388, 157]\nclass = 0", fillcolor="#e58139fd"] ;
27 -> 28 ;
29 [label="gini = 0.06\nsamples = 156\nvalue = [246, 8]\nclass = 0", fillcolor="#e58139f7"] ;
27 -> 29 ;
30 [label="RecentTrainingExperience2Pokemon <= 10.5\ngini = 0.38\nsamples = 851\nvalue = [1011, 354]\nclass = 0", fillcolor="#e58139a6"] ;
0 -> 30 [labeldistance=2.5, labelangle=-45, headlabel="False"] ;
31 [label="RecentTrainingExperienceContactForRefPostHire <= -0.5\ngini = 0.35\nsamples = 620\nvalue = [774, 223]\nclass = 0", fillcolor="#e58139b6"] ;
30 -> 31 ;
32 [label="JobStatusFullTime <= -0.5\ngini = 0.43\nsamples = 271\nvalue = [307, 138]\nclass = 0", fillcolor="#e581398c"] ;
31 -> 32 ;
33 [label="gini = 0.08\nsamples = 14\nvalue = [23, 1]\nclass = 0", fillcolor="#e58139f4"] ;
32 -> 33 ;
34 [label="PokemonTrainerClass <= 5.5\ngini = 0.44\nsamples = 257\nvalue = [284, 137]\nclass = 0", fillcolor="#e5813984"] ;
32 -> 34 ;
35 [label="gini = 0.47\nsamples = 203\nvalue = [201, 125]\nclass = 0", fillcolor="#e5813960"] ;
34 -> 35 ;
36 [label="gini = 0.22\nsamples = 54\nvalue = [83, 12]\nclass = 0", fillcolor="#e58139da"] ;
34 -> 36 ;
37 [label="RecentTrainingExperience1PayRateEndValue <= 3315.5\ngini = 0.26\nsamples = 349\nvalue = [467, 85]\nclass = 0", fillcolor="#e58139d1"] ;
31 -> 37 ;
38 [label="RecentTrainingExperience1EmploymentStatus <= 0.5\ngini = 0.26\nsamples = 348\nvalue = [467, 83]\nclass = 0", fillcolor="#e58139d2"] ;
37 -> 38 ;
39 [label="gini = 0.45\nsamples = 35\nvalue = [38, 20]\nclass = 0", fillcolor="#e5813979"] ;
38 -> 39 ;
40 [label="gini = 0.22\nsamples = 313\nvalue = [429, 63]\nclass = 0", fillcolor="#e58139da"] ;
38 -> 40 ;
41 [label="gini = 0.0\nsamples = 1\nvalue = [0, 2]\nclass = 1", fillcolor="#399de5ff"] ;
37 -> 41 ;
42 [label="RecentTrainingExperience3PayRateEndValue <= 1359.5\ngini = 0.46\nsamples = 231\nvalue = [237, 131]\nclass = 0", fillcolor="#e5813972"] ;
30 -> 42 ;
43 [label="UndergradSchoolGraduate <= 0.5\ngini = 0.48\nsamples = 191\nvalue = [178, 121]\nclass = 0", fillcolor="#e5813952"] ;
42 -> 43 ;
44 [label="ApplyDate <= 1083.0\ngini = 0.45\nsamples = 121\nvalue = [128, 67]\nclass = 0", fillcolor="#e581397a"] ;
43 -> 44 ;
45 [label="gini = 0.38\nsamples = 85\nvalue = [103, 35]\nclass = 0", fillcolor="#e58139a8"] ;
44 -> 45 ;
46 [label="gini = 0.49\nsamples = 36\nvalue = [25, 32]\nclass = 1", fillcolor="#399de538"] ;
44 -> 46 ;
47 [label="RecentTrainingExperience4PayRateEndValue <= 753.5\ngini = 0.5\nsamples = 70\nvalue = [50, 54]\nclass = 1", fillcolor="#399de513"] ;
43 -> 47 ;
48 [label="gini = 0.49\nsamples = 63\nvalue = [41, 53]\nclass = 1", fillcolor="#399de53a"] ;
47 -> 48 ;
49 [label="gini = 0.18\nsamples = 7\nvalue = [9, 1]\nclass = 0", fillcolor="#e58139e3"] ;
47 -> 49 ;
50 [label="gini = 0.25\nsamples = 40\nvalue = [59, 10]\nclass = 0", fillcolor="#e58139d4"] ;
42 -> 50 ;
}