digraph Tree {
node [shape=box, style="filled, rounded", color="black", fontname=helvetica] ;
edge [fontname=helvetica] ;
0 [label="JobStatusFullTime <= -0.5\ngini = 0.03\nsamples = 42557\nvalue = [66231, 1193]\nclass = 0", fillcolor="#e58139fa"] ;
1 [label="PokemonWorldRegion <= 1.5\ngini = 0.37\nsamples = 172\nvalue = [198, 63]\nclass = 0", fillcolor="#e58139ae"] ;
0 -> 1 [labeldistance=2.5, labelangle=45, headlabel="True"] ;
2 [label="gini = 0.5\nsamples = 31\nvalue = [21, 24]\nclass = 1", fillcolor="#399de520"] ;
1 -> 2 ;
3 [label="ApplicationType <= 1.0\ngini = 0.3\nsamples = 141\nvalue = [177, 39]\nclass = 0", fillcolor="#e58139c7"] ;
1 -> 3 ;
4 [label="JobPostingDate <= 22.5\ngini = 0.32\nsamples = 130\nvalue = [155, 39]\nclass = 0", fillcolor="#e58139bf"] ;
3 -> 4 ;
5 [label="ApplyDate <= 1241.5\ngini = 0.03\nsamples = 73\nvalue = [119, 2]\nclass = 0", fillcolor="#e58139fb"] ;
4 -> 5 ;
6 [label="gini = 0.0\nsamples = 57\nvalue = [90, 0]\nclass = 0", fillcolor="#e58139ff"] ;
5 -> 6 ;
7 [label="gini = 0.12\nsamples = 16\nvalue = [29, 2]\nclass = 0", fillcolor="#e58139ed"] ;
5 -> 7 ;
8 [label="PokemonTrainerClass <= 3.5\ngini = 0.5\nsamples = 57\nvalue = [36, 37]\nclass = 1", fillcolor="#399de507"] ;
4 -> 8 ;
9 [label="gini = 0.43\nsamples = 12\nvalue = [11, 5]\nclass = 0", fillcolor="#e581398b"] ;
8 -> 9 ;
10 [label="gini = 0.49\nsamples = 45\nvalue = [25, 32]\nclass = 1", fillcolor="#399de538"] ;
8 -> 10 ;
11 [label="gini = 0.0\nsamples = 11\nvalue = [22, 0]\nclass = 0", fillcolor="#e58139ff"] ;
3 -> 11 ;
12 [label="GymBadgeTemp1 <= -0.5\ngini = 0.03\nsamples = 42385\nvalue = [66033, 1130]\nclass = 0", fillcolor="#e58139fb"] ;
0 -> 12 [labeldistance=2.5, labelangle=-45, headlabel="False"] ;
13 [label="JobShiftWeekend <= 0.5\ngini = 0.13\nsamples = 2576\nvalue = [3802, 292]\nclass = 0", fillcolor="#e58139eb"] ;
12 -> 13 ;
14 [label="TotalYearsOfExp <= 0.0\ngini = 0.18\nsamples = 1424\nvalue = [2032, 231]\nclass = 0", fillcolor="#e58139e2"] ;
13 -> 14 ;
15 [label="PositionForTrainingPokemon <= 7.5\ngini = 0.5\nsamples = 57\nvalue = [46, 55]\nclass = 1", fillcolor="#399de52a"] ;
14 -> 15 ;
16 [label="gini = 0.45\nsamples = 31\nvalue = [33, 17]\nclass = 0", fillcolor="#e581397c"] ;
15 -> 16 ;
17 [label="gini = 0.38\nsamples = 26\nvalue = [13, 38]\nclass = 1", fillcolor="#399de5a8"] ;
15 -> 17 ;
18 [label="PokemonTrainerClass <= 6.5\ngini = 0.15\nsamples = 1367\nvalue = [1986, 176]\nclass = 0", fillcolor="#e58139e8"] ;
14 -> 18 ;
19 [label="gini = 0.19\nsamples = 839\nvalue = [1202, 140]\nclass = 0", fillcolor="#e58139e1"] ;
18 -> 19 ;
20 [label="gini = 0.08\nsamples = 528\nvalue = [784, 36]\nclass = 0", fillcolor="#e58139f3"] ;
18 -> 20 ;
21 [label="GraduateSchoolGraduate <= 0.5\ngini = 0.06\nsamples = 1152\nvalue = [1770, 61]\nclass = 0", fillcolor="#e58139f6"] ;
13 -> 21 ;
22 [label="TotalYearsOfExp <= 0.0\ngini = 0.06\nsamples = 1121\nvalue = [1733, 53]\nclass = 0", fillcolor="#e58139f7"] ;
21 -> 22 ;
23 [label="gini = 0.29\nsamples = 43\nvalue = [52, 11]\nclass = 0", fillcolor="#e58139c9"] ;
22 -> 23 ;
24 [label="gini = 0.05\nsamples = 1078\nvalue = [1681, 42]\nclass = 0", fillcolor="#e58139f9"] ;
22 -> 24 ;
25 [label="gini = 0.29\nsamples = 31\nvalue = [37, 8]\nclass = 0", fillcolor="#e58139c8"] ;
21 -> 25 ;
26 [label="RecentTrainingExperience4From <= 531.0\ngini = 0.03\nsamples = 39809\nvalue = [62231, 838]\nclass = 0", fillcolor="#e58139fc"] ;
12 -> 26 ;
27 [label="JobStatusFullTime <= 0.5\ngini = 0.03\nsamples = 39808\nvalue = [62231, 834]\nclass = 0", fillcolor="#e58139fc"] ;
26 -> 27 ;
28 [label="RecentTrainingExperience3PayRateEndFreq <= 0.5\ngini = 0.05\nsamples = 3106\nvalue = [4841, 129]\nclass = 0", fillcolor="#e58139f8"] ;
27 -> 28 ;
29 [label="gini = 0.06\nsamples = 1895\nvalue = [2931, 93]\nclass = 0", fillcolor="#e58139f7"] ;
28 -> 29 ;
30 [label="gini = 0.04\nsamples = 1211\nvalue = [1910, 36]\nclass = 0", fillcolor="#e58139fa"] ;
28 -> 30 ;
31 [label="HighEduLevelCompleted <= -0.5\ngini = 0.02\nsamples = 36702\nvalue = [57390, 705]\nclass = 0", fillcolor="#e58139fc"] ;
27 -> 31 ;
32 [label="gini = 0.13\nsamples = 208\nvalue = [303, 23]\nclass = 0", fillcolor="#e58139ec"] ;
31 -> 32 ;
33 [label="gini = 0.02\nsamples = 36494\nvalue = [57087, 682]\nclass = 0", fillcolor="#e58139fc"] ;
31 -> 33 ;
34 [label="gini = 0.0\nsamples = 1\nvalue = [0, 4]\nclass = 1", fillcolor="#399de5ff"] ;
26 -> 34 ;
}