digraph Tree {
node [shape=box, style="filled, rounded", color="black", fontname=helvetica] ;
edge [fontname=helvetica] ;
0 [label="JobShiftRotating <= -0.5\ngini = 0.03\nsamples = 42566\nvalue = [66302, 1122]\nclass = 0", fillcolor="#e58139fb"] ;
1 [label="PokemonWorldRegion <= 1.5\ngini = 0.41\nsamples = 175\nvalue = [201, 83]\nclass = 0", fillcolor="#e5813996"] ;
0 -> 1 [labeldistance=2.5, labelangle=45, headlabel="True"] ;
2 [label="gini = 0.5\nsamples = 30\nvalue = [24, 23]\nclass = 0", fillcolor="#e581390b"] ;
1 -> 2 ;
3 [label="ApplicationType <= 1.5\ngini = 0.38\nsamples = 145\nvalue = [177, 60]\nclass = 0", fillcolor="#e58139a9"] ;
1 -> 3 ;
4 [label="ApplicationType <= 0.5\ngini = 0.39\nsamples = 133\nvalue = [158, 56]\nclass = 0", fillcolor="#e58139a5"] ;
3 -> 4 ;
5 [label="JobPostingDate <= 23.5\ngini = 0.37\nsamples = 131\nvalue = [158, 51]\nclass = 0", fillcolor="#e58139ad"] ;
4 -> 5 ;
6 [label="gini = 0.05\nsamples = 75\nvalue = [121, 3]\nclass = 0", fillcolor="#e58139f9"] ;
5 -> 6 ;
7 [label="gini = 0.49\nsamples = 56\nvalue = [37, 48]\nclass = 1", fillcolor="#399de53a"] ;
5 -> 7 ;
8 [label="gini = 0.0\nsamples = 2\nvalue = [0, 5]\nclass = 1", fillcolor="#399de5ff"] ;
4 -> 8 ;
9 [label="gini = 0.29\nsamples = 12\nvalue = [19, 4]\nclass = 0", fillcolor="#e58139c9"] ;
3 -> 9 ;
10 [label="ApplicationType <= 1.0\ngini = 0.03\nsamples = 42391\nvalue = [66101, 1039]\nclass = 0", fillcolor="#e58139fb"] ;
0 -> 10 [labeldistance=2.5, labelangle=-45, headlabel="False"] ;
11 [label="RecentTrainingExperience1ContactForRef <= -0.5\ngini = 0.02\nsamples = 41574\nvalue = [65151, 693]\nclass = 0", fillcolor="#e58139fc"] ;
10 -> 11 ;
12 [label="JobShiftEvening <= 0.5\ngini = 0.12\nsamples = 2537\nvalue = [3712, 244]\nclass = 0", fillcolor="#e58139ee"] ;
11 -> 12 ;
13 [label="HighEduLevelCompleted <= 9.5\ngini = 0.15\nsamples = 1314\nvalue = [1868, 171]\nclass = 0", fillcolor="#e58139e8"] ;
12 -> 13 ;
14 [label="gini = 0.15\nsamples = 1311\nvalue = [1868, 166]\nclass = 0", fillcolor="#e58139e8"] ;
13 -> 14 ;
15 [label="gini = 0.0\nsamples = 3\nvalue = [0, 5]\nclass = 1", fillcolor="#399de5ff"] ;
13 -> 15 ;
16 [label="HighSchoolGraduate <= -0.5\ngini = 0.07\nsamples = 1223\nvalue = [1844, 73]\nclass = 0", fillcolor="#e58139f5"] ;
12 -> 16 ;
17 [label="gini = 0.15\nsamples = 96\nvalue = [133, 12]\nclass = 0", fillcolor="#e58139e8"] ;
16 -> 17 ;
18 [label="gini = 0.07\nsamples = 1127\nvalue = [1711, 61]\nclass = 0", fillcolor="#e58139f6"] ;
16 -> 18 ;
19 [label="GymCertificationEverSuspended <= -0.5\ngini = 0.01\nsamples = 39037\nvalue = [61439, 449]\nclass = 0", fillcolor="#e58139fd"] ;
11 -> 19 ;
20 [label="RecentTrainingExperience2PayRateEndValue <= 2329.5\ngini = 0.01\nsamples = 16935\nvalue = [26875, 158]\nclass = 0", fillcolor="#e58139fe"] ;
19 -> 20 ;
21 [label="gini = 0.01\nsamples = 16911\nvalue = [26846, 153]\nclass = 0", fillcolor="#e58139fe"] ;
20 -> 21 ;
22 [label="gini = 0.25\nsamples = 24\nvalue = [29, 5]\nclass = 0", fillcolor="#e58139d3"] ;
20 -> 22 ;
23 [label="TotalYearsOfExp <= 0.0\ngini = 0.02\nsamples = 22102\nvalue = [34564, 291]\nclass = 0", fillcolor="#e58139fd"] ;
19 -> 23 ;
24 [label="gini = 0.12\nsamples = 180\nvalue = [265, 18]\nclass = 0", fillcolor="#e58139ee"] ;
23 -> 24 ;
25 [label="gini = 0.02\nsamples = 21922\nvalue = [34299, 273]\nclass = 0", fillcolor="#e58139fd"] ;
23 -> 25 ;
26 [label="ApplyDate <= 1234.5\ngini = 0.39\nsamples = 817\nvalue = [950, 346]\nclass = 0", fillcolor="#e58139a2"] ;
10 -> 26 ;
27 [label="PositionForTrainingPokemon <= 25.5\ngini = 0.33\nsamples = 653\nvalue = [815, 219]\nclass = 0", fillcolor="#e58139ba"] ;
26 -> 27 ;
28 [label="PositionForTrainingPokemon <= 14.5\ngini = 0.31\nsamples = 614\nvalue = [790, 184]\nclass = 0", fillcolor="#e58139c4"] ;
27 -> 28 ;
29 [label="gini = 0.36\nsamples = 444\nvalue = [541, 166]\nclass = 0", fillcolor="#e58139b1"] ;
28 -> 29 ;
30 [label="gini = 0.13\nsamples = 170\nvalue = [249, 18]\nclass = 0", fillcolor="#e58139ed"] ;
28 -> 30 ;
31 [label="gini = 0.49\nsamples = 39\nvalue = [25, 35]\nclass = 1", fillcolor="#399de549"] ;
27 -> 31 ;
32 [label="JobSchedule <= 5.5\ngini = 0.5\nsamples = 164\nvalue = [135, 127]\nclass = 0", fillcolor="#e581390f"] ;
26 -> 32 ;
33 [label="PositionForTrainingPokemon <= 7.5\ngini = 0.49\nsamples = 142\nvalue = [129, 95]\nclass = 0", fillcolor="#e5813943"] ;
32 -> 33 ;
34 [label="gini = 0.34\nsamples = 76\nvalue = [90, 25]\nclass = 0", fillcolor="#e58139b8"] ;
33 -> 34 ;
35 [label="gini = 0.46\nsamples = 66\nvalue = [39, 70]\nclass = 1", fillcolor="#399de571"] ;
33 -> 35 ;
36 [label="gini = 0.27\nsamples = 22\nvalue = [6, 32]\nclass = 1", fillcolor="#399de5cf"] ;
32 -> 36 ;
}