digraph Tree {
node [shape=box, style="filled, rounded", color="black", fontname=helvetica] ;
edge [fontname=helvetica] ;
0 [label="GymBadgePerm1 <= -0.5\ngini = 0.03\nsamples = 42599\nvalue = [66230, 1194]\nclass = 0", fillcolor="#e58139fa"] ;
1 [label="JobShiftEvening <= -0.5\ngini = 0.16\nsamples = 2876\nvalue = [4105, 400]\nclass = 0", fillcolor="#e58139e6"] ;
0 -> 1 [labeldistance=2.5, labelangle=45, headlabel="True"] ;
2 [label="JobPostingDate <= 22.5\ngini = 0.42\nsamples = 173\nvalue = [186, 81]\nclass = 0", fillcolor="#e5813990"] ;
1 -> 2 ;
3 [label="JobSchedule <= 2.5\ngini = 0.08\nsamples = 75\nvalue = [110, 5]\nclass = 0", fillcolor="#e58139f3"] ;
2 -> 3 ;
4 [label="gini = 0.12\nsamples = 39\nvalue = [60, 4]\nclass = 0", fillcolor="#e58139ee"] ;
3 -> 4 ;
5 [label="gini = 0.04\nsamples = 36\nvalue = [50, 1]\nclass = 0", fillcolor="#e58139fa"] ;
3 -> 5 ;
6 [label="PokemonTrainerClass <= 5.5\ngini = 0.5\nsamples = 98\nvalue = [76, 76]\nclass = 0", fillcolor="#e5813900"] ;
2 -> 6 ;
7 [label="ApplyDate <= 1603.0\ngini = 0.5\nsamples = 85\nvalue = [70, 60]\nclass = 0", fillcolor="#e5813924"] ;
6 -> 7 ;
8 [label="gini = 0.5\nsamples = 72\nvalue = [54, 60]\nclass = 1", fillcolor="#399de519"] ;
7 -> 8 ;
9 [label="gini = 0.0\nsamples = 13\nvalue = [16, 0]\nclass = 0", fillcolor="#e58139ff"] ;
7 -> 9 ;
10 [label="gini = 0.4\nsamples = 13\nvalue = [6, 16]\nclass = 1", fillcolor="#399de59f"] ;
6 -> 10 ;
11 [label="TotalYearsOfExp <= 0.0\ngini = 0.14\nsamples = 2703\nvalue = [3919, 319]\nclass = 0", fillcolor="#e58139ea"] ;
1 -> 11 ;
12 [label="PositionForTrainingPokemon <= 7.5\ngini = 0.42\nsamples = 95\nvalue = [107, 47]\nclass = 0", fillcolor="#e581398f"] ;
11 -> 12 ;
13 [label="JobPostingDate <= 820.5\ngini = 0.27\nsamples = 53\nvalue = [69, 13]\nclass = 0", fillcolor="#e58139cf"] ;
12 -> 13 ;
14 [label="gini = 0.07\nsamples = 37\nvalue = [54, 2]\nclass = 0", fillcolor="#e58139f6"] ;
13 -> 14 ;
15 [label="gini = 0.49\nsamples = 16\nvalue = [15, 11]\nclass = 0", fillcolor="#e5813944"] ;
13 -> 15 ;
16 [label="gini = 0.5\nsamples = 42\nvalue = [38, 34]\nclass = 0", fillcolor="#e581391b"] ;
12 -> 16 ;
17 [label="SpokenWithCurrentBoss <= 0.5\ngini = 0.12\nsamples = 2608\nvalue = [3812, 272]\nclass = 0", fillcolor="#e58139ed"] ;
11 -> 17 ;
18 [label="JobShiftDay <= 0.5\ngini = 0.06\nsamples = 839\nvalue = [1247, 39]\nclass = 0", fillcolor="#e58139f7"] ;
17 -> 18 ;
19 [label="gini = 0.19\nsamples = 76\nvalue = [99, 12]\nclass = 0", fillcolor="#e58139e0"] ;
18 -> 19 ;
20 [label="gini = 0.04\nsamples = 763\nvalue = [1148, 27]\nclass = 0", fillcolor="#e58139f9"] ;
18 -> 20 ;
21 [label="RecentTrainingExperience2To <= 283.5\ngini = 0.15\nsamples = 1769\nvalue = [2565, 233]\nclass = 0", fillcolor="#e58139e8"] ;
17 -> 21 ;
22 [label="gini = 0.22\nsamples = 625\nvalue = [874, 126]\nclass = 0", fillcolor="#e58139da"] ;
21 -> 22 ;
23 [label="gini = 0.11\nsamples = 1144\nvalue = [1691, 107]\nclass = 0", fillcolor="#e58139ef"] ;
21 -> 23 ;
24 [label="JobShiftDay <= 0.5\ngini = 0.02\nsamples = 39723\nvalue = [62125, 794]\nclass = 0", fillcolor="#e58139fc"] ;
0 -> 24 [labeldistance=2.5, labelangle=-45, headlabel="False"] ;
25 [label="JobSchedule <= -0.5\ngini = 0.04\nsamples = 4242\nvalue = [6545, 145]\nclass = 0", fillcolor="#e58139f9"] ;
24 -> 25 ;
26 [label="gini = 0.4\nsamples = 15\nvalue = [16, 6]\nclass = 0", fillcolor="#e581399f"] ;
25 -> 26 ;
27 [label="GymBadge1Pokemon <= 28.0\ngini = 0.04\nsamples = 4227\nvalue = [6529, 139]\nclass = 0", fillcolor="#e58139fa"] ;
25 -> 27 ;
28 [label="WorkedInThisRegion <= 0.5\ngini = 0.04\nsamples = 4172\nvalue = [6456, 130]\nclass = 0", fillcolor="#e58139fa"] ;
27 -> 28 ;
29 [label="gini = 0.03\nsamples = 3826\nvalue = [5955, 98]\nclass = 0", fillcolor="#e58139fb"] ;
28 -> 29 ;
30 [label="gini = 0.11\nsamples = 346\nvalue = [501, 32]\nclass = 0", fillcolor="#e58139ef"] ;
28 -> 30 ;
31 [label="GymBadge1Pokemon <= 29.5\ngini = 0.2\nsamples = 55\nvalue = [73, 9]\nclass = 0", fillcolor="#e58139e0"] ;
27 -> 31 ;
32 [label="gini = 0.5\nsamples = 6\nvalue = [5, 5]\nclass = 0", fillcolor="#e5813900"] ;
31 -> 32 ;
33 [label="gini = 0.1\nsamples = 49\nvalue = [68, 4]\nclass = 0", fillcolor="#e58139f0"] ;
31 -> 33 ;
34 [label="RecentTrainingExperience1To <= 316.5\ngini = 0.02\nsamples = 35481\nvalue = [55580, 649]\nclass = 0", fillcolor="#e58139fc"] ;
24 -> 34 ;
35 [label="JobShiftWeekend <= 0.5\ngini = 0.02\nsamples = 35475\nvalue = [55573, 647]\nclass = 0", fillcolor="#e58139fc"] ;
34 -> 35 ;
36 [label="HighEduLevelCompleted <= -0.5\ngini = 0.03\nsamples = 12322\nvalue = [19220, 295]\nclass = 0", fillcolor="#e58139fb"] ;
35 -> 36 ;
37 [label="gini = 0.13\nsamples = 87\nvalue = [130, 10]\nclass = 0", fillcolor="#e58139eb"] ;
36 -> 37 ;
38 [label="gini = 0.03\nsamples = 12235\nvalue = [19090, 285]\nclass = 0", fillcolor="#e58139fb"] ;
36 -> 38 ;
39 [label="JobStatusPerDiem <= 0.5\ngini = 0.02\nsamples = 23153\nvalue = [36353, 352]\nclass = 0", fillcolor="#e58139fd"] ;
35 -> 39 ;
40 [label="gini = 0.02\nsamples = 16757\nvalue = [26491, 217]\nclass = 0", fillcolor="#e58139fd"] ;
39 -> 40 ;
41 [label="gini = 0.03\nsamples = 6396\nvalue = [9862, 135]\nclass = 0", fillcolor="#e58139fc"] ;
39 -> 41 ;
42 [label="gini = 0.35\nsamples = 6\nvalue = [7, 2]\nclass = 0", fillcolor="#e58139b6"] ;
34 -> 42 ;
}