digraph Tree {
node [shape=box, style="filled, rounded", color="black", fontname=helvetica] ;
edge [fontname=helvetica] ;
0 [label="JobShiftDay <= -0.5\ngini = 0.03\nsamples = 42631\nvalue = [66236, 1188]\nclass = 0", fillcolor="#e58139fa"] ;
1 [label="ApplicationType <= 0.5\ngini = 0.46\nsamples = 155\nvalue = [147, 82]\nclass = 0", fillcolor="#e5813971"] ;
0 -> 1 [labeldistance=2.5, labelangle=45, headlabel="True"] ;
2 [label="PositionForTrainingPokemon <= 25.0\ngini = 0.45\nsamples = 148\nvalue = [142, 75]\nclass = 0", fillcolor="#e5813978"] ;
1 -> 2 ;
3 [label="ApplyDate <= 1603.0\ngini = 0.43\nsamples = 139\nvalue = [141, 65]\nclass = 0", fillcolor="#e5813989"] ;
2 -> 3 ;
4 [label="JobPostingDate <= 22.5\ngini = 0.45\nsamples = 119\nvalue = [118, 63]\nclass = 0", fillcolor="#e5813977"] ;
3 -> 4 ;
5 [label="gini = 0.02\nsamples = 63\nvalue = [96, 1]\nclass = 0", fillcolor="#e58139fc"] ;
4 -> 5 ;
6 [label="gini = 0.39\nsamples = 56\nvalue = [22, 62]\nclass = 1", fillcolor="#399de5a5"] ;
4 -> 6 ;
7 [label="gini = 0.15\nsamples = 20\nvalue = [23, 2]\nclass = 0", fillcolor="#e58139e9"] ;
3 -> 7 ;
8 [label="gini = 0.17\nsamples = 9\nvalue = [1, 10]\nclass = 1", fillcolor="#399de5e6"] ;
2 -> 8 ;
9 [label="gini = 0.49\nsamples = 7\nvalue = [5, 7]\nclass = 1", fillcolor="#399de549"] ;
1 -> 9 ;
10 [label="CurrentlyWorkInThisRegion <= -0.5\ngini = 0.03\nsamples = 42476\nvalue = [66089, 1106]\nclass = 0", fillcolor="#e58139fb"] ;
0 -> 10 [labeldistance=2.5, labelangle=-45, headlabel="False"] ;
11 [label="GraduateSchoolGraduate <= 0.5\ngini = 0.13\nsamples = 3042\nvalue = [4520, 331]\nclass = 0", fillcolor="#e58139ec"] ;
10 -> 11 ;
12 [label="RecentTrainingExperience1EmploymentStatus <= -0.5\ngini = 0.12\nsamples = 2894\nvalue = [4332, 286]\nclass = 0", fillcolor="#e58139ee"] ;
11 -> 12 ;
13 [label="SpokenWithCurrentBoss <= 0.5\ngini = 0.12\nsamples = 2669\nvalue = [3977, 284]\nclass = 0", fillcolor="#e58139ed"] ;
12 -> 13 ;
14 [label="gini = 0.07\nsamples = 933\nvalue = [1421, 53]\nclass = 0", fillcolor="#e58139f5"] ;
13 -> 14 ;
15 [label="gini = 0.15\nsamples = 1736\nvalue = [2556, 231]\nclass = 0", fillcolor="#e58139e8"] ;
13 -> 15 ;
16 [label="RecentTrainingExperienceContactForRefYes <= 0.5\ngini = 0.01\nsamples = 225\nvalue = [355, 2]\nclass = 0", fillcolor="#e58139fe"] ;
12 -> 16 ;
17 [label="gini = 0.0\nsamples = 180\nvalue = [286, 0]\nclass = 0", fillcolor="#e58139ff"] ;
16 -> 17 ;
18 [label="gini = 0.05\nsamples = 45\nvalue = [69, 2]\nclass = 0", fillcolor="#e58139f8"] ;
16 -> 18 ;
19 [label="PositionForTrainingPokemon <= 29.5\ngini = 0.31\nsamples = 148\nvalue = [188, 45]\nclass = 0", fillcolor="#e58139c2"] ;
11 -> 19 ;
20 [label="RecentTrainingExperience2To <= 378.5\ngini = 0.3\nsamples = 142\nvalue = [186, 41]\nclass = 0", fillcolor="#e58139c7"] ;
19 -> 20 ;
21 [label="gini = 0.33\nsamples = 106\nvalue = [135, 36]\nclass = 0", fillcolor="#e58139bb"] ;
20 -> 21 ;
22 [label="gini = 0.16\nsamples = 36\nvalue = [51, 5]\nclass = 0", fillcolor="#e58139e6"] ;
20 -> 22 ;
23 [label="gini = 0.44\nsamples = 6\nvalue = [2, 4]\nclass = 1", fillcolor="#399de57f"] ;
19 -> 23 ;
24 [label="JobShiftEvening <= 0.5\ngini = 0.02\nsamples = 39434\nvalue = [61569, 775]\nclass = 0", fillcolor="#e58139fc"] ;
10 -> 24 ;
25 [label="RecentTrainingExperience1To <= 196.5\ngini = 0.03\nsamples = 11203\nvalue = [17551, 305]\nclass = 0", fillcolor="#e58139fb"] ;
24 -> 25 ;
26 [label="RecentTrainingExperience1From <= 475.5\ngini = 0.03\nsamples = 7133\nvalue = [11211, 149]\nclass = 0", fillcolor="#e58139fc"] ;
25 -> 26 ;
27 [label="gini = 0.03\nsamples = 7111\nvalue = [11181, 145]\nclass = 0", fillcolor="#e58139fc"] ;
26 -> 27 ;
28 [label="gini = 0.21\nsamples = 22\nvalue = [30, 4]\nclass = 0", fillcolor="#e58139dd"] ;
26 -> 28 ;
29 [label="JobStatusPerDiem <= 0.5\ngini = 0.05\nsamples = 4070\nvalue = [6340, 156]\nclass = 0", fillcolor="#e58139f9"] ;
25 -> 29 ;
30 [label="gini = 0.04\nsamples = 3711\nvalue = [5787, 128]\nclass = 0", fillcolor="#e58139f9"] ;
29 -> 30 ;
31 [label="gini = 0.09\nsamples = 359\nvalue = [553, 28]\nclass = 0", fillcolor="#e58139f2"] ;
29 -> 31 ;
32 [label="RecentTrainingExperience3From <= 189.5\ngini = 0.02\nsamples = 28231\nvalue = [44018, 470]\nclass = 0", fillcolor="#e58139fc"] ;
24 -> 32 ;
33 [label="WorkedInThisRegion <= 0.5\ngini = 0.02\nsamples = 12599\nvalue = [19579, 163]\nclass = 0", fillcolor="#e58139fd"] ;
32 -> 33 ;
34 [label="gini = 0.01\nsamples = 11994\nvalue = [18648, 141]\nclass = 0", fillcolor="#e58139fd"] ;
33 -> 34 ;
35 [label="gini = 0.05\nsamples = 605\nvalue = [931, 22]\nclass = 0", fillcolor="#e58139f9"] ;
33 -> 35 ;
36 [label="GraduateSchoolGPA <= 3.7\ngini = 0.02\nsamples = 15632\nvalue = [24439, 307]\nclass = 0", fillcolor="#e58139fc"] ;
32 -> 36 ;
37 [label="gini = 0.02\nsamples = 15421\nvalue = [24125, 292]\nclass = 0", fillcolor="#e58139fc"] ;
36 -> 37 ;
38 [label="gini = 0.09\nsamples = 211\nvalue = [314, 15]\nclass = 0", fillcolor="#e58139f3"] ;
36 -> 38 ;
}