digraph Tree {
node [shape=box, style="filled, rounded", color="black", fontname=helvetica] ;
edge [fontname=helvetica] ;
0 [label="TotalYearsOfExp <= 0.0\ngini = 0.03\nsamples = 42631\nvalue = [66269, 1155]\nclass = 0", fillcolor="#e58139fb"] ;
1 [label="JobStatusPerDiem <= -0.5\ngini = 0.3\nsamples = 1306\nvalue = [1637, 373]\nclass = 0", fillcolor="#e58139c5"] ;
0 -> 1 [labeldistance=2.5, labelangle=45, headlabel="True"] ;
2 [label="PokemonTrainerClass <= 6.5\ngini = 0.44\nsamples = 133\nvalue = [130, 63]\nclass = 0", fillcolor="#e5813983"] ;
1 -> 2 ;
3 [label="JobSchedule <= 5.5\ngini = 0.45\nsamples = 113\nvalue = [109, 56]\nclass = 0", fillcolor="#e581397c"] ;
2 -> 3 ;
4 [label="ApplyDate <= 1603.0\ngini = 0.48\nsamples = 84\nvalue = [74, 48]\nclass = 0", fillcolor="#e581395a"] ;
3 -> 4 ;
5 [label="gini = 0.5\nsamples = 67\nvalue = [50, 48]\nclass = 0", fillcolor="#e581390a"] ;
4 -> 5 ;
6 [label="gini = 0.0\nsamples = 17\nvalue = [24, 0]\nclass = 0", fillcolor="#e58139ff"] ;
4 -> 6 ;
7 [label="gini = 0.3\nsamples = 29\nvalue = [35, 8]\nclass = 0", fillcolor="#e58139c5"] ;
3 -> 7 ;
8 [label="gini = 0.38\nsamples = 20\nvalue = [21, 7]\nclass = 0", fillcolor="#e58139aa"] ;
2 -> 8 ;
9 [label="PokemonTrainerClass <= 5.5\ngini = 0.28\nsamples = 1173\nvalue = [1507, 310]\nclass = 0", fillcolor="#e58139cb"] ;
1 -> 9 ;
10 [label="ApplicationType <= 1.0\ngini = 0.33\nsamples = 876\nvalue = [1052, 284]\nclass = 0", fillcolor="#e58139ba"] ;
9 -> 10 ;
11 [label="GymBadgeTemp3 <= -0.5\ngini = 0.09\nsamples = 286\nvalue = [428, 21]\nclass = 0", fillcolor="#e58139f2"] ;
10 -> 11 ;
12 [label="gini = 0.35\nsamples = 19\nvalue = [24, 7]\nclass = 0", fillcolor="#e58139b5"] ;
11 -> 12 ;
13 [label="gini = 0.06\nsamples = 267\nvalue = [404, 14]\nclass = 0", fillcolor="#e58139f6"] ;
11 -> 13 ;
14 [label="PokemonTrainerClass <= 3.5\ngini = 0.42\nsamples = 590\nvalue = [624, 263]\nclass = 0", fillcolor="#e5813994"] ;
10 -> 14 ;
15 [label="gini = 0.32\nsamples = 252\nvalue = [298, 74]\nclass = 0", fillcolor="#e58139c0"] ;
14 -> 15 ;
16 [label="gini = 0.46\nsamples = 338\nvalue = [326, 189]\nclass = 0", fillcolor="#e581396b"] ;
14 -> 16 ;
17 [label="PokemonWorldRegion <= 3.0\ngini = 0.1\nsamples = 297\nvalue = [455, 26]\nclass = 0", fillcolor="#e58139f0"] ;
9 -> 17 ;
18 [label="CurrentlyEmployed <= 0.5\ngini = 0.15\nsamples = 107\nvalue = [165, 15]\nclass = 0", fillcolor="#e58139e8"] ;
17 -> 18 ;
19 [label="gini = 0.04\nsamples = 55\nvalue = [94, 2]\nclass = 0", fillcolor="#e58139fa"] ;
18 -> 19 ;
20 [label="gini = 0.26\nsamples = 52\nvalue = [71, 13]\nclass = 0", fillcolor="#e58139d0"] ;
18 -> 20 ;
21 [label="RecentTrainingExperienceContactForRefPostHire <= 0.5\ngini = 0.07\nsamples = 190\nvalue = [290, 11]\nclass = 0", fillcolor="#e58139f5"] ;
17 -> 21 ;
22 [label="gini = 0.06\nsamples = 183\nvalue = [281, 9]\nclass = 0", fillcolor="#e58139f7"] ;
21 -> 22 ;
23 [label="gini = 0.3\nsamples = 7\nvalue = [9, 2]\nclass = 0", fillcolor="#e58139c6"] ;
21 -> 23 ;
24 [label="GymBadgePerm4 <= -0.5\ngini = 0.02\nsamples = 41325\nvalue = [64632, 782]\nclass = 0", fillcolor="#e58139fc"] ;
0 -> 24 [labeldistance=2.5, labelangle=-45, headlabel="False"] ;
25 [label="JobStatusPartTime <= 0.5\ngini = 0.12\nsamples = 2503\nvalue = [3694, 260]\nclass = 0", fillcolor="#e58139ed"] ;
24 -> 25 ;
26 [label="SpokenWithCurrentBoss <= 0.5\ngini = 0.14\nsamples = 1631\nvalue = [2350, 198]\nclass = 0", fillcolor="#e58139ea"] ;
25 -> 26 ;
27 [label="GymBadge3Pokemon <= 5.0\ngini = 0.08\nsamples = 571\nvalue = [847, 36]\nclass = 0", fillcolor="#e58139f4"] ;
26 -> 27 ;
28 [label="gini = 0.08\nsamples = 554\nvalue = [823, 34]\nclass = 0", fillcolor="#e58139f4"] ;
27 -> 28 ;
29 [label="gini = 0.14\nsamples = 17\nvalue = [24, 2]\nclass = 0", fillcolor="#e58139ea"] ;
27 -> 29 ;
30 [label="HighSchoolGraduate <= -0.5\ngini = 0.18\nsamples = 1060\nvalue = [1503, 162]\nclass = 0", fillcolor="#e58139e4"] ;
26 -> 30 ;
31 [label="gini = 0.31\nsamples = 118\nvalue = [151, 36]\nclass = 0", fillcolor="#e58139c2"] ;
30 -> 31 ;
32 [label="gini = 0.16\nsamples = 942\nvalue = [1352, 126]\nclass = 0", fillcolor="#e58139e7"] ;
30 -> 32 ;
33 [label="GymBadge3Pokemon <= 12.5\ngini = 0.08\nsamples = 872\nvalue = [1344, 62]\nclass = 0", fillcolor="#e58139f3"] ;
25 -> 33 ;
34 [label="HighEduLevelCompleted <= 7.0\ngini = 0.09\nsamples = 828\nvalue = [1264, 62]\nclass = 0", fillcolor="#e58139f2"] ;
33 -> 34 ;
35 [label="gini = 0.08\nsamples = 809\nvalue = [1237, 56]\nclass = 0", fillcolor="#e58139f3"] ;
34 -> 35 ;
36 [label="gini = 0.3\nsamples = 19\nvalue = [27, 6]\nclass = 0", fillcolor="#e58139c6"] ;
34 -> 36 ;
37 [label="gini = 0.0\nsamples = 44\nvalue = [80, 0]\nclass = 0", fillcolor="#e58139ff"] ;
33 -> 37 ;
38 [label="RecentTrainingExperience1ContactForRef <= 0.5\ngini = 0.02\nsamples = 38822\nvalue = [60938, 522]\nclass = 0", fillcolor="#e58139fd"] ;
24 -> 38 ;
39 [label="RecentTrainingExperience1To <= 269.0\ngini = 0.03\nsamples = 2698\nvalue = [4212, 71]\nclass = 0", fillcolor="#e58139fb"] ;
38 -> 39 ;
40 [label="CurrentlyEmployed <= 0.5\ngini = 0.03\nsamples = 2690\nvalue = [4198, 67]\nclass = 0", fillcolor="#e58139fb"] ;
39 -> 40 ;
41 [label="gini = 0.01\nsamples = 1413\nvalue = [2232, 14]\nclass = 0", fillcolor="#e58139fd"] ;
40 -> 41 ;
42 [label="gini = 0.05\nsamples = 1277\nvalue = [1966, 53]\nclass = 0", fillcolor="#e58139f8"] ;
40 -> 42 ;
43 [label="gini = 0.35\nsamples = 8\nvalue = [14, 4]\nclass = 0", fillcolor="#e58139b6"] ;
39 -> 43 ;
44 [label="CurrentlyWorkInThisRegion <= 0.5\ngini = 0.02\nsamples = 36124\nvalue = [56726, 451]\nclass = 0", fillcolor="#e58139fd"] ;
38 -> 44 ;
45 [label="JobStatusPartTime <= 0.5\ngini = 0.01\nsamples = 35549\nvalue = [55848, 405]\nclass = 0", fillcolor="#e58139fd"] ;
44 -> 45 ;
46 [label="gini = 0.02\nsamples = 13732\nvalue = [21555, 207]\nclass = 0", fillcolor="#e58139fd"] ;
45 -> 46 ;
47 [label="gini = 0.01\nsamples = 21817\nvalue = [34293, 198]\nclass = 0", fillcolor="#e58139fe"] ;
45 -> 47 ;
48 [label="JobPostingDate <= 272.5\ngini = 0.09\nsamples = 575\nvalue = [878, 46]\nclass = 0", fillcolor="#e58139f2"] ;
44 -> 48 ;
49 [label="gini = 0.21\nsamples = 91\nvalue = [128, 17]\nclass = 0", fillcolor="#e58139dd"] ;
48 -> 49 ;
50 [label="gini = 0.07\nsamples = 484\nvalue = [750, 29]\nclass = 0", fillcolor="#e58139f5"] ;
48 -> 50 ;
}