digraph Tree {
node [shape=box, style="filled, rounded", color="black", fontname=helvetica] ;
edge [fontname=helvetica] ;
0 [label="JobShiftNight <= -0.5\ngini = 0.04\nsamples = 42484\nvalue = [66221, 1203]\nclass = 0", fillcolor="#e58139fa"] ;
1 [label="PositionForTrainingPokemon <= 25.0\ngini = 0.39\nsamples = 167\nvalue = [201, 73]\nclass = 0", fillcolor="#e58139a2"] ;
0 -> 1 [labeldistance=2.5, labelangle=45, headlabel="True"] ;
2 [label="PositionForTrainingPokemon <= 9.5\ngini = 0.35\nsamples = 156\nvalue = [199, 58]\nclass = 0", fillcolor="#e58139b5"] ;
1 -> 2 ;
3 [label="ApplyDate <= 1603.0\ngini = 0.42\nsamples = 113\nvalue = [126, 54]\nclass = 0", fillcolor="#e5813992"] ;
2 -> 3 ;
4 [label="TotalYearsOfExp <= 0.0\ngini = 0.46\nsamples = 96\nvalue = [98, 54]\nclass = 0", fillcolor="#e5813972"] ;
3 -> 4 ;
5 [label="gini = 0.49\nsamples = 74\nvalue = [69, 52]\nclass = 0", fillcolor="#e581393f"] ;
4 -> 5 ;
6 [label="gini = 0.12\nsamples = 22\nvalue = [29, 2]\nclass = 0", fillcolor="#e58139ed"] ;
4 -> 6 ;
7 [label="gini = 0.0\nsamples = 17\nvalue = [28, 0]\nclass = 0", fillcolor="#e58139ff"] ;
3 -> 7 ;
8 [label="gini = 0.1\nsamples = 43\nvalue = [73, 4]\nclass = 0", fillcolor="#e58139f1"] ;
2 -> 8 ;
9 [label="gini = 0.21\nsamples = 11\nvalue = [2, 15]\nclass = 1", fillcolor="#399de5dd"] ;
1 -> 9 ;
10 [label="ApplicationType <= 1.0\ngini = 0.03\nsamples = 42317\nvalue = [66020, 1130]\nclass = 0", fillcolor="#e58139fb"] ;
0 -> 10 [labeldistance=2.5, labelangle=-45, headlabel="False"] ;
11 [label="GymBadgePerm4 <= -0.5\ngini = 0.02\nsamples = 41491\nvalue = [65084, 773]\nclass = 0", fillcolor="#e58139fc"] ;
10 -> 11 ;
12 [label="RecentTrainingExperience3To <= 279.5\ngini = 0.12\nsamples = 2579\nvalue = [3802, 261]\nclass = 0", fillcolor="#e58139ed"] ;
11 -> 12 ;
13 [label="RecentTrainingExperience3From <= 532.0\ngini = 0.16\nsamples = 1313\nvalue = [1894, 178]\nclass = 0", fillcolor="#e58139e7"] ;
12 -> 13 ;
14 [label="gini = 0.16\nsamples = 1312\nvalue = [1894, 176]\nclass = 0", fillcolor="#e58139e7"] ;
13 -> 14 ;
15 [label="gini = 0.0\nsamples = 1\nvalue = [0, 2]\nclass = 1", fillcolor="#399de5ff"] ;
13 -> 15 ;
16 [label="GraduateSchoolGraduate <= 0.5\ngini = 0.08\nsamples = 1266\nvalue = [1908, 83]\nclass = 0", fillcolor="#e58139f4"] ;
12 -> 16 ;
17 [label="gini = 0.06\nsamples = 1204\nvalue = [1832, 62]\nclass = 0", fillcolor="#e58139f6"] ;
16 -> 17 ;
18 [label="gini = 0.34\nsamples = 62\nvalue = [76, 21]\nclass = 0", fillcolor="#e58139b9"] ;
16 -> 18 ;
19 [label="WorkedInThisRegion <= 0.5\ngini = 0.02\nsamples = 38912\nvalue = [61282, 512]\nclass = 0", fillcolor="#e58139fd"] ;
11 -> 19 ;
20 [label="UndergradSchoolGraduate <= 0.5\ngini = 0.01\nsamples = 35989\nvalue = [56731, 423]\nclass = 0", fillcolor="#e58139fd"] ;
19 -> 20 ;
21 [label="gini = 0.01\nsamples = 26433\nvalue = [41891, 260]\nclass = 0", fillcolor="#e58139fd"] ;
20 -> 21 ;
22 [label="gini = 0.02\nsamples = 9556\nvalue = [14840, 163]\nclass = 0", fillcolor="#e58139fc"] ;
20 -> 22 ;
23 [label="RecentTrainingExperience3PayRateEndValue <= 710.0\ngini = 0.04\nsamples = 2923\nvalue = [4551, 89]\nclass = 0", fillcolor="#e58139fa"] ;
19 -> 23 ;
24 [label="gini = 0.03\nsamples = 2119\nvalue = [3319, 51]\nclass = 0", fillcolor="#e58139fb"] ;
23 -> 24 ;
25 [label="gini = 0.06\nsamples = 804\nvalue = [1232, 38]\nclass = 0", fillcolor="#e58139f7"] ;
23 -> 25 ;
26 [label="PokemonTrainerClass <= 5.5\ngini = 0.4\nsamples = 826\nvalue = [936, 357]\nclass = 0", fillcolor="#e581399e"] ;
10 -> 26 ;
27 [label="LastPerformaceRating <= -0.5\ngini = 0.44\nsamples = 635\nvalue = [665, 326]\nclass = 0", fillcolor="#e5813982"] ;
26 -> 27 ;
28 [label="RecentTrainingExperienceContactForRefYes <= -0.5\ngini = 0.42\nsamples = 576\nvalue = [629, 272]\nclass = 0", fillcolor="#e5813991"] ;
27 -> 28 ;
29 [label="gini = 0.49\nsamples = 230\nvalue = [212, 158]\nclass = 0", fillcolor="#e5813941"] ;
28 -> 29 ;
30 [label="gini = 0.34\nsamples = 346\nvalue = [417, 114]\nclass = 0", fillcolor="#e58139b9"] ;
28 -> 30 ;
31 [label="PokemonTrainerClass <= 4.5\ngini = 0.48\nsamples = 59\nvalue = [36, 54]\nclass = 1", fillcolor="#399de555"] ;
27 -> 31 ;
32 [label="gini = 0.39\nsamples = 39\nvalue = [16, 45]\nclass = 1", fillcolor="#399de5a4"] ;
31 -> 32 ;
33 [label="gini = 0.43\nsamples = 20\nvalue = [20, 9]\nclass = 0", fillcolor="#e581398c"] ;
31 -> 33 ;
34 [label="RecentTrainingExperience2To <= 417.5\ngini = 0.18\nsamples = 191\nvalue = [271, 31]\nclass = 0", fillcolor="#e58139e2"] ;
26 -> 34 ;
35 [label="CurrentlyEmployed <= 0.5\ngini = 0.16\nsamples = 180\nvalue = [258, 24]\nclass = 0", fillcolor="#e58139e7"] ;
34 -> 35 ;
36 [label="gini = 0.1\nsamples = 106\nvalue = [163, 9]\nclass = 0", fillcolor="#e58139f1"] ;
35 -> 36 ;
37 [label="gini = 0.24\nsamples = 74\nvalue = [95, 15]\nclass = 0", fillcolor="#e58139d7"] ;
35 -> 37 ;
38 [label="gini = 0.45\nsamples = 11\nvalue = [13, 7]\nclass = 0", fillcolor="#e5813976"] ;
34 -> 38 ;
}