digraph Tree {
node [shape=box, style="filled, rounded", color="black", fontname=helvetica] ;
edge [fontname=helvetica] ;
0 [label="RecentTrainingExperience1ContactForRef <= -0.5\ngini = 0.03\nsamples = 42646\nvalue = [66287, 1137]\nclass = 0", fillcolor="#e58139fb"] ;
1 [label="RecentTrainingExperience1From <= 335.0\ngini = 0.15\nsamples = 2762\nvalue = [4057, 352]\nclass = 0", fillcolor="#e58139e9"] ;
0 -> 1 [labeldistance=2.5, labelangle=45, headlabel="True"] ;
2 [label="GymBadge1Pokemon <= -0.5\ngini = 0.34\nsamples = 236\nvalue = [275, 76]\nclass = 0", fillcolor="#e58139b9"] ;
1 -> 2 ;
3 [label="HighEduLevelCompleted <= -0.5\ngini = 0.32\nsamples = 200\nvalue = [241, 61]\nclass = 0", fillcolor="#e58139be"] ;
2 -> 3 ;
4 [label="PokemonWorldRegion <= 2.5\ngini = 0.41\nsamples = 123\nvalue = [134, 53]\nclass = 0", fillcolor="#e581399a"] ;
3 -> 4 ;
5 [label="gini = 0.46\nsamples = 58\nvalue = [61, 35]\nclass = 0", fillcolor="#e581396d"] ;
4 -> 5 ;
6 [label="gini = 0.32\nsamples = 65\nvalue = [73, 18]\nclass = 0", fillcolor="#e58139c0"] ;
4 -> 6 ;
7 [label="GymBadge3Pokemon <= 5.0\ngini = 0.13\nsamples = 77\nvalue = [107, 8]\nclass = 0", fillcolor="#e58139ec"] ;
3 -> 7 ;
8 [label="gini = 0.1\nsamples = 75\nvalue = [107, 6]\nclass = 0", fillcolor="#e58139f1"] ;
7 -> 8 ;
9 [label="gini = 0.0\nsamples = 2\nvalue = [0, 2]\nclass = 1", fillcolor="#399de5ff"] ;
7 -> 9 ;
10 [label="gini = 0.42\nsamples = 36\nvalue = [34, 15]\nclass = 0", fillcolor="#e581398e"] ;
2 -> 10 ;
11 [label="JobShiftEvening <= 0.5\ngini = 0.13\nsamples = 2526\nvalue = [3782, 276]\nclass = 0", fillcolor="#e58139ec"] ;
1 -> 11 ;
12 [label="JobSchedule <= 5.5\ngini = 0.16\nsamples = 1318\nvalue = [1918, 184]\nclass = 0", fillcolor="#e58139e7"] ;
11 -> 12 ;
13 [label="HighEduLevelCompleted <= -0.5\ngini = 0.16\nsamples = 1167\nvalue = [1695, 169]\nclass = 0", fillcolor="#e58139e6"] ;
12 -> 13 ;
14 [label="gini = 0.41\nsamples = 64\nvalue = [82, 33]\nclass = 0", fillcolor="#e5813998"] ;
13 -> 14 ;
15 [label="gini = 0.14\nsamples = 1103\nvalue = [1613, 136]\nclass = 0", fillcolor="#e58139e9"] ;
13 -> 15 ;
16 [label="JobStatusPartTime <= 0.5\ngini = 0.12\nsamples = 151\nvalue = [223, 15]\nclass = 0", fillcolor="#e58139ee"] ;
12 -> 16 ;
17 [label="gini = 0.02\nsamples = 53\nvalue = [86, 1]\nclass = 0", fillcolor="#e58139fc"] ;
16 -> 17 ;
18 [label="gini = 0.17\nsamples = 98\nvalue = [137, 14]\nclass = 0", fillcolor="#e58139e5"] ;
16 -> 18 ;
19 [label="JobStatusFullTime <= 0.5\ngini = 0.09\nsamples = 1208\nvalue = [1864, 92]\nclass = 0", fillcolor="#e58139f2"] ;
11 -> 19 ;
20 [label="JobPostingDate <= 1016.0\ngini = 0.02\nsamples = 100\nvalue = [180, 2]\nclass = 0", fillcolor="#e58139fc"] ;
19 -> 20 ;
21 [label="gini = 0.0\nsamples = 67\nvalue = [121, 0]\nclass = 0", fillcolor="#e58139ff"] ;
20 -> 21 ;
22 [label="gini = 0.06\nsamples = 33\nvalue = [59, 2]\nclass = 0", fillcolor="#e58139f6"] ;
20 -> 22 ;
23 [label="LastPerformaceRating <= 0.5\ngini = 0.1\nsamples = 1108\nvalue = [1684, 90]\nclass = 0", fillcolor="#e58139f1"] ;
19 -> 23 ;
24 [label="gini = 0.24\nsamples = 67\nvalue = [86, 14]\nclass = 0", fillcolor="#e58139d5"] ;
23 -> 24 ;
25 [label="gini = 0.09\nsamples = 1041\nvalue = [1598, 76]\nclass = 0", fillcolor="#e58139f3"] ;
23 -> 25 ;
26 [label="JobShiftEvening <= 0.5\ngini = 0.02\nsamples = 39884\nvalue = [62230, 785]\nclass = 0", fillcolor="#e58139fc"] ;
0 -> 26 [labeldistance=2.5, labelangle=-45, headlabel="False"] ;
27 [label="ApplicationType <= 1.0\ngini = 0.04\nsamples = 11353\nvalue = [17641, 325]\nclass = 0", fillcolor="#e58139fa"] ;
26 -> 27 ;
28 [label="RecentTrainingExperience4PayRateEndValue <= 1370.5\ngini = 0.03\nsamples = 11134\nvalue = [17394, 224]\nclass = 0", fillcolor="#e58139fc"] ;
27 -> 28 ;
29 [label="GymBadge1Pokemon <= 5.0\ngini = 0.02\nsamples = 11132\nvalue = [17393, 223]\nclass = 0", fillcolor="#e58139fc"] ;
28 -> 29 ;
30 [label="gini = 0.02\nsamples = 8426\nvalue = [13190, 141]\nclass = 0", fillcolor="#e58139fc"] ;
29 -> 30 ;
31 [label="gini = 0.04\nsamples = 2706\nvalue = [4203, 82]\nclass = 0", fillcolor="#e58139fa"] ;
29 -> 31 ;
32 [label="gini = 0.5\nsamples = 2\nvalue = [1, 1]\nclass = 0", fillcolor="#e5813900"] ;
28 -> 32 ;
33 [label="RecentTrainingExperienceContactForRefYes <= -0.5\ngini = 0.41\nsamples = 219\nvalue = [247, 101]\nclass = 0", fillcolor="#e5813997"] ;
27 -> 33 ;
34 [label="RecentTrainingExperience2PayRateEndValue <= 1482.0\ngini = 0.48\nsamples = 82\nvalue = [77, 54]\nclass = 0", fillcolor="#e581394c"] ;
33 -> 34 ;
35 [label="gini = 0.5\nsamples = 65\nvalue = [53, 50]\nclass = 0", fillcolor="#e581390e"] ;
34 -> 35 ;
36 [label="gini = 0.24\nsamples = 17\nvalue = [24, 4]\nclass = 0", fillcolor="#e58139d4"] ;
34 -> 36 ;
37 [label="GymBadge1Pokemon <= 24.5\ngini = 0.34\nsamples = 137\nvalue = [170, 47]\nclass = 0", fillcolor="#e58139b9"] ;
33 -> 37 ;
38 [label="gini = 0.31\nsamples = 126\nvalue = [162, 38]\nclass = 0", fillcolor="#e58139c3"] ;
37 -> 38 ;
39 [label="gini = 0.5\nsamples = 11\nvalue = [8, 9]\nclass = 1", fillcolor="#399de51c"] ;
37 -> 39 ;
40 [label="CurrentlyWorkInThisRegion <= 0.5\ngini = 0.02\nsamples = 28531\nvalue = [44589, 460]\nclass = 0", fillcolor="#e58139fc"] ;
26 -> 40 ;
41 [label="TotalYearsOfExp <= 0.0\ngini = 0.02\nsamples = 28135\nvalue = [43979, 439]\nclass = 0", fillcolor="#e58139fc"] ;
40 -> 41 ;
42 [label="ApplicationType <= 1.0\ngini = 0.26\nsamples = 755\nvalue = [990, 176]\nclass = 0", fillcolor="#e58139d2"] ;
41 -> 42 ;
43 [label="gini = 0.06\nsamples = 249\nvalue = [352, 12]\nclass = 0", fillcolor="#e58139f6"] ;
42 -> 43 ;
44 [label="gini = 0.33\nsamples = 506\nvalue = [638, 164]\nclass = 0", fillcolor="#e58139bd"] ;
42 -> 44 ;
45 [label="RecentTrainingExperience1To <= 316.5\ngini = 0.01\nsamples = 27380\nvalue = [42989, 263]\nclass = 0", fillcolor="#e58139fd"] ;
41 -> 45 ;
46 [label="gini = 0.01\nsamples = 27377\nvalue = [42986, 261]\nclass = 0", fillcolor="#e58139fd"] ;
45 -> 46 ;
47 [label="gini = 0.48\nsamples = 3\nvalue = [3, 2]\nclass = 0", fillcolor="#e5813955"] ;
45 -> 47 ;
48 [label="RecentTrainingExperience3To <= 276.0\ngini = 0.06\nsamples = 396\nvalue = [610, 21]\nclass = 0", fillcolor="#e58139f6"] ;
40 -> 48 ;
49 [label="HighSchoolGPA <= 3.72\ngini = 0.02\nsamples = 175\nvalue = [273, 3]\nclass = 0", fillcolor="#e58139fc"] ;
48 -> 49 ;
50 [label="gini = 0.02\nsamples = 162\nvalue = [257, 2]\nclass = 0", fillcolor="#e58139fd"] ;
49 -> 50 ;
51 [label="gini = 0.11\nsamples = 13\nvalue = [16, 1]\nclass = 0", fillcolor="#e58139ef"] ;
49 -> 51 ;
52 [label="TotalYearsOfExp <= 0.0\ngini = 0.1\nsamples = 221\nvalue = [337, 18]\nclass = 0", fillcolor="#e58139f1"] ;
48 -> 52 ;
53 [label="gini = 0.48\nsamples = 15\nvalue = [13, 9]\nclass = 0", fillcolor="#e581394e"] ;
52 -> 53 ;
54 [label="gini = 0.05\nsamples = 206\nvalue = [324, 9]\nclass = 0", fillcolor="#e58139f8"] ;
52 -> 54 ;
}