digraph Tree {
node [shape=box, style="filled, rounded", color="black", fontname=helvetica] ;
edge [fontname=helvetica] ;
0 [label="GymBadgeTemp1 <= -0.5\ngini = 0.04\nsamples = 42553\nvalue = [66165, 1259]\nclass = 0", fillcolor="#e58139fa"] ;
1 [label="JobStatusFullTime <= -0.5\ngini = 0.17\nsamples = 2790\nvalue = [4005, 410]\nclass = 0", fillcolor="#e58139e5"] ;
0 -> 1 [labeldistance=2.5, labelangle=45, headlabel="True"] ;
2 [label="JobSchedule <= 5.5\ngini = 0.39\nsamples = 165\nvalue = [194, 71]\nclass = 0", fillcolor="#e58139a2"] ;
1 -> 2 ;
3 [label="RecentTrainingExperienceContactForRefNA <= -0.5\ngini = 0.42\nsamples = 124\nvalue = [136, 58]\nclass = 0", fillcolor="#e5813992"] ;
2 -> 3 ;
4 [label="HighEduLevelCompleted <= -0.5\ngini = 0.43\nsamples = 120\nvalue = [130, 58]\nclass = 0", fillcolor="#e581398d"] ;
3 -> 4 ;
5 [label="gini = 0.46\nsamples = 99\nvalue = [100, 57]\nclass = 0", fillcolor="#e581396e"] ;
4 -> 5 ;
6 [label="gini = 0.06\nsamples = 21\nvalue = [30, 1]\nclass = 0", fillcolor="#e58139f6"] ;
4 -> 6 ;
7 [label="gini = 0.0\nsamples = 4\nvalue = [6, 0]\nclass = 0", fillcolor="#e58139ff"] ;
3 -> 7 ;
8 [label="gini = 0.3\nsamples = 41\nvalue = [58, 13]\nclass = 0", fillcolor="#e58139c6"] ;
2 -> 8 ;
9 [label="JobShiftDay <= 0.5\ngini = 0.15\nsamples = 2625\nvalue = [3811, 339]\nclass = 0", fillcolor="#e58139e8"] ;
1 -> 9 ;
10 [label="GymBadge4Pokemon <= 16.0\ngini = 0.22\nsamples = 322\nvalue = [430, 62]\nclass = 0", fillcolor="#e58139da"] ;
9 -> 10 ;
11 [label="JobStatusPartTime <= 0.5\ngini = 0.22\nsamples = 321\nvalue = [430, 61]\nclass = 0", fillcolor="#e58139db"] ;
10 -> 11 ;
12 [label="gini = 0.31\nsamples = 204\nvalue = [242, 58]\nclass = 0", fillcolor="#e58139c2"] ;
11 -> 12 ;
13 [label="gini = 0.03\nsamples = 117\nvalue = [188, 3]\nclass = 0", fillcolor="#e58139fb"] ;
11 -> 13 ;
14 [label="gini = 0.0\nsamples = 1\nvalue = [0, 1]\nclass = 1", fillcolor="#399de5ff"] ;
10 -> 14 ;
15 [label="PositionForTrainingPokemon <= 7.5\ngini = 0.14\nsamples = 2303\nvalue = [3381, 277]\nclass = 0", fillcolor="#e58139ea"] ;
9 -> 15 ;
16 [label="UndergradSchoolGraduate <= 0.5\ngini = 0.11\nsamples = 1410\nvalue = [2151, 131]\nclass = 0", fillcolor="#e58139ef"] ;
15 -> 16 ;
17 [label="gini = 0.08\nsamples = 1077\nvalue = [1666, 74]\nclass = 0", fillcolor="#e58139f4"] ;
16 -> 17 ;
18 [label="gini = 0.19\nsamples = 333\nvalue = [485, 57]\nclass = 0", fillcolor="#e58139e1"] ;
16 -> 18 ;
19 [label="JobShiftEvening <= 0.5\ngini = 0.19\nsamples = 893\nvalue = [1230, 146]\nclass = 0", fillcolor="#e58139e1"] ;
15 -> 19 ;
20 [label="gini = 0.24\nsamples = 486\nvalue = [645, 104]\nclass = 0", fillcolor="#e58139d6"] ;
19 -> 20 ;
21 [label="gini = 0.12\nsamples = 407\nvalue = [585, 42]\nclass = 0", fillcolor="#e58139ed"] ;
19 -> 21 ;
22 [label="JobShiftDay <= 0.5\ngini = 0.03\nsamples = 39763\nvalue = [62160, 849]\nclass = 0", fillcolor="#e58139fc"] ;
0 -> 22 [labeldistance=2.5, labelangle=-45, headlabel="False"] ;
23 [label="GymBadgePerm1 <= 0.5\ngini = 0.05\nsamples = 4199\nvalue = [6476, 165]\nclass = 0", fillcolor="#e58139f9"] ;
22 -> 23 ;
24 [label="TotalYearsOfExp <= 0.0\ngini = 0.03\nsamples = 2714\nvalue = [4229, 70]\nclass = 0", fillcolor="#e58139fb"] ;
23 -> 24 ;
25 [label="JobShiftWeekend <= 0.5\ngini = 0.39\nsamples = 84\nvalue = [104, 37]\nclass = 0", fillcolor="#e58139a4"] ;
24 -> 25 ;
26 [label="gini = 0.49\nsamples = 36\nvalue = [34, 24]\nclass = 0", fillcolor="#e581394b"] ;
25 -> 26 ;
27 [label="gini = 0.26\nsamples = 48\nvalue = [70, 13]\nclass = 0", fillcolor="#e58139d0"] ;
25 -> 27 ;
28 [label="GymBadge3Pokemon <= 5.0\ngini = 0.02\nsamples = 2630\nvalue = [4125, 33]\nclass = 0", fillcolor="#e58139fd"] ;
24 -> 28 ;
29 [label="gini = 0.01\nsamples = 2582\nvalue = [4055, 29]\nclass = 0", fillcolor="#e58139fd"] ;
28 -> 29 ;
30 [label="gini = 0.1\nsamples = 48\nvalue = [70, 4]\nclass = 0", fillcolor="#e58139f0"] ;
28 -> 30 ;
31 [label="RecentTrainingExperience1From <= 401.5\ngini = 0.08\nsamples = 1485\nvalue = [2247, 95]\nclass = 0", fillcolor="#e58139f4"] ;
23 -> 31 ;
32 [label="TotalYearsOfExp <= 0.0\ngini = 0.14\nsamples = 350\nvalue = [522, 41]\nclass = 0", fillcolor="#e58139eb"] ;
31 -> 32 ;
33 [label="gini = 0.5\nsamples = 23\nvalue = [22, 20]\nclass = 0", fillcolor="#e5813917"] ;
32 -> 33 ;
34 [label="gini = 0.08\nsamples = 327\nvalue = [500, 21]\nclass = 0", fillcolor="#e58139f4"] ;
32 -> 34 ;
35 [label="RecentTrainingExperienceContactForRefNo <= -0.5\ngini = 0.06\nsamples = 1135\nvalue = [1725, 54]\nclass = 0", fillcolor="#e58139f7"] ;
31 -> 35 ;
36 [label="gini = 0.04\nsamples = 626\nvalue = [959, 19]\nclass = 0", fillcolor="#e58139fa"] ;
35 -> 36 ;
37 [label="gini = 0.08\nsamples = 509\nvalue = [766, 35]\nclass = 0", fillcolor="#e58139f3"] ;
35 -> 37 ;
38 [label="RecentTrainingExperience1PayRateEndValue <= 0.5\ngini = 0.02\nsamples = 35564\nvalue = [55684, 684]\nclass = 0", fillcolor="#e58139fc"] ;
22 -> 38 ;
39 [label="ApplyDate <= 12.5\ngini = 0.03\nsamples = 8503\nvalue = [13156, 222]\nclass = 0", fillcolor="#e58139fb"] ;
38 -> 39 ;
40 [label="gini = 0.23\nsamples = 43\nvalue = [58, 9]\nclass = 0", fillcolor="#e58139d7"] ;
39 -> 40 ;
41 [label="PokemonTrainerClass <= 6.5\ngini = 0.03\nsamples = 8460\nvalue = [13098, 213]\nclass = 0", fillcolor="#e58139fb"] ;
39 -> 41 ;
42 [label="gini = 0.04\nsamples = 6494\nvalue = [9968, 197]\nclass = 0", fillcolor="#e58139fa"] ;
41 -> 42 ;
43 [label="gini = 0.01\nsamples = 1966\nvalue = [3130, 16]\nclass = 0", fillcolor="#e58139fe"] ;
41 -> 43 ;
44 [label="RecentTrainingExperience1To <= 217.5\ngini = 0.02\nsamples = 27061\nvalue = [42528, 462]\nclass = 0", fillcolor="#e58139fc"] ;
38 -> 44 ;
45 [label="GymBadge1Pokemon <= 30.5\ngini = 0.02\nsamples = 24782\nvalue = [39002, 393]\nclass = 0", fillcolor="#e58139fc"] ;
44 -> 45 ;
46 [label="gini = 0.02\nsamples = 24688\nvalue = [38860, 386]\nclass = 0", fillcolor="#e58139fc"] ;
45 -> 46 ;
47 [label="gini = 0.09\nsamples = 94\nvalue = [142, 7]\nclass = 0", fillcolor="#e58139f2"] ;
45 -> 47 ;
48 [label="JobStatusFullTime <= 0.5\ngini = 0.04\nsamples = 2279\nvalue = [3526, 69]\nclass = 0", fillcolor="#e58139fa"] ;
44 -> 48 ;
49 [label="gini = 0.12\nsamples = 94\nvalue = [133, 9]\nclass = 0", fillcolor="#e58139ee"] ;
48 -> 49 ;
50 [label="gini = 0.03\nsamples = 2185\nvalue = [3393, 60]\nclass = 0", fillcolor="#e58139fa"] ;
48 -> 50 ;
}