digraph Tree {
node [shape=box, style="filled, rounded", color="black", fontname=helvetica] ;
edge [fontname=helvetica] ;
0 [label="GymBadgeTemp4 <= -0.5\ngini = 0.03\nsamples = 42516\nvalue = [66279, 1145]\nclass = 0", fillcolor="#e58139fb"] ;
1 [label="JobShiftRotating <= -0.5\ngini = 0.15\nsamples = 2753\nvalue = [3971, 356]\nclass = 0", fillcolor="#e58139e8"] ;
0 -> 1 [labeldistance=2.5, labelangle=45, headlabel="True"] ;
2 [label="PokemonTrainerClass <= 3.5\ngini = 0.38\nsamples = 168\nvalue = [193, 67]\nclass = 0", fillcolor="#e58139a6"] ;
1 -> 2 ;
3 [label="JobSchedule <= 5.5\ngini = 0.15\nsamples = 52\nvalue = [76, 7]\nclass = 0", fillcolor="#e58139e8"] ;
2 -> 3 ;
4 [label="gini = 0.25\nsamples = 30\nvalue = [41, 7]\nclass = 0", fillcolor="#e58139d3"] ;
3 -> 4 ;
5 [label="gini = 0.0\nsamples = 22\nvalue = [35, 0]\nclass = 0", fillcolor="#e58139ff"] ;
3 -> 5 ;
6 [label="InternalEmployee <= 0.5\ngini = 0.45\nsamples = 116\nvalue = [117, 60]\nclass = 0", fillcolor="#e581397c"] ;
2 -> 6 ;
7 [label="RecentTrainingExperienceContactForRefNA <= -0.5\ngini = 0.41\nsamples = 104\nvalue = [113, 46]\nclass = 0", fillcolor="#e5813997"] ;
6 -> 7 ;
8 [label="gini = 0.43\nsamples = 98\nvalue = [104, 46]\nclass = 0", fillcolor="#e581398e"] ;
7 -> 8 ;
9 [label="gini = 0.0\nsamples = 6\nvalue = [9, 0]\nclass = 0", fillcolor="#e58139ff"] ;
7 -> 9 ;
10 [label="gini = 0.35\nsamples = 12\nvalue = [4, 14]\nclass = 1", fillcolor="#399de5b6"] ;
6 -> 10 ;
11 [label="JobShiftWeekend <= 0.5\ngini = 0.13\nsamples = 2585\nvalue = [3778, 289]\nclass = 0", fillcolor="#e58139eb"] ;
1 -> 11 ;
12 [label="TotalYearsOfExp <= 0.0\ngini = 0.17\nsamples = 1452\nvalue = [2035, 214]\nclass = 0", fillcolor="#e58139e4"] ;
11 -> 12 ;
13 [label="ApplicationType <= 1.0\ngini = 0.49\nsamples = 64\nvalue = [59, 42]\nclass = 0", fillcolor="#e5813949"] ;
12 -> 13 ;
14 [label="gini = 0.2\nsamples = 19\nvalue = [32, 4]\nclass = 0", fillcolor="#e58139df"] ;
13 -> 14 ;
15 [label="gini = 0.49\nsamples = 45\nvalue = [27, 38]\nclass = 1", fillcolor="#399de54a"] ;
13 -> 15 ;
16 [label="HighEduLevelCompleted <= 8.0\ngini = 0.15\nsamples = 1388\nvalue = [1976, 172]\nclass = 0", fillcolor="#e58139e9"] ;
12 -> 16 ;
17 [label="gini = 0.14\nsamples = 1320\nvalue = [1902, 151]\nclass = 0", fillcolor="#e58139eb"] ;
16 -> 17 ;
18 [label="gini = 0.34\nsamples = 68\nvalue = [74, 21]\nclass = 0", fillcolor="#e58139b7"] ;
16 -> 18 ;
19 [label="GymBadge3Pokemon <= 9.0\ngini = 0.08\nsamples = 1133\nvalue = [1743, 75]\nclass = 0", fillcolor="#e58139f4"] ;
11 -> 19 ;
20 [label="HighSchoolGraduate <= -0.5\ngini = 0.08\nsamples = 1074\nvalue = [1649, 75]\nclass = 0", fillcolor="#e58139f3"] ;
19 -> 20 ;
21 [label="gini = 0.18\nsamples = 97\nvalue = [144, 16]\nclass = 0", fillcolor="#e58139e3"] ;
20 -> 21 ;
22 [label="gini = 0.07\nsamples = 977\nvalue = [1505, 59]\nclass = 0", fillcolor="#e58139f5"] ;
20 -> 22 ;
23 [label="gini = 0.0\nsamples = 59\nvalue = [94, 0]\nclass = 0", fillcolor="#e58139ff"] ;
19 -> 23 ;
24 [label="GraduateSchoolGPA <= 3.72\ngini = 0.02\nsamples = 39763\nvalue = [62308, 789]\nclass = 0", fillcolor="#e58139fc"] ;
0 -> 24 [labeldistance=2.5, labelangle=-45, headlabel="False"] ;
25 [label="WorkedInThisRegion <= 0.5\ngini = 0.02\nsamples = 39209\nvalue = [61488, 752]\nclass = 0", fillcolor="#e58139fc"] ;
24 -> 25 ;
26 [label="RecentTrainingExperience4PayRateEndValue <= 1360.5\ngini = 0.02\nsamples = 36253\nvalue = [56892, 652]\nclass = 0", fillcolor="#e58139fc"] ;
25 -> 26 ;
27 [label="CurrentlyEmployed <= 0.5\ngini = 0.02\nsamples = 36239\nvalue = [56872, 647]\nclass = 0", fillcolor="#e58139fc"] ;
26 -> 27 ;
28 [label="gini = 0.02\nsamples = 19990\nvalue = [31311, 288]\nclass = 0", fillcolor="#e58139fd"] ;
27 -> 28 ;
29 [label="gini = 0.03\nsamples = 16249\nvalue = [25561, 359]\nclass = 0", fillcolor="#e58139fb"] ;
27 -> 29 ;
30 [label="gini = 0.32\nsamples = 14\nvalue = [20, 5]\nclass = 0", fillcolor="#e58139bf"] ;
26 -> 30 ;
31 [label="GraduateSchoolGraduate <= 0.5\ngini = 0.04\nsamples = 2956\nvalue = [4596, 100]\nclass = 0", fillcolor="#e58139f9"] ;
25 -> 31 ;
32 [label="RecentTrainingExperience3To <= 5.0\ngini = 0.04\nsamples = 2761\nvalue = [4282, 80]\nclass = 0", fillcolor="#e58139fa"] ;
31 -> 32 ;
33 [label="gini = 0.05\nsamples = 917\nvalue = [1383, 37]\nclass = 0", fillcolor="#e58139f8"] ;
32 -> 33 ;
34 [label="gini = 0.03\nsamples = 1844\nvalue = [2899, 43]\nclass = 0", fillcolor="#e58139fb"] ;
32 -> 34 ;
35 [label="JobPostingDate <= 772.0\ngini = 0.11\nsamples = 195\nvalue = [314, 20]\nclass = 0", fillcolor="#e58139ef"] ;
31 -> 35 ;
36 [label="gini = 0.18\nsamples = 113\nvalue = [182, 20]\nclass = 0", fillcolor="#e58139e3"] ;
35 -> 36 ;
37 [label="gini = 0.0\nsamples = 82\nvalue = [132, 0]\nclass = 0", fillcolor="#e58139ff"] ;
35 -> 37 ;
38 [label="UndergradSchoolGraduate <= -0.5\ngini = 0.08\nsamples = 554\nvalue = [820, 37]\nclass = 0", fillcolor="#e58139f3"] ;
24 -> 38 ;
39 [label="RecentTrainingExperienceContactForRefNA <= 0.5\ngini = 0.17\nsamples = 52\nvalue = [75, 8]\nclass = 0", fillcolor="#e58139e4"] ;
38 -> 39 ;
40 [label="gini = 0.08\nsamples = 47\nvalue = [70, 3]\nclass = 0", fillcolor="#e58139f4"] ;
39 -> 40 ;
41 [label="gini = 0.5\nsamples = 5\nvalue = [5, 5]\nclass = 0", fillcolor="#e5813900"] ;
39 -> 41 ;
42 [label="ApplicationType <= 1.0\ngini = 0.07\nsamples = 502\nvalue = [745, 29]\nclass = 0", fillcolor="#e58139f5"] ;
38 -> 42 ;
43 [label="TotalYearsOfExp <= 0.0\ngini = 0.06\nsamples = 480\nvalue = [723, 23]\nclass = 0", fillcolor="#e58139f7"] ;
42 -> 43 ;
44 [label="gini = 0.44\nsamples = 4\nvalue = [4, 2]\nclass = 0", fillcolor="#e581397f"] ;
43 -> 44 ;
45 [label="gini = 0.06\nsamples = 476\nvalue = [719, 21]\nclass = 0", fillcolor="#e58139f8"] ;
43 -> 45 ;
46 [label="gini = 0.34\nsamples = 22\nvalue = [22, 6]\nclass = 0", fillcolor="#e58139b9"] ;
42 -> 46 ;
}