digraph Tree {
node [shape=box, style="filled, rounded", color="black", fontname=helvetica] ;
edge [fontname=helvetica] ;
0 [label="CurrentlyWorkInThisRegion <= -0.5\ngini = 0.04\nsamples = 42658\nvalue = [66164, 1260]\nclass = 0", fillcolor="#e58139fa"] ;
1 [label="ApplicationType <= 1.0\ngini = 0.16\nsamples = 3182\nvalue = [4628, 431]\nclass = 0", fillcolor="#e58139e7"] ;
0 -> 1 [labeldistance=2.5, labelangle=45, headlabel="True"] ;
2 [label="JobShiftWeekend <= -0.5\ngini = 0.13\nsamples = 3073\nvalue = [4525, 352]\nclass = 0", fillcolor="#e58139eb"] ;
1 -> 2 ;
3 [label="RecentTrainingExperienceContactForRefNo <= -0.5\ngini = 0.41\nsamples = 153\nvalue = [180, 72]\nclass = 0", fillcolor="#e5813999"] ;
2 -> 3 ;
4 [label="PositionForTrainingPokemon <= 2.5\ngini = 0.41\nsamples = 150\nvalue = [177, 72]\nclass = 0", fillcolor="#e5813997"] ;
3 -> 4 ;
5 [label="gini = 0.49\nsamples = 42\nvalue = [41, 33]\nclass = 0", fillcolor="#e5813932"] ;
4 -> 5 ;
6 [label="gini = 0.35\nsamples = 108\nvalue = [136, 39]\nclass = 0", fillcolor="#e58139b6"] ;
4 -> 6 ;
7 [label="gini = 0.0\nsamples = 3\nvalue = [3, 0]\nclass = 0", fillcolor="#e58139ff"] ;
3 -> 7 ;
8 [label="GymBadgeTemp4 <= -0.5\ngini = 0.11\nsamples = 2920\nvalue = [4345, 280]\nclass = 0", fillcolor="#e58139ef"] ;
2 -> 8 ;
9 [label="WorkingForJobAppliedFor <= 0.5\ngini = 0.13\nsamples = 2520\nvalue = [3735, 273]\nclass = 0", fillcolor="#e58139ec"] ;
8 -> 9 ;
10 [label="gini = 0.09\nsamples = 1526\nvalue = [2303, 113]\nclass = 0", fillcolor="#e58139f2"] ;
9 -> 10 ;
11 [label="gini = 0.18\nsamples = 994\nvalue = [1432, 160]\nclass = 0", fillcolor="#e58139e3"] ;
9 -> 11 ;
12 [label="GraduateSchoolGraduate <= 0.5\ngini = 0.02\nsamples = 400\nvalue = [610, 7]\nclass = 0", fillcolor="#e58139fc"] ;
8 -> 12 ;
13 [label="gini = 0.01\nsamples = 379\nvalue = [575, 4]\nclass = 0", fillcolor="#e58139fd"] ;
12 -> 13 ;
14 [label="gini = 0.15\nsamples = 21\nvalue = [35, 3]\nclass = 0", fillcolor="#e58139e9"] ;
12 -> 14 ;
15 [label="JobShiftDay <= 0.5\ngini = 0.49\nsamples = 109\nvalue = [103, 79]\nclass = 0", fillcolor="#e581393b"] ;
1 -> 15 ;
16 [label="gini = 0.32\nsamples = 29\nvalue = [40, 10]\nclass = 0", fillcolor="#e58139bf"] ;
15 -> 16 ;
17 [label="GymBadge2Pokemon <= 3.0\ngini = 0.5\nsamples = 80\nvalue = [63, 69]\nclass = 1", fillcolor="#399de516"] ;
15 -> 17 ;
18 [label="RecentTrainingExperience1PayRateEndFreq <= 1.0\ngini = 0.5\nsamples = 70\nvalue = [60, 53]\nclass = 0", fillcolor="#e581391e"] ;
17 -> 18 ;
19 [label="gini = 0.5\nsamples = 65\nvalue = [51, 53]\nclass = 1", fillcolor="#399de50a"] ;
18 -> 19 ;
20 [label="gini = 0.0\nsamples = 5\nvalue = [9, 0]\nclass = 0", fillcolor="#e58139ff"] ;
18 -> 20 ;
21 [label="gini = 0.27\nsamples = 10\nvalue = [3, 16]\nclass = 1", fillcolor="#399de5cf"] ;
17 -> 21 ;
22 [label="CurrentlyWorkInThisRegion <= 0.5\ngini = 0.03\nsamples = 39476\nvalue = [61536, 829]\nclass = 0", fillcolor="#e58139fc"] ;
0 -> 22 [labeldistance=2.5, labelangle=-45, headlabel="False"] ;
23 [label="UndergradSchoolGPA <= 3.55\ngini = 0.03\nsamples = 38846\nvalue = [60599, 787]\nclass = 0", fillcolor="#e58139fc"] ;
22 -> 23 ;
24 [label="JobStatusFullTime <= 0.5\ngini = 0.02\nsamples = 36540\nvalue = [57031, 697]\nclass = 0", fillcolor="#e58139fc"] ;
23 -> 24 ;
25 [label="JobShiftEvening <= 0.5\ngini = 0.05\nsamples = 2879\nvalue = [4372, 106]\nclass = 0", fillcolor="#e58139f9"] ;
24 -> 25 ;
26 [label="gini = 0.07\nsamples = 851\nvalue = [1299, 52]\nclass = 0", fillcolor="#e58139f5"] ;
25 -> 26 ;
27 [label="gini = 0.03\nsamples = 2028\nvalue = [3073, 54]\nclass = 0", fillcolor="#e58139fb"] ;
25 -> 27 ;
28 [label="RecentTrainingExperience1Pokemon <= 10.5\ngini = 0.02\nsamples = 33661\nvalue = [52659, 591]\nclass = 0", fillcolor="#e58139fc"] ;
24 -> 28 ;
29 [label="gini = 0.02\nsamples = 21647\nvalue = [33946, 318]\nclass = 0", fillcolor="#e58139fd"] ;
28 -> 29 ;
30 [label="gini = 0.03\nsamples = 12014\nvalue = [18713, 273]\nclass = 0", fillcolor="#e58139fb"] ;
28 -> 30 ;
31 [label="UndergradSchoolGPA <= 3.55\ngini = 0.05\nsamples = 2306\nvalue = [3568, 90]\nclass = 0", fillcolor="#e58139f9"] ;
23 -> 31 ;
32 [label="gini = 0.0\nsamples = 1\nvalue = [0, 3]\nclass = 1", fillcolor="#399de5ff"] ;
31 -> 32 ;
33 [label="RecentTrainingExperience3From <= 475.0\ngini = 0.05\nsamples = 2305\nvalue = [3568, 87]\nclass = 0", fillcolor="#e58139f9"] ;
31 -> 33 ;
34 [label="gini = 0.04\nsamples = 2050\nvalue = [3205, 62]\nclass = 0", fillcolor="#e58139fa"] ;
33 -> 34 ;
35 [label="gini = 0.12\nsamples = 255\nvalue = [363, 25]\nclass = 0", fillcolor="#e58139ed"] ;
33 -> 35 ;
36 [label="ApplicationType <= 1.0\ngini = 0.08\nsamples = 630\nvalue = [937, 42]\nclass = 0", fillcolor="#e58139f4"] ;
22 -> 36 ;
37 [label="GraduateSchoolGraduate <= 0.5\ngini = 0.06\nsamples = 606\nvalue = [916, 28]\nclass = 0", fillcolor="#e58139f7"] ;
36 -> 37 ;
38 [label="RecentTrainingExperience4To <= 277.5\ngini = 0.05\nsamples = 574\nvalue = [869, 24]\nclass = 0", fillcolor="#e58139f8"] ;
37 -> 38 ;
39 [label="gini = 0.08\nsamples = 381\nvalue = [561, 24]\nclass = 0", fillcolor="#e58139f4"] ;
38 -> 39 ;
40 [label="gini = 0.0\nsamples = 193\nvalue = [308, 0]\nclass = 0", fillcolor="#e58139ff"] ;
38 -> 40 ;
41 [label="gini = 0.14\nsamples = 32\nvalue = [47, 4]\nclass = 0", fillcolor="#e58139e9"] ;
37 -> 41 ;
42 [label="gini = 0.48\nsamples = 24\nvalue = [21, 14]\nclass = 0", fillcolor="#e5813955"] ;
36 -> 42 ;
}