digraph Tree {
node [shape=box, style="filled, rounded", color="black", fontname=helvetica] ;
edge [fontname=helvetica] ;
0 [label="TotalYearsOfExp <= 0.0\ngini = 0.03\nsamples = 42695\nvalue = [66235, 1189]\nclass = 0", fillcolor="#e58139fa"] ;
1 [label="RecentTrainingExperienceContactForRefNo <= -0.5\ngini = 0.34\nsamples = 1347\nvalue = [1676, 454]\nclass = 0", fillcolor="#e58139ba"] ;
0 -> 1 [labeldistance=2.5, labelangle=45, headlabel="True"] ;
2 [label="RecentTrainingExperience4To <= 327.5\ngini = 0.41\nsamples = 744\nvalue = [829, 337]\nclass = 0", fillcolor="#e5813997"] ;
1 -> 2 ;
3 [label="GymBadgePerm1 <= -0.5\ngini = 0.4\nsamples = 701\nvalue = [798, 302]\nclass = 0", fillcolor="#e581399e"] ;
2 -> 3 ;
4 [label="PositionForTrainingPokemon <= 25.0\ngini = 0.46\nsamples = 237\nvalue = [227, 125]\nclass = 0", fillcolor="#e5813973"] ;
3 -> 4 ;
5 [label="gini = 0.44\nsamples = 209\nvalue = [209, 101]\nclass = 0", fillcolor="#e5813984"] ;
4 -> 5 ;
6 [label="gini = 0.49\nsamples = 28\nvalue = [18, 24]\nclass = 1", fillcolor="#399de540"] ;
4 -> 6 ;
7 [label="RecentTrainingExperience1Pokemon <= -0.5\ngini = 0.36\nsamples = 464\nvalue = [571, 177]\nclass = 0", fillcolor="#e58139b0"] ;
3 -> 7 ;
8 [label="gini = 0.27\nsamples = 223\nvalue = [293, 55]\nclass = 0", fillcolor="#e58139cf"] ;
7 -> 8 ;
9 [label="gini = 0.42\nsamples = 241\nvalue = [278, 122]\nclass = 0", fillcolor="#e581398f"] ;
7 -> 9 ;
10 [label="gini = 0.5\nsamples = 43\nvalue = [31, 35]\nclass = 1", fillcolor="#399de51d"] ;
2 -> 10 ;
11 [label="ApplyDate <= 1409.5\ngini = 0.21\nsamples = 603\nvalue = [847, 117]\nclass = 0", fillcolor="#e58139dc"] ;
1 -> 11 ;
12 [label="RecentTrainingExperience3From <= 516.5\ngini = 0.19\nsamples = 577\nvalue = [826, 101]\nclass = 0", fillcolor="#e58139e0"] ;
11 -> 12 ;
13 [label="JobShiftDay <= 0.5\ngini = 0.19\nsamples = 576\nvalue = [826, 99]\nclass = 0", fillcolor="#e58139e0"] ;
12 -> 13 ;
14 [label="gini = 0.39\nsamples = 77\nvalue = [82, 30]\nclass = 0", fillcolor="#e58139a2"] ;
13 -> 14 ;
15 [label="gini = 0.16\nsamples = 499\nvalue = [744, 69]\nclass = 0", fillcolor="#e58139e7"] ;
13 -> 15 ;
16 [label="gini = 0.0\nsamples = 1\nvalue = [0, 2]\nclass = 1", fillcolor="#399de5ff"] ;
12 -> 16 ;
17 [label="gini = 0.49\nsamples = 26\nvalue = [21, 16]\nclass = 0", fillcolor="#e581393d"] ;
11 -> 17 ;
18 [label="GymBadgeTemp3 <= -0.5\ngini = 0.02\nsamples = 41348\nvalue = [64559, 735]\nclass = 0", fillcolor="#e58139fc"] ;
0 -> 18 [labeldistance=2.5, labelangle=-45, headlabel="False"] ;
19 [label="LastPerformaceRating <= 1.5\ngini = 0.12\nsamples = 2526\nvalue = [3811, 258]\nclass = 0", fillcolor="#e58139ee"] ;
18 -> 19 ;
20 [label="RecentTrainingExperience1Pokemon <= 19.0\ngini = 0.18\nsamples = 378\nvalue = [554, 62]\nclass = 0", fillcolor="#e58139e2"] ;
19 -> 20 ;
21 [label="JobShiftDay <= 0.5\ngini = 0.14\nsamples = 307\nvalue = [459, 38]\nclass = 0", fillcolor="#e58139ea"] ;
20 -> 21 ;
22 [label="gini = 0.23\nsamples = 89\nvalue = [121, 19]\nclass = 0", fillcolor="#e58139d7"] ;
21 -> 22 ;
23 [label="gini = 0.1\nsamples = 218\nvalue = [338, 19]\nclass = 0", fillcolor="#e58139f1"] ;
21 -> 23 ;
24 [label="RecentTrainingExperience3Pokemon <= 28.5\ngini = 0.32\nsamples = 71\nvalue = [95, 24]\nclass = 0", fillcolor="#e58139bf"] ;
20 -> 24 ;
25 [label="gini = 0.29\nsamples = 70\nvalue = [95, 20]\nclass = 0", fillcolor="#e58139c9"] ;
24 -> 25 ;
26 [label="gini = 0.0\nsamples = 1\nvalue = [0, 4]\nclass = 1", fillcolor="#399de5ff"] ;
24 -> 26 ;
27 [label="HighEduLevelCompleted <= 7.0\ngini = 0.11\nsamples = 2148\nvalue = [3257, 196]\nclass = 0", fillcolor="#e58139f0"] ;
19 -> 27 ;
28 [label="HighSchoolGraduate <= -0.5\ngini = 0.1\nsamples = 2059\nvalue = [3145, 171]\nclass = 0", fillcolor="#e58139f1"] ;
27 -> 28 ;
29 [label="gini = 0.18\nsamples = 199\nvalue = [283, 31]\nclass = 0", fillcolor="#e58139e3"] ;
28 -> 29 ;
30 [label="gini = 0.09\nsamples = 1860\nvalue = [2862, 140]\nclass = 0", fillcolor="#e58139f3"] ;
28 -> 30 ;
31 [label="JobStatusFullTime <= 0.5\ngini = 0.3\nsamples = 89\nvalue = [112, 25]\nclass = 0", fillcolor="#e58139c6"] ;
27 -> 31 ;
32 [label="gini = 0.26\nsamples = 17\nvalue = [28, 5]\nclass = 0", fillcolor="#e58139d1"] ;
31 -> 32 ;
33 [label="gini = 0.31\nsamples = 72\nvalue = [84, 20]\nclass = 0", fillcolor="#e58139c2"] ;
31 -> 33 ;
34 [label="JobStatusPartTime <= 0.5\ngini = 0.02\nsamples = 38822\nvalue = [60748, 477]\nclass = 0", fillcolor="#e58139fd"] ;
18 -> 34 ;
35 [label="UndergradSchoolGraduate <= 0.5\ngini = 0.02\nsamples = 15313\nvalue = [23757, 277]\nclass = 0", fillcolor="#e58139fc"] ;
34 -> 35 ;
36 [label="RecentTrainingExperience1PayRateEndValue <= 0.5\ngini = 0.02\nsamples = 10405\nvalue = [16170, 141]\nclass = 0", fillcolor="#e58139fd"] ;
35 -> 36 ;
37 [label="gini = 0.03\nsamples = 2259\nvalue = [3447, 47]\nclass = 0", fillcolor="#e58139fc"] ;
36 -> 37 ;
38 [label="gini = 0.01\nsamples = 8146\nvalue = [12723, 94]\nclass = 0", fillcolor="#e58139fd"] ;
36 -> 38 ;
39 [label="JobShiftEvening <= 0.5\ngini = 0.03\nsamples = 4908\nvalue = [7587, 136]\nclass = 0", fillcolor="#e58139fa"] ;
35 -> 39 ;
40 [label="gini = 0.05\nsamples = 2179\nvalue = [3369, 95]\nclass = 0", fillcolor="#e58139f8"] ;
39 -> 40 ;
41 [label="gini = 0.02\nsamples = 2729\nvalue = [4218, 41]\nclass = 0", fillcolor="#e58139fd"] ;
39 -> 41 ;
42 [label="HighEduLevelCompleted <= 7.5\ngini = 0.01\nsamples = 23509\nvalue = [36991, 200]\nclass = 0", fillcolor="#e58139fe"] ;
34 -> 42 ;
43 [label="GymBadge1Pokemon <= 24.5\ngini = 0.01\nsamples = 20485\nvalue = [32289, 144]\nclass = 0", fillcolor="#e58139fe"] ;
42 -> 43 ;
44 [label="gini = 0.01\nsamples = 18542\nvalue = [29253, 118]\nclass = 0", fillcolor="#e58139fe"] ;
43 -> 44 ;
45 [label="gini = 0.02\nsamples = 1943\nvalue = [3036, 26]\nclass = 0", fillcolor="#e58139fd"] ;
43 -> 45 ;
46 [label="RecentTrainingExperience1PayRateEndValue <= 3164.0\ngini = 0.02\nsamples = 3024\nvalue = [4702, 56]\nclass = 0", fillcolor="#e58139fc"] ;
42 -> 46 ;
47 [label="gini = 0.02\nsamples = 2899\nvalue = [4507, 47]\nclass = 0", fillcolor="#e58139fc"] ;
46 -> 47 ;
48 [label="gini = 0.08\nsamples = 125\nvalue = [195, 9]\nclass = 0", fillcolor="#e58139f3"] ;
46 -> 48 ;
}