digraph Tree {
node [shape=box, style="filled, rounded", color="black", fontname=helvetica] ;
edge [fontname=helvetica] ;
0 [label="HighEduLevelCompleted <= -0.5\ngini = 0.04\nsamples = 42676\nvalue = [66215, 1209]\nclass = 0", fillcolor="#e58139fa"] ;
1 [label="RecentTrainingExperience1ContactForRef <= -0.5\ngini = 0.33\nsamples = 505\nvalue = [643, 173]\nclass = 0", fillcolor="#e58139ba"] ;
0 -> 1 [labeldistance=2.5, labelangle=45, headlabel="True"] ;
2 [label="ApplicationType <= 1.0\ngini = 0.43\nsamples = 282\nvalue = [306, 143]\nclass = 0", fillcolor="#e5813988"] ;
1 -> 2 ;
3 [label="RecentTrainingExperience3Pokemon <= -0.5\ngini = 0.38\nsamples = 182\nvalue = [208, 72]\nclass = 0", fillcolor="#e58139a7"] ;
2 -> 3 ;
4 [label="RecentTrainingExperience1From <= 212.5\ngini = 0.41\nsamples = 162\nvalue = [181, 72]\nclass = 0", fillcolor="#e581399a"] ;
3 -> 4 ;
5 [label="gini = 0.46\nsamples = 122\nvalue = [127, 71]\nclass = 0", fillcolor="#e5813970"] ;
4 -> 5 ;
6 [label="gini = 0.04\nsamples = 40\nvalue = [54, 1]\nclass = 0", fillcolor="#e58139fa"] ;
4 -> 6 ;
7 [label="gini = 0.0\nsamples = 20\nvalue = [27, 0]\nclass = 0", fillcolor="#e58139ff"] ;
3 -> 7 ;
8 [label="WorkingForJobAppliedFor <= -0.5\ngini = 0.49\nsamples = 100\nvalue = [98, 71]\nclass = 0", fillcolor="#e5813946"] ;
2 -> 8 ;
9 [label="gini = 0.0\nsamples = 11\nvalue = [20, 0]\nclass = 0", fillcolor="#e58139ff"] ;
8 -> 9 ;
10 [label="PokemonTrainerClass <= 6.0\ngini = 0.5\nsamples = 89\nvalue = [78, 71]\nclass = 0", fillcolor="#e5813917"] ;
8 -> 10 ;
11 [label="gini = 0.48\nsamples = 69\nvalue = [44, 68]\nclass = 1", fillcolor="#399de55a"] ;
10 -> 11 ;
12 [label="gini = 0.15\nsamples = 20\nvalue = [34, 3]\nclass = 0", fillcolor="#e58139e9"] ;
10 -> 12 ;
13 [label="RecentTrainingExperience1To <= 223.5\ngini = 0.15\nsamples = 223\nvalue = [337, 30]\nclass = 0", fillcolor="#e58139e8"] ;
1 -> 13 ;
14 [label="GymBadge1Pokemon <= 10.5\ngini = 0.14\nsamples = 216\nvalue = [329, 26]\nclass = 0", fillcolor="#e58139eb"] ;
13 -> 14 ;
15 [label="HighSchoolGPA <= 2.9\ngini = 0.08\nsamples = 195\nvalue = [305, 14]\nclass = 0", fillcolor="#e58139f3"] ;
14 -> 15 ;
16 [label="gini = 0.07\nsamples = 179\nvalue = [283, 10]\nclass = 0", fillcolor="#e58139f6"] ;
15 -> 16 ;
17 [label="gini = 0.26\nsamples = 16\nvalue = [22, 4]\nclass = 0", fillcolor="#e58139d1"] ;
15 -> 17 ;
18 [label="gini = 0.44\nsamples = 21\nvalue = [24, 12]\nclass = 0", fillcolor="#e581397f"] ;
14 -> 18 ;
19 [label="gini = 0.44\nsamples = 7\nvalue = [8, 4]\nclass = 0", fillcolor="#e581397f"] ;
13 -> 19 ;
20 [label="GymBadgePerm4 <= -0.5\ngini = 0.03\nsamples = 42171\nvalue = [65572, 1036]\nclass = 0", fillcolor="#e58139fb"] ;
0 -> 20 [labeldistance=2.5, labelangle=-45, headlabel="False"] ;
21 [label="PokemonTrainerClass <= 6.5\ngini = 0.12\nsamples = 2559\nvalue = [3842, 260]\nclass = 0", fillcolor="#e58139ee"] ;
20 -> 21 ;
22 [label="JobShiftEvening <= 0.5\ngini = 0.15\nsamples = 1554\nvalue = [2265, 206]\nclass = 0", fillcolor="#e58139e8"] ;
21 -> 22 ;
23 [label="GraduateSchoolGraduate <= -0.5\ngini = 0.2\nsamples = 820\nvalue = [1147, 147]\nclass = 0", fillcolor="#e58139de"] ;
22 -> 23 ;
24 [label="gini = 0.18\nsamples = 709\nvalue = [1004, 108]\nclass = 0", fillcolor="#e58139e4"] ;
23 -> 24 ;
25 [label="gini = 0.34\nsamples = 111\nvalue = [143, 39]\nclass = 0", fillcolor="#e58139b9"] ;
23 -> 25 ;
26 [label="CurrentlyTrainingPokemon <= 27.5\ngini = 0.1\nsamples = 734\nvalue = [1118, 59]\nclass = 0", fillcolor="#e58139f2"] ;
22 -> 26 ;
27 [label="gini = 0.09\nsamples = 711\nvalue = [1088, 54]\nclass = 0", fillcolor="#e58139f2"] ;
26 -> 27 ;
28 [label="gini = 0.24\nsamples = 23\nvalue = [30, 5]\nclass = 0", fillcolor="#e58139d4"] ;
26 -> 28 ;
29 [label="RecentTrainingExperience2Pokemon <= 5.5\ngini = 0.06\nsamples = 1005\nvalue = [1577, 54]\nclass = 0", fillcolor="#e58139f6"] ;
21 -> 29 ;
30 [label="TotalYearsOfExp <= 4.0\ngini = 0.08\nsamples = 539\nvalue = [835, 37]\nclass = 0", fillcolor="#e58139f4"] ;
29 -> 30 ;
31 [label="gini = 0.05\nsamples = 335\nvalue = [538, 15]\nclass = 0", fillcolor="#e58139f8"] ;
30 -> 31 ;
32 [label="gini = 0.13\nsamples = 204\nvalue = [297, 22]\nclass = 0", fillcolor="#e58139ec"] ;
30 -> 32 ;
33 [label="JobShiftRotating <= 0.5\ngini = 0.04\nsamples = 466\nvalue = [742, 17]\nclass = 0", fillcolor="#e58139f9"] ;
29 -> 33 ;
34 [label="gini = 0.05\nsamples = 381\nvalue = [598, 17]\nclass = 0", fillcolor="#e58139f8"] ;
33 -> 34 ;
35 [label="gini = 0.0\nsamples = 85\nvalue = [144, 0]\nclass = 0", fillcolor="#e58139ff"] ;
33 -> 35 ;
36 [label="RecentTrainingExperience4PayRateEndValue <= 1370.5\ngini = 0.02\nsamples = 39612\nvalue = [61730, 776]\nclass = 0", fillcolor="#e58139fc"] ;
20 -> 36 ;
37 [label="RecentTrainingExperience4From <= 531.0\ngini = 0.02\nsamples = 39609\nvalue = [61727, 774]\nclass = 0", fillcolor="#e58139fc"] ;
36 -> 37 ;
38 [label="GymBadgePerm1 <= 0.5\ngini = 0.02\nsamples = 39608\nvalue = [61727, 773]\nclass = 0", fillcolor="#e58139fc"] ;
37 -> 38 ;
39 [label="gini = 0.02\nsamples = 26487\nvalue = [41448, 388]\nclass = 0", fillcolor="#e58139fd"] ;
38 -> 39 ;
40 [label="gini = 0.04\nsamples = 13121\nvalue = [20279, 385]\nclass = 0", fillcolor="#e58139fa"] ;
38 -> 40 ;
41 [label="gini = 0.0\nsamples = 1\nvalue = [0, 1]\nclass = 1", fillcolor="#399de5ff"] ;
37 -> 41 ;
42 [label="gini = 0.48\nsamples = 3\nvalue = [3, 2]\nclass = 0", fillcolor="#e5813955"] ;
36 -> 42 ;
}