digraph Tree {
node [shape=box, style="filled, rounded", color="black", fontname=helvetica] ;
edge [fontname=helvetica] ;
0 [label="HighEduLevelCompleted <= -0.5\ngini = 0.04\nsamples = 42695\nvalue = [66210, 1214]\nclass = 0", fillcolor="#e58139fa"] ;
1 [label="TotalYearsOfExp <= 0.0\ngini = 0.34\nsamples = 516\nvalue = [622, 173]\nclass = 0", fillcolor="#e58139b8"] ;
0 -> 1 [labeldistance=2.5, labelangle=45, headlabel="True"] ;
2 [label="GymBadgePerm2 <= -0.5\ngini = 0.45\nsamples = 318\nvalue = [325, 173]\nclass = 0", fillcolor="#e5813977"] ;
1 -> 2 ;
3 [label="RecentTrainingExperience3From <= 32.5\ngini = 0.48\nsamples = 233\nvalue = [219, 143]\nclass = 0", fillcolor="#e5813958"] ;
2 -> 3 ;
4 [label="PokemonWorldRegion <= 1.5\ngini = 0.46\nsamples = 177\nvalue = [174, 94]\nclass = 0", fillcolor="#e5813975"] ;
3 -> 4 ;
5 [label="gini = 0.49\nsamples = 33\nvalue = [21, 27]\nclass = 1", fillcolor="#399de539"] ;
4 -> 5 ;
6 [label="gini = 0.42\nsamples = 144\nvalue = [153, 67]\nclass = 0", fillcolor="#e581398f"] ;
4 -> 6 ;
7 [label="JobPostingDate <= 653.0\ngini = 0.5\nsamples = 56\nvalue = [45, 49]\nclass = 1", fillcolor="#399de515"] ;
3 -> 7 ;
8 [label="gini = 0.39\nsamples = 20\nvalue = [22, 8]\nclass = 0", fillcolor="#e58139a2"] ;
7 -> 8 ;
9 [label="gini = 0.46\nsamples = 36\nvalue = [23, 41]\nclass = 1", fillcolor="#399de570"] ;
7 -> 9 ;
10 [label="RecentTrainingExperience3PayRateEndValue <= 4.0\ngini = 0.34\nsamples = 85\nvalue = [106, 30]\nclass = 0", fillcolor="#e58139b7"] ;
2 -> 10 ;
11 [label="GymBadgePerm1 <= 0.5\ngini = 0.24\nsamples = 72\nvalue = [99, 16]\nclass = 0", fillcolor="#e58139d6"] ;
10 -> 11 ;
12 [label="gini = 0.13\nsamples = 60\nvalue = [90, 7]\nclass = 0", fillcolor="#e58139eb"] ;
11 -> 12 ;
13 [label="gini = 0.5\nsamples = 12\nvalue = [9, 9]\nclass = 0", fillcolor="#e5813900"] ;
11 -> 13 ;
14 [label="gini = 0.44\nsamples = 13\nvalue = [7, 14]\nclass = 1", fillcolor="#399de57f"] ;
10 -> 14 ;
15 [label="gini = 0.0\nsamples = 198\nvalue = [297, 0]\nclass = 0", fillcolor="#e58139ff"] ;
1 -> 15 ;
16 [label="SpokenWithCurrentBoss <= 0.5\ngini = 0.03\nsamples = 42179\nvalue = [65588, 1041]\nclass = 0", fillcolor="#e58139fb"] ;
0 -> 16 [labeldistance=2.5, labelangle=-45, headlabel="False"] ;
17 [label="JobShiftEvening <= 0.5\ngini = 0.03\nsamples = 40470\nvalue = [63128, 825]\nclass = 0", fillcolor="#e58139fc"] ;
16 -> 17 ;
18 [label="TotalYearsOfExp <= 0.0\ngini = 0.04\nsamples = 11833\nvalue = [18367, 349]\nclass = 0", fillcolor="#e58139fa"] ;
17 -> 18 ;
19 [label="RecentTrainingExperience1To <= 212.5\ngini = 0.31\nsamples = 287\nvalue = [380, 90]\nclass = 0", fillcolor="#e58139c3"] ;
18 -> 19 ;
20 [label="gini = 0.28\nsamples = 248\nvalue = [339, 67]\nclass = 0", fillcolor="#e58139cd"] ;
19 -> 20 ;
21 [label="gini = 0.46\nsamples = 39\nvalue = [41, 23]\nclass = 0", fillcolor="#e5813970"] ;
19 -> 21 ;
22 [label="GraduateSchoolGraduate <= 0.5\ngini = 0.03\nsamples = 11546\nvalue = [17987, 259]\nclass = 0", fillcolor="#e58139fb"] ;
18 -> 22 ;
23 [label="gini = 0.02\nsamples = 10486\nvalue = [16375, 204]\nclass = 0", fillcolor="#e58139fc"] ;
22 -> 23 ;
24 [label="gini = 0.06\nsamples = 1060\nvalue = [1612, 55]\nclass = 0", fillcolor="#e58139f6"] ;
22 -> 24 ;
25 [label="TotalYearsOfExp <= 0.0\ngini = 0.02\nsamples = 28637\nvalue = [44761, 476]\nclass = 0", fillcolor="#e58139fc"] ;
17 -> 25 ;
26 [label="RecentTrainingExperience4EmploymentStatus <= -0.5\ngini = 0.3\nsamples = 713\nvalue = [906, 199]\nclass = 0", fillcolor="#e58139c7"] ;
25 -> 26 ;
27 [label="gini = 0.26\nsamples = 470\nvalue = [628, 114]\nclass = 0", fillcolor="#e58139d1"] ;
26 -> 27 ;
28 [label="gini = 0.36\nsamples = 243\nvalue = [278, 85]\nclass = 0", fillcolor="#e58139b1"] ;
26 -> 28 ;
29 [label="JobStatusPartTime <= 0.5\ngini = 0.01\nsamples = 27924\nvalue = [43855, 277]\nclass = 0", fillcolor="#e58139fd"] ;
25 -> 29 ;
30 [label="gini = 0.02\nsamples = 8348\nvalue = [13124, 133]\nclass = 0", fillcolor="#e58139fc"] ;
29 -> 30 ;
31 [label="gini = 0.01\nsamples = 19576\nvalue = [30731, 144]\nclass = 0", fillcolor="#e58139fe"] ;
29 -> 31 ;
32 [label="RecentTrainingExperience2To <= 275.5\ngini = 0.15\nsamples = 1709\nvalue = [2460, 216]\nclass = 0", fillcolor="#e58139e9"] ;
16 -> 32 ;
33 [label="RecentTrainingExperience1Pokemon <= 24.0\ngini = 0.23\nsamples = 576\nvalue = [794, 121]\nclass = 0", fillcolor="#e58139d8"] ;
32 -> 33 ;
34 [label="JobShiftEvening <= 0.5\ngini = 0.2\nsamples = 500\nvalue = [704, 89]\nclass = 0", fillcolor="#e58139df"] ;
33 -> 34 ;
35 [label="gini = 0.27\nsamples = 279\nvalue = [367, 72]\nclass = 0", fillcolor="#e58139cd"] ;
34 -> 35 ;
36 [label="gini = 0.09\nsamples = 221\nvalue = [337, 17]\nclass = 0", fillcolor="#e58139f2"] ;
34 -> 36 ;
37 [label="RecentTrainingExperience1From <= 484.5\ngini = 0.39\nsamples = 76\nvalue = [90, 32]\nclass = 0", fillcolor="#e58139a4"] ;
33 -> 37 ;
38 [label="gini = 0.37\nsamples = 74\nvalue = [90, 29]\nclass = 0", fillcolor="#e58139ad"] ;
37 -> 38 ;
39 [label="gini = 0.0\nsamples = 2\nvalue = [0, 3]\nclass = 1", fillcolor="#399de5ff"] ;
37 -> 39 ;
40 [label="UndergradSchoolGraduate <= 0.5\ngini = 0.1\nsamples = 1133\nvalue = [1666, 95]\nclass = 0", fillcolor="#e58139f0"] ;
32 -> 40 ;
41 [label="GymBadge1Pokemon <= 26.0\ngini = 0.06\nsamples = 804\nvalue = [1194, 40]\nclass = 0", fillcolor="#e58139f6"] ;
40 -> 41 ;
42 [label="gini = 0.06\nsamples = 803\nvalue = [1194, 38]\nclass = 0", fillcolor="#e58139f7"] ;
41 -> 42 ;
43 [label="gini = 0.0\nsamples = 1\nvalue = [0, 2]\nclass = 1", fillcolor="#399de5ff"] ;
41 -> 43 ;
44 [label="RecentTrainingExperience1From <= 465.5\ngini = 0.19\nsamples = 329\nvalue = [472, 55]\nclass = 0", fillcolor="#e58139e1"] ;
40 -> 44 ;
45 [label="gini = 0.23\nsamples = 249\nvalue = [347, 53]\nclass = 0", fillcolor="#e58139d8"] ;
44 -> 45 ;
46 [label="gini = 0.03\nsamples = 80\nvalue = [125, 2]\nclass = 0", fillcolor="#e58139fb"] ;
44 -> 46 ;
}