digraph Tree {
node [shape=box, style="filled, rounded", color="black", fontname=helvetica] ;
edge [fontname=helvetica] ;
0 [label="JobShiftRotating <= -0.5\ngini = 0.03\nsamples = 42607\nvalue = [66226, 1198]\nclass = 0", fillcolor="#e58139fa"] ;
1 [label="ApplicationType <= 1.5\ngini = 0.42\nsamples = 173\nvalue = [175, 75]\nclass = 0", fillcolor="#e5813992"] ;
0 -> 1 [labeldistance=2.5, labelangle=45, headlabel="True"] ;
2 [label="PokemonWorldRegion <= 1.5\ngini = 0.43\nsamples = 160\nvalue = [158, 73]\nclass = 0", fillcolor="#e5813989"] ;
1 -> 2 ;
3 [label="gini = 0.44\nsamples = 29\nvalue = [14, 28]\nclass = 1", fillcolor="#399de57f"] ;
2 -> 3 ;
4 [label="ApplyDate <= 33.0\ngini = 0.36\nsamples = 131\nvalue = [144, 45]\nclass = 0", fillcolor="#e58139af"] ;
2 -> 4 ;
5 [label="gini = 0.44\nsamples = 4\nvalue = [3, 6]\nclass = 1", fillcolor="#399de57f"] ;
4 -> 5 ;
6 [label="PokemonTrainerClass <= 3.5\ngini = 0.34\nsamples = 127\nvalue = [141, 39]\nclass = 0", fillcolor="#e58139b8"] ;
4 -> 6 ;
7 [label="gini = 0.15\nsamples = 45\nvalue = [57, 5]\nclass = 0", fillcolor="#e58139e9"] ;
6 -> 7 ;
8 [label="gini = 0.41\nsamples = 82\nvalue = [84, 34]\nclass = 0", fillcolor="#e5813998"] ;
6 -> 8 ;
9 [label="gini = 0.19\nsamples = 13\nvalue = [17, 2]\nclass = 0", fillcolor="#e58139e1"] ;
1 -> 9 ;
10 [label="RecentTrainingExperience1ContactForRef <= -0.5\ngini = 0.03\nsamples = 42434\nvalue = [66051, 1123]\nclass = 0", fillcolor="#e58139fb"] ;
0 -> 10 [labeldistance=2.5, labelangle=-45, headlabel="False"] ;
11 [label="HighSchoolGraduate <= -0.5\ngini = 0.14\nsamples = 2625\nvalue = [3842, 322]\nclass = 0", fillcolor="#e58139ea"] ;
10 -> 11 ;
12 [label="HighEduLevelCompleted <= -0.5\ngini = 0.26\nsamples = 306\nvalue = [394, 71]\nclass = 0", fillcolor="#e58139d1"] ;
11 -> 12 ;
13 [label="gini = 0.5\nsamples = 24\nvalue = [20, 22]\nclass = 1", fillcolor="#399de517"] ;
12 -> 13 ;
14 [label="GymBadge1Pokemon <= 26.0\ngini = 0.2\nsamples = 282\nvalue = [374, 49]\nclass = 0", fillcolor="#e58139de"] ;
12 -> 14 ;
15 [label="gini = 0.2\nsamples = 280\nvalue = [374, 46]\nclass = 0", fillcolor="#e58139e0"] ;
14 -> 15 ;
16 [label="gini = 0.0\nsamples = 2\nvalue = [0, 3]\nclass = 1", fillcolor="#399de5ff"] ;
14 -> 16 ;
17 [label="JobStatusPartTime <= 0.5\ngini = 0.13\nsamples = 2319\nvalue = [3448, 251]\nclass = 0", fillcolor="#e58139ec"] ;
11 -> 17 ;
18 [label="JobShiftRotating <= 0.5\ngini = 0.16\nsamples = 1508\nvalue = [2200, 209]\nclass = 0", fillcolor="#e58139e7"] ;
17 -> 18 ;
19 [label="gini = 0.17\nsamples = 1270\nvalue = [1838, 196]\nclass = 0", fillcolor="#e58139e4"] ;
18 -> 19 ;
20 [label="gini = 0.07\nsamples = 238\nvalue = [362, 13]\nclass = 0", fillcolor="#e58139f6"] ;
18 -> 20 ;
21 [label="RecentTrainingExperience3From <= 217.5\ngini = 0.06\nsamples = 811\nvalue = [1248, 42]\nclass = 0", fillcolor="#e58139f6"] ;
17 -> 21 ;
22 [label="gini = 0.09\nsamples = 268\nvalue = [408, 21]\nclass = 0", fillcolor="#e58139f2"] ;
21 -> 22 ;
23 [label="gini = 0.05\nsamples = 543\nvalue = [840, 21]\nclass = 0", fillcolor="#e58139f9"] ;
21 -> 23 ;
24 [label="GraduateSchoolGraduate <= 0.5\ngini = 0.03\nsamples = 39809\nvalue = [62209, 801]\nclass = 0", fillcolor="#e58139fc"] ;
10 -> 24 ;
25 [label="PokemonTrainerClass <= 6.5\ngini = 0.02\nsamples = 37103\nvalue = [58049, 666]\nclass = 0", fillcolor="#e58139fc"] ;
24 -> 25 ;
26 [label="JobShiftNight <= 0.5\ngini = 0.03\nsamples = 27948\nvalue = [43656, 585]\nclass = 0", fillcolor="#e58139fc"] ;
25 -> 26 ;
27 [label="gini = 0.03\nsamples = 10109\nvalue = [15630, 270]\nclass = 0", fillcolor="#e58139fb"] ;
26 -> 27 ;
28 [label="gini = 0.02\nsamples = 17839\nvalue = [28026, 315]\nclass = 0", fillcolor="#e58139fc"] ;
26 -> 28 ;
29 [label="RecentTrainingExperience3Pokemon <= 29.0\ngini = 0.01\nsamples = 9155\nvalue = [14393, 81]\nclass = 0", fillcolor="#e58139fe"] ;
25 -> 29 ;
30 [label="gini = 0.01\nsamples = 8679\nvalue = [13646, 65]\nclass = 0", fillcolor="#e58139fe"] ;
29 -> 30 ;
31 [label="gini = 0.04\nsamples = 476\nvalue = [747, 16]\nclass = 0", fillcolor="#e58139fa"] ;
29 -> 31 ;
32 [label="TotalYearsOfExp <= 0.0\ngini = 0.06\nsamples = 2706\nvalue = [4160, 135]\nclass = 0", fillcolor="#e58139f7"] ;
24 -> 32 ;
33 [label="RecentTrainingExperience4From <= 464.5\ngini = 0.33\nsamples = 115\nvalue = [146, 39]\nclass = 0", fillcolor="#e58139bb"] ;
32 -> 33 ;
34 [label="gini = 0.32\nsamples = 113\nvalue = [146, 37]\nclass = 0", fillcolor="#e58139be"] ;
33 -> 34 ;
35 [label="gini = 0.0\nsamples = 2\nvalue = [0, 2]\nclass = 1", fillcolor="#399de5ff"] ;
33 -> 35 ;
36 [label="RecentTrainingExperience4From <= 512.0\ngini = 0.05\nsamples = 2591\nvalue = [4014, 96]\nclass = 0", fillcolor="#e58139f9"] ;
32 -> 36 ;
37 [label="gini = 0.04\nsamples = 2587\nvalue = [4006, 93]\nclass = 0", fillcolor="#e58139f9"] ;
36 -> 37 ;
38 [label="gini = 0.4\nsamples = 4\nvalue = [8, 3]\nclass = 0", fillcolor="#e581399f"] ;
36 -> 38 ;
}