digraph Tree {
node [shape=box, style="filled, rounded", color="black", fontname=helvetica] ;
edge [fontname=helvetica] ;
0 [label="HighEduLevelCompleted <= -0.5\ngini = 0.04\nsamples = 42644\nvalue = [66173, 1251]\nclass = 0", fillcolor="#e58139fa"] ;
1 [label="RecentTrainingExperience1ContactForRef <= -0.5\ngini = 0.34\nsamples = 509\nvalue = [634, 174]\nclass = 0", fillcolor="#e58139b9"] ;
0 -> 1 [labeldistance=2.5, labelangle=45, headlabel="True"] ;
2 [label="JobPostingDate <= 183.0\ngini = 0.45\nsamples = 281\nvalue = [296, 150]\nclass = 0", fillcolor="#e581397e"] ;
1 -> 2 ;
3 [label="PokemonTrainerClass <= 5.5\ngini = 0.16\nsamples = 93\nvalue = [125, 12]\nclass = 0", fillcolor="#e58139e7"] ;
2 -> 3 ;
4 [label="JobSchedule <= -0.5\ngini = 0.21\nsamples = 66\nvalue = [82, 11]\nclass = 0", fillcolor="#e58139dd"] ;
3 -> 4 ;
5 [label="gini = 0.0\nsamples = 1\nvalue = [3, 0]\nclass = 0", fillcolor="#e58139ff"] ;
4 -> 5 ;
6 [label="gini = 0.21\nsamples = 65\nvalue = [79, 11]\nclass = 0", fillcolor="#e58139db"] ;
4 -> 6 ;
7 [label="gini = 0.04\nsamples = 27\nvalue = [43, 1]\nclass = 0", fillcolor="#e58139f9"] ;
3 -> 7 ;
8 [label="WorkingForJobAppliedFor <= -0.5\ngini = 0.49\nsamples = 188\nvalue = [171, 138]\nclass = 0", fillcolor="#e5813931"] ;
2 -> 8 ;
9 [label="InternalEmployee <= 0.5\ngini = 0.47\nsamples = 61\nvalue = [39, 67]\nclass = 1", fillcolor="#399de56b"] ;
8 -> 9 ;
10 [label="gini = 0.49\nsamples = 54\nvalue = [39, 53]\nclass = 1", fillcolor="#399de543"] ;
9 -> 10 ;
11 [label="gini = 0.0\nsamples = 7\nvalue = [0, 14]\nclass = 1", fillcolor="#399de5ff"] ;
9 -> 11 ;
12 [label="ApplicationType <= 1.0\ngini = 0.45\nsamples = 127\nvalue = [132, 71]\nclass = 0", fillcolor="#e5813976"] ;
8 -> 12 ;
13 [label="gini = 0.11\nsamples = 53\nvalue = [78, 5]\nclass = 0", fillcolor="#e58139ef"] ;
12 -> 13 ;
14 [label="gini = 0.5\nsamples = 74\nvalue = [54, 66]\nclass = 1", fillcolor="#399de52e"] ;
12 -> 14 ;
15 [label="RecentTrainingExperience3From <= 337.0\ngini = 0.12\nsamples = 228\nvalue = [338, 24]\nclass = 0", fillcolor="#e58139ed"] ;
1 -> 15 ;
16 [label="RecentTrainingExperience2To <= 398.5\ngini = 0.06\nsamples = 179\nvalue = [274, 9]\nclass = 0", fillcolor="#e58139f7"] ;
15 -> 16 ;
17 [label="WorkedInThisRegion <= 0.5\ngini = 0.04\nsamples = 173\nvalue = [268, 6]\nclass = 0", fillcolor="#e58139f9"] ;
16 -> 17 ;
18 [label="gini = 0.03\nsamples = 167\nvalue = [260, 4]\nclass = 0", fillcolor="#e58139fb"] ;
17 -> 18 ;
19 [label="gini = 0.32\nsamples = 6\nvalue = [8, 2]\nclass = 0", fillcolor="#e58139bf"] ;
17 -> 19 ;
20 [label="gini = 0.44\nsamples = 6\nvalue = [6, 3]\nclass = 0", fillcolor="#e581397f"] ;
16 -> 20 ;
21 [label="gini = 0.31\nsamples = 49\nvalue = [64, 15]\nclass = 0", fillcolor="#e58139c3"] ;
15 -> 21 ;
22 [label="RecentTrainingExperience1To <= -0.5\ngini = 0.03\nsamples = 42135\nvalue = [65539, 1077]\nclass = 0", fillcolor="#e58139fb"] ;
0 -> 22 [labeldistance=2.5, labelangle=-45, headlabel="False"] ;
23 [label="RecentTrainingExperience1From <= 215.5\ngini = 0.07\nsamples = 5476\nvalue = [8303, 329]\nclass = 0", fillcolor="#e58139f5"] ;
22 -> 23 ;
24 [label="RecentTrainingExperience2ContactForRef <= 0.5\ngini = 0.02\nsamples = 1814\nvalue = [2816, 29]\nclass = 0", fillcolor="#e58139fc"] ;
23 -> 24 ;
25 [label="HighEduLevelCompleted <= 3.5\ngini = 0.01\nsamples = 673\nvalue = [1026, 4]\nclass = 0", fillcolor="#e58139fe"] ;
24 -> 25 ;
26 [label="gini = 0.03\nsamples = 120\nvalue = [176, 3]\nclass = 0", fillcolor="#e58139fb"] ;
25 -> 26 ;
27 [label="gini = 0.0\nsamples = 553\nvalue = [850, 1]\nclass = 0", fillcolor="#e58139ff"] ;
25 -> 27 ;
28 [label="RecentTrainingExperience3Pokemon <= 9.5\ngini = 0.03\nsamples = 1141\nvalue = [1790, 25]\nclass = 0", fillcolor="#e58139fb"] ;
24 -> 28 ;
29 [label="gini = 0.01\nsamples = 835\nvalue = [1315, 10]\nclass = 0", fillcolor="#e58139fd"] ;
28 -> 29 ;
30 [label="gini = 0.06\nsamples = 306\nvalue = [475, 15]\nclass = 0", fillcolor="#e58139f7"] ;
28 -> 30 ;
31 [label="GymBadgePerm2 <= -0.5\ngini = 0.1\nsamples = 3662\nvalue = [5487, 300]\nclass = 0", fillcolor="#e58139f1"] ;
23 -> 31 ;
32 [label="JobShiftEvening <= 0.5\ngini = 0.13\nsamples = 2450\nvalue = [3649, 268]\nclass = 0", fillcolor="#e58139ec"] ;
31 -> 32 ;
33 [label="gini = 0.17\nsamples = 1280\nvalue = [1816, 184]\nclass = 0", fillcolor="#e58139e5"] ;
32 -> 33 ;
34 [label="gini = 0.08\nsamples = 1170\nvalue = [1833, 84]\nclass = 0", fillcolor="#e58139f3"] ;
32 -> 34 ;
35 [label="ApplicationType <= 1.0\ngini = 0.03\nsamples = 1212\nvalue = [1838, 32]\nclass = 0", fillcolor="#e58139fb"] ;
31 -> 35 ;
36 [label="gini = 0.01\nsamples = 1182\nvalue = [1810, 10]\nclass = 0", fillcolor="#e58139fe"] ;
35 -> 36 ;
37 [label="gini = 0.49\nsamples = 30\nvalue = [28, 22]\nclass = 0", fillcolor="#e5813937"] ;
35 -> 37 ;
38 [label="CurrentlyEmployed <= 0.5\ngini = 0.03\nsamples = 36659\nvalue = [57236, 748]\nclass = 0", fillcolor="#e58139fc"] ;
22 -> 38 ;
39 [label="ApplicationType <= 1.0\ngini = 0.02\nsamples = 19968\nvalue = [31158, 319]\nclass = 0", fillcolor="#e58139fc"] ;
38 -> 39 ;
40 [label="RecentTrainingExperience1To <= 316.5\ngini = 0.01\nsamples = 19632\nvalue = [30726, 215]\nclass = 0", fillcolor="#e58139fd"] ;
39 -> 40 ;
41 [label="gini = 0.01\nsamples = 19630\nvalue = [30724, 214]\nclass = 0", fillcolor="#e58139fd"] ;
40 -> 41 ;
42 [label="gini = 0.44\nsamples = 2\nvalue = [2, 1]\nclass = 0", fillcolor="#e581397f"] ;
40 -> 42 ;
43 [label="RecentTrainingExperienceContactForRefNo <= -0.5\ngini = 0.31\nsamples = 336\nvalue = [432, 104]\nclass = 0", fillcolor="#e58139c2"] ;
39 -> 43 ;
44 [label="gini = 0.43\nsamples = 113\nvalue = [129, 58]\nclass = 0", fillcolor="#e581398c"] ;
43 -> 44 ;
45 [label="gini = 0.23\nsamples = 223\nvalue = [303, 46]\nclass = 0", fillcolor="#e58139d8"] ;
43 -> 45 ;
46 [label="GymBadgePerm1 <= 0.5\ngini = 0.03\nsamples = 16691\nvalue = [26078, 429]\nclass = 0", fillcolor="#e58139fb"] ;
38 -> 46 ;
47 [label="RecentTrainingExperience2From <= 565.5\ngini = 0.02\nsamples = 9996\nvalue = [15674, 192]\nclass = 0", fillcolor="#e58139fc"] ;
46 -> 47 ;
48 [label="gini = 0.02\nsamples = 9829\nvalue = [15418, 180]\nclass = 0", fillcolor="#e58139fc"] ;
47 -> 48 ;
49 [label="gini = 0.09\nsamples = 167\nvalue = [256, 12]\nclass = 0", fillcolor="#e58139f3"] ;
47 -> 49 ;
50 [label="GraduateSchoolGraduate <= 0.5\ngini = 0.04\nsamples = 6695\nvalue = [10404, 237]\nclass = 0", fillcolor="#e58139f9"] ;
46 -> 50 ;
51 [label="gini = 0.04\nsamples = 5968\nvalue = [9294, 177]\nclass = 0", fillcolor="#e58139fa"] ;
50 -> 51 ;
52 [label="gini = 0.1\nsamples = 727\nvalue = [1110, 60]\nclass = 0", fillcolor="#e58139f1"] ;
50 -> 52 ;
}