digraph Tree {
node [shape=box, style="filled, rounded", color="black", fontname=helvetica] ;
edge [fontname=helvetica] ;
0 [label="TotalYearsOfExp <= 0.0\ngini = 0.04\nsamples = 42599\nvalue = [66178, 1246]\nclass = 0", fillcolor="#e58139fa"] ;
1 [label="ApplicationType <= 0.5\ngini = 0.33\nsamples = 1373\nvalue = [1741, 456]\nclass = 0", fillcolor="#e58139bc"] ;
0 -> 1 [labeldistance=2.5, labelangle=45, headlabel="True"] ;
2 [label="JobShiftRotating <= -0.5\ngini = 0.19\nsamples = 502\nvalue = [708, 87]\nclass = 0", fillcolor="#e58139e0"] ;
1 -> 2 ;
3 [label="ApplyDate <= 1321.5\ngini = 0.46\nsamples = 116\nvalue = [124, 67]\nclass = 0", fillcolor="#e5813975"] ;
2 -> 3 ;
4 [label="InternalEmployee <= 0.5\ngini = 0.49\nsamples = 84\nvalue = [79, 60]\nclass = 0", fillcolor="#e581393d"] ;
3 -> 4 ;
5 [label="gini = 0.47\nsamples = 71\nvalue = [75, 44]\nclass = 0", fillcolor="#e5813969"] ;
4 -> 5 ;
6 [label="gini = 0.32\nsamples = 13\nvalue = [4, 16]\nclass = 1", fillcolor="#399de5bf"] ;
4 -> 6 ;
7 [label="gini = 0.23\nsamples = 32\nvalue = [45, 7]\nclass = 0", fillcolor="#e58139d7"] ;
3 -> 7 ;
8 [label="GymBadgePerm3 <= -0.5\ngini = 0.06\nsamples = 386\nvalue = [584, 20]\nclass = 0", fillcolor="#e58139f6"] ;
2 -> 8 ;
9 [label="gini = 0.27\nsamples = 32\nvalue = [41, 8]\nclass = 0", fillcolor="#e58139cd"] ;
8 -> 9 ;
10 [label="RecentTrainingExperience4To <= 284.0\ngini = 0.04\nsamples = 354\nvalue = [543, 12]\nclass = 0", fillcolor="#e58139f9"] ;
8 -> 10 ;
11 [label="gini = 0.03\nsamples = 289\nvalue = [452, 7]\nclass = 0", fillcolor="#e58139fb"] ;
10 -> 11 ;
12 [label="gini = 0.1\nsamples = 65\nvalue = [91, 5]\nclass = 0", fillcolor="#e58139f1"] ;
10 -> 12 ;
13 [label="GymBadgeTemp3 <= -0.5\ngini = 0.39\nsamples = 871\nvalue = [1033, 369]\nclass = 0", fillcolor="#e58139a4"] ;
1 -> 13 ;
14 [label="JobPostingDate <= 115.5\ngini = 0.49\nsamples = 95\nvalue = [94, 74]\nclass = 0", fillcolor="#e5813936"] ;
13 -> 14 ;
15 [label="gini = 0.22\nsamples = 19\nvalue = [27, 4]\nclass = 0", fillcolor="#e58139d9"] ;
14 -> 15 ;
16 [label="JobShiftWeekend <= 0.5\ngini = 0.5\nsamples = 76\nvalue = [67, 70]\nclass = 1", fillcolor="#399de50b"] ;
14 -> 16 ;
17 [label="gini = 0.49\nsamples = 41\nvalue = [34, 47]\nclass = 1", fillcolor="#399de547"] ;
16 -> 17 ;
18 [label="gini = 0.48\nsamples = 35\nvalue = [33, 23]\nclass = 0", fillcolor="#e581394d"] ;
16 -> 18 ;
19 [label="ApplyDate <= 1234.5\ngini = 0.36\nsamples = 776\nvalue = [939, 295]\nclass = 0", fillcolor="#e58139af"] ;
13 -> 19 ;
20 [label="JobPostingDate <= 645.0\ngini = 0.3\nsamples = 631\nvalue = [826, 187]\nclass = 0", fillcolor="#e58139c5"] ;
19 -> 20 ;
21 [label="gini = 0.42\nsamples = 243\nvalue = [284, 123]\nclass = 0", fillcolor="#e5813991"] ;
20 -> 21 ;
22 [label="gini = 0.19\nsamples = 388\nvalue = [542, 64]\nclass = 0", fillcolor="#e58139e1"] ;
20 -> 22 ;
23 [label="PokemonWorldRegion <= 3.0\ngini = 0.5\nsamples = 145\nvalue = [113, 108]\nclass = 0", fillcolor="#e581390b"] ;
19 -> 23 ;
24 [label="gini = 0.48\nsamples = 82\nvalue = [51, 74]\nclass = 1", fillcolor="#399de54f"] ;
23 -> 24 ;
25 [label="gini = 0.46\nsamples = 63\nvalue = [62, 34]\nclass = 0", fillcolor="#e5813973"] ;
23 -> 25 ;
26 [label="LastPerformaceRating <= -0.5\ngini = 0.02\nsamples = 41226\nvalue = [64437, 790]\nclass = 0", fillcolor="#e58139fc"] ;
0 -> 26 [labeldistance=2.5, labelangle=-45, headlabel="False"] ;
27 [label="PokemonTrainerClass <= 3.5\ngini = 0.02\nsamples = 38675\nvalue = [60763, 511]\nclass = 0", fillcolor="#e58139fd"] ;
26 -> 27 ;
28 [label="RecentTrainingExperience1To <= 273.0\ngini = 0.01\nsamples = 13401\nvalue = [21188, 107]\nclass = 0", fillcolor="#e58139fe"] ;
27 -> 28 ;
29 [label="RecentTrainingExperience2From <= 397.5\ngini = 0.01\nsamples = 13378\nvalue = [21153, 103]\nclass = 0", fillcolor="#e58139fe"] ;
28 -> 29 ;
30 [label="gini = 0.01\nsamples = 6075\nvalue = [9534, 68]\nclass = 0", fillcolor="#e58139fd"] ;
29 -> 30 ;
31 [label="gini = 0.01\nsamples = 7303\nvalue = [11619, 35]\nclass = 0", fillcolor="#e58139fe"] ;
29 -> 31 ;
32 [label="gini = 0.18\nsamples = 23\nvalue = [35, 4]\nclass = 0", fillcolor="#e58139e2"] ;
28 -> 32 ;
33 [label="JobShiftNight <= 0.5\ngini = 0.02\nsamples = 25274\nvalue = [39575, 404]\nclass = 0", fillcolor="#e58139fc"] ;
27 -> 33 ;
34 [label="UndergradSchoolGPA <= 3.4\ngini = 0.03\nsamples = 10232\nvalue = [15870, 271]\nclass = 0", fillcolor="#e58139fb"] ;
33 -> 34 ;
35 [label="gini = 0.03\nsamples = 9163\nvalue = [14208, 208]\nclass = 0", fillcolor="#e58139fb"] ;
34 -> 35 ;
36 [label="gini = 0.07\nsamples = 1069\nvalue = [1662, 63]\nclass = 0", fillcolor="#e58139f5"] ;
34 -> 36 ;
37 [label="WorkedInThisRegion <= 0.5\ngini = 0.01\nsamples = 15042\nvalue = [23705, 133]\nclass = 0", fillcolor="#e58139fe"] ;
33 -> 37 ;
38 [label="gini = 0.01\nsamples = 13857\nvalue = [21870, 110]\nclass = 0", fillcolor="#e58139fe"] ;
37 -> 38 ;
39 [label="gini = 0.02\nsamples = 1185\nvalue = [1835, 23]\nclass = 0", fillcolor="#e58139fc"] ;
37 -> 39 ;
40 [label="RecentTrainingExperience2To <= 281.5\ngini = 0.13\nsamples = 2551\nvalue = [3674, 279]\nclass = 0", fillcolor="#e58139ec"] ;
26 -> 40 ;
41 [label="RecentTrainingExperience3From <= 5.5\ngini = 0.18\nsamples = 919\nvalue = [1274, 141]\nclass = 0", fillcolor="#e58139e3"] ;
40 -> 41 ;
42 [label="TechnicalSchoolGraduate <= 0.5\ngini = 0.16\nsamples = 641\nvalue = [903, 89]\nclass = 0", fillcolor="#e58139e6"] ;
41 -> 42 ;
43 [label="gini = 0.18\nsamples = 491\nvalue = [696, 77]\nclass = 0", fillcolor="#e58139e3"] ;
42 -> 43 ;
44 [label="gini = 0.1\nsamples = 150\nvalue = [207, 12]\nclass = 0", fillcolor="#e58139f0"] ;
42 -> 44 ;
45 [label="RecentTrainingExperience1From <= 416.5\ngini = 0.22\nsamples = 278\nvalue = [371, 52]\nclass = 0", fillcolor="#e58139db"] ;
41 -> 45 ;
46 [label="gini = 0.27\nsamples = 161\nvalue = [209, 41]\nclass = 0", fillcolor="#e58139cd"] ;
45 -> 46 ;
47 [label="gini = 0.12\nsamples = 117\nvalue = [162, 11]\nclass = 0", fillcolor="#e58139ee"] ;
45 -> 47 ;
48 [label="JobSchedule <= 1.5\ngini = 0.1\nsamples = 1632\nvalue = [2400, 138]\nclass = 0", fillcolor="#e58139f0"] ;
40 -> 48 ;
49 [label="RecentTrainingExperience2Pokemon <= 24.0\ngini = 0.12\nsamples = 1299\nvalue = [1891, 126]\nclass = 0", fillcolor="#e58139ee"] ;
48 -> 49 ;
50 [label="gini = 0.1\nsamples = 1024\nvalue = [1533, 86]\nclass = 0", fillcolor="#e58139f1"] ;
49 -> 50 ;
51 [label="gini = 0.18\nsamples = 275\nvalue = [358, 40]\nclass = 0", fillcolor="#e58139e3"] ;
49 -> 51 ;
52 [label="RecentTrainingExperience1From <= 293.0\ngini = 0.05\nsamples = 333\nvalue = [509, 12]\nclass = 0", fillcolor="#e58139f9"] ;
48 -> 52 ;
53 [label="gini = 0.0\nsamples = 1\nvalue = [0, 1]\nclass = 1", fillcolor="#399de5ff"] ;
52 -> 53 ;
54 [label="gini = 0.04\nsamples = 332\nvalue = [509, 11]\nclass = 0", fillcolor="#e58139f9"] ;
52 -> 54 ;
}