digraph Tree {
node [shape=box, style="filled, rounded", color="black", fontname=helvetica] ;
edge [fontname=helvetica] ;
0 [label="ApplicationType <= 1.0\ngini = 0.04\nsamples = 42551\nvalue = [66217, 1207]\nclass = 0", fillcolor="#e58139fa"] ;
1 [label="JobShiftWeekend <= -0.5\ngini = 0.03\nsamples = 41701\nvalue = [65242, 855]\nclass = 0", fillcolor="#e58139fc"] ;
0 -> 1 [labeldistance=2.5, labelangle=45, headlabel="True"] ;
2 [label="InternalEmployee <= 0.5\ngini = 0.38\nsamples = 147\nvalue = [181, 62]\nclass = 0", fillcolor="#e58139a8"] ;
1 -> 2 ;
3 [label="PokemonTrainerClass <= 3.5\ngini = 0.34\nsamples = 132\nvalue = [168, 46]\nclass = 0", fillcolor="#e58139b9"] ;
2 -> 3 ;
4 [label="gini = 0.14\nsamples = 47\nvalue = [73, 6]\nclass = 0", fillcolor="#e58139ea"] ;
3 -> 4 ;
5 [label="TotalYearsOfExp <= 0.0\ngini = 0.42\nsamples = 85\nvalue = [95, 40]\nclass = 0", fillcolor="#e5813994"] ;
3 -> 5 ;
6 [label="gini = 0.49\nsamples = 59\nvalue = [53, 39]\nclass = 0", fillcolor="#e5813943"] ;
5 -> 6 ;
7 [label="gini = 0.05\nsamples = 26\nvalue = [42, 1]\nclass = 0", fillcolor="#e58139f9"] ;
5 -> 7 ;
8 [label="gini = 0.49\nsamples = 15\nvalue = [13, 16]\nclass = 1", fillcolor="#399de530"] ;
2 -> 8 ;
9 [label="WorkingForJobAppliedFor <= 0.5\ngini = 0.02\nsamples = 41554\nvalue = [65061, 793]\nclass = 0", fillcolor="#e58139fc"] ;
1 -> 9 ;
10 [label="RecentTrainingExperience1PayRateEndFreq <= 0.5\ngini = 0.02\nsamples = 40584\nvalue = [63656, 633]\nclass = 0", fillcolor="#e58139fc"] ;
9 -> 10 ;
11 [label="GymBadgePerm4 <= -0.5\ngini = 0.03\nsamples = 11062\nvalue = [17271, 283]\nclass = 0", fillcolor="#e58139fb"] ;
10 -> 11 ;
12 [label="gini = 0.08\nsamples = 1560\nvalue = [2369, 110]\nclass = 0", fillcolor="#e58139f3"] ;
11 -> 12 ;
13 [label="gini = 0.02\nsamples = 9502\nvalue = [14902, 173]\nclass = 0", fillcolor="#e58139fc"] ;
11 -> 13 ;
14 [label="RecentTrainingExperience1PayRateEndValue <= 3206.5\ngini = 0.01\nsamples = 29522\nvalue = [46385, 350]\nclass = 0", fillcolor="#e58139fd"] ;
10 -> 14 ;
15 [label="gini = 0.02\nsamples = 27074\nvalue = [42552, 343]\nclass = 0", fillcolor="#e58139fd"] ;
14 -> 15 ;
16 [label="gini = 0.0\nsamples = 2448\nvalue = [3833, 7]\nclass = 0", fillcolor="#e58139ff"] ;
14 -> 16 ;
17 [label="JobShiftWeekend <= 0.5\ngini = 0.18\nsamples = 970\nvalue = [1405, 160]\nclass = 0", fillcolor="#e58139e2"] ;
9 -> 17 ;
18 [label="GymBadge3Pokemon <= 17.5\ngini = 0.23\nsamples = 561\nvalue = [779, 117]\nclass = 0", fillcolor="#e58139d9"] ;
17 -> 18 ;
19 [label="gini = 0.22\nsamples = 557\nvalue = [777, 113]\nclass = 0", fillcolor="#e58139da"] ;
18 -> 19 ;
20 [label="gini = 0.44\nsamples = 4\nvalue = [2, 4]\nclass = 1", fillcolor="#399de57f"] ;
18 -> 20 ;
21 [label="RecentTrainingExperience3Pokemon <= -0.5\ngini = 0.12\nsamples = 409\nvalue = [626, 43]\nclass = 0", fillcolor="#e58139ed"] ;
17 -> 21 ;
22 [label="gini = 0.16\nsamples = 256\nvalue = [381, 38]\nclass = 0", fillcolor="#e58139e6"] ;
21 -> 22 ;
23 [label="gini = 0.04\nsamples = 153\nvalue = [245, 5]\nclass = 0", fillcolor="#e58139fa"] ;
21 -> 23 ;
24 [label="RecentTrainingExperience1To <= 206.5\ngini = 0.39\nsamples = 850\nvalue = [975, 352]\nclass = 0", fillcolor="#e58139a3"] ;
0 -> 24 [labeldistance=2.5, labelangle=-45, headlabel="False"] ;
25 [label="RecentTrainingExperienceContactForRefNA <= -0.5\ngini = 0.35\nsamples = 749\nvalue = [903, 270]\nclass = 0", fillcolor="#e58139b3"] ;
24 -> 25 ;
26 [label="RecentTrainingExperience1PayRateEndFreq <= 4.0\ngini = 0.45\nsamples = 305\nvalue = [318, 161]\nclass = 0", fillcolor="#e581397e"] ;
25 -> 26 ;
27 [label="GraduateSchoolGraduate <= 0.5\ngini = 0.46\nsamples = 280\nvalue = [284, 156]\nclass = 0", fillcolor="#e5813973"] ;
26 -> 27 ;
28 [label="gini = 0.45\nsamples = 255\nvalue = [265, 133]\nclass = 0", fillcolor="#e581397f"] ;
27 -> 28 ;
29 [label="gini = 0.5\nsamples = 25\nvalue = [19, 23]\nclass = 1", fillcolor="#399de52c"] ;
27 -> 29 ;
30 [label="gini = 0.22\nsamples = 25\nvalue = [34, 5]\nclass = 0", fillcolor="#e58139da"] ;
26 -> 30 ;
31 [label="ApplyDate <= 937.5\ngini = 0.26\nsamples = 444\nvalue = [585, 109]\nclass = 0", fillcolor="#e58139cf"] ;
25 -> 31 ;
32 [label="GraduateSchoolGPA <= 3.74\ngini = 0.14\nsamples = 235\nvalue = [338, 27]\nclass = 0", fillcolor="#e58139eb"] ;
31 -> 32 ;
33 [label="gini = 0.12\nsamples = 230\nvalue = [335, 22]\nclass = 0", fillcolor="#e58139ee"] ;
32 -> 33 ;
34 [label="gini = 0.47\nsamples = 5\nvalue = [3, 5]\nclass = 1", fillcolor="#399de566"] ;
32 -> 34 ;
35 [label="RecentTrainingExperience1EmploymentStatus <= 0.5\ngini = 0.37\nsamples = 209\nvalue = [247, 82]\nclass = 0", fillcolor="#e58139aa"] ;
31 -> 35 ;
36 [label="gini = 0.48\nsamples = 24\nvalue = [13, 20]\nclass = 1", fillcolor="#399de559"] ;
35 -> 36 ;
37 [label="gini = 0.33\nsamples = 185\nvalue = [234, 62]\nclass = 0", fillcolor="#e58139bb"] ;
35 -> 37 ;
38 [label="TechnicalSchoolGraduate <= 0.5\ngini = 0.5\nsamples = 101\nvalue = [72, 82]\nclass = 1", fillcolor="#399de51f"] ;
24 -> 38 ;
39 [label="RecentTrainingExperience1From <= 476.5\ngini = 0.49\nsamples = 75\nvalue = [61, 49]\nclass = 0", fillcolor="#e5813932"] ;
38 -> 39 ;
40 [label="RecentTrainingExperience3From <= 126.5\ngini = 0.47\nsamples = 63\nvalue = [55, 33]\nclass = 0", fillcolor="#e5813966"] ;
39 -> 40 ;
41 [label="gini = 0.5\nsamples = 30\nvalue = [24, 21]\nclass = 0", fillcolor="#e5813920"] ;
40 -> 41 ;
42 [label="gini = 0.4\nsamples = 33\nvalue = [31, 12]\nclass = 0", fillcolor="#e581399c"] ;
40 -> 42 ;
43 [label="gini = 0.4\nsamples = 12\nvalue = [6, 16]\nclass = 1", fillcolor="#399de59f"] ;
39 -> 43 ;
44 [label="gini = 0.38\nsamples = 26\nvalue = [11, 33]\nclass = 1", fillcolor="#399de5aa"] ;
38 -> 44 ;
}