digraph Tree {
node [shape=box, style="filled, rounded", color="black", fontname=helvetica] ;
edge [fontname=helvetica] ;
0 [label="HighEduLevelCompleted <= -0.5\ngini = 0.04\nsamples = 42824\nvalue = [66207, 1217]\nclass = 0", fillcolor="#e58139fa"] ;
1 [label="TotalYearsOfExp <= 0.0\ngini = 0.31\nsamples = 510\nvalue = [662, 159]\nclass = 0", fillcolor="#e58139c2"] ;
0 -> 1 [labeldistance=2.5, labelangle=45, headlabel="True"] ;
2 [label="GymBadgeTemp3 <= -0.5\ngini = 0.42\nsamples = 327\nvalue = [369, 154]\nclass = 0", fillcolor="#e5813995"] ;
1 -> 2 ;
3 [label="RecentTrainingExperience2From <= 514.0\ngini = 0.46\nsamples = 232\nvalue = [237, 133]\nclass = 0", fillcolor="#e5813970"] ;
2 -> 3 ;
4 [label="JobPostingDate <= 24.5\ngini = 0.45\nsamples = 225\nvalue = [233, 125]\nclass = 0", fillcolor="#e5813976"] ;
3 -> 4 ;
5 [label="gini = 0.07\nsamples = 56\nvalue = [85, 3]\nclass = 0", fillcolor="#e58139f6"] ;
4 -> 5 ;
6 [label="gini = 0.5\nsamples = 169\nvalue = [148, 122]\nclass = 0", fillcolor="#e581392d"] ;
4 -> 6 ;
7 [label="gini = 0.44\nsamples = 7\nvalue = [4, 8]\nclass = 1", fillcolor="#399de57f"] ;
3 -> 7 ;
8 [label="ApplyDate <= 80.0\ngini = 0.24\nsamples = 95\nvalue = [132, 21]\nclass = 0", fillcolor="#e58139d6"] ;
2 -> 8 ;
9 [label="gini = 0.0\nsamples = 2\nvalue = [0, 4]\nclass = 1", fillcolor="#399de5ff"] ;
8 -> 9 ;
10 [label="PositionForTrainingPokemon <= 26.0\ngini = 0.2\nsamples = 93\nvalue = [132, 17]\nclass = 0", fillcolor="#e58139de"] ;
8 -> 10 ;
11 [label="gini = 0.18\nsamples = 89\nvalue = [130, 14]\nclass = 0", fillcolor="#e58139e4"] ;
10 -> 11 ;
12 [label="gini = 0.48\nsamples = 4\nvalue = [2, 3]\nclass = 1", fillcolor="#399de555"] ;
10 -> 12 ;
13 [label="SpokenWithCurrentBoss <= -0.5\ngini = 0.03\nsamples = 183\nvalue = [293, 5]\nclass = 0", fillcolor="#e58139fb"] ;
1 -> 13 ;
14 [label="gini = 0.0\nsamples = 137\nvalue = [227, 0]\nclass = 0", fillcolor="#e58139ff"] ;
13 -> 14 ;
15 [label="gini = 0.13\nsamples = 46\nvalue = [66, 5]\nclass = 0", fillcolor="#e58139ec"] ;
13 -> 15 ;
16 [label="InternalEmployee <= 0.5\ngini = 0.03\nsamples = 42314\nvalue = [65545, 1058]\nclass = 0", fillcolor="#e58139fb"] ;
0 -> 16 [labeldistance=2.5, labelangle=-45, headlabel="False"] ;
17 [label="JobStatusFullTime <= 0.5\ngini = 0.02\nsamples = 39802\nvalue = [61803, 787]\nclass = 0", fillcolor="#e58139fc"] ;
16 -> 17 ;
18 [label="GraduateSchoolGPA <= 3.88\ngini = 0.05\nsamples = 3112\nvalue = [4656, 124]\nclass = 0", fillcolor="#e58139f8"] ;
17 -> 18 ;
19 [label="RecentTrainingExperience2PayRateEndValue <= 1779.0\ngini = 0.05\nsamples = 3092\nvalue = [4632, 115]\nclass = 0", fillcolor="#e58139f9"] ;
18 -> 19 ;
20 [label="gini = 0.05\nsamples = 2479\nvalue = [3729, 105]\nclass = 0", fillcolor="#e58139f8"] ;
19 -> 20 ;
21 [label="gini = 0.02\nsamples = 613\nvalue = [903, 10]\nclass = 0", fillcolor="#e58139fc"] ;
19 -> 21 ;
22 [label="gini = 0.4\nsamples = 20\nvalue = [24, 9]\nclass = 0", fillcolor="#e581399f"] ;
18 -> 22 ;
23 [label="TotalYearsOfExp <= 0.0\ngini = 0.02\nsamples = 36690\nvalue = [57147, 663]\nclass = 0", fillcolor="#e58139fc"] ;
17 -> 23 ;
24 [label="RecentTrainingExperience1PayRateEndValue <= 2820.5\ngini = 0.3\nsamples = 911\nvalue = [1217, 280]\nclass = 0", fillcolor="#e58139c4"] ;
23 -> 24 ;
25 [label="gini = 0.33\nsamples = 707\nvalue = [936, 250]\nclass = 0", fillcolor="#e58139bb"] ;
24 -> 25 ;
26 [label="gini = 0.17\nsamples = 204\nvalue = [281, 30]\nclass = 0", fillcolor="#e58139e4"] ;
24 -> 26 ;
27 [label="RecentTrainingExperience4PayRateEndValue <= 1355.0\ngini = 0.01\nsamples = 35779\nvalue = [55930, 383]\nclass = 0", fillcolor="#e58139fd"] ;
23 -> 27 ;
28 [label="gini = 0.01\nsamples = 35750\nvalue = [55885, 378]\nclass = 0", fillcolor="#e58139fd"] ;
27 -> 28 ;
29 [label="gini = 0.18\nsamples = 29\nvalue = [45, 5]\nclass = 0", fillcolor="#e58139e3"] ;
27 -> 29 ;
30 [label="RecentTrainingExperience3From <= 299.0\ngini = 0.13\nsamples = 2512\nvalue = [3742, 271]\nclass = 0", fillcolor="#e58139ed"] ;
16 -> 30 ;
31 [label="JobShiftDay <= 0.5\ngini = 0.17\nsamples = 1135\nvalue = [1639, 174]\nclass = 0", fillcolor="#e58139e4"] ;
30 -> 31 ;
32 [label="TotalYearsOfExp <= 9.5\ngini = 0.28\nsamples = 170\nvalue = [221, 45]\nclass = 0", fillcolor="#e58139cb"] ;
31 -> 32 ;
33 [label="gini = 0.18\nsamples = 126\nvalue = [178, 20]\nclass = 0", fillcolor="#e58139e2"] ;
32 -> 33 ;
34 [label="gini = 0.46\nsamples = 44\nvalue = [43, 25]\nclass = 0", fillcolor="#e581396b"] ;
32 -> 34 ;
35 [label="RecentTrainingExperience2Pokemon <= 11.5\ngini = 0.15\nsamples = 965\nvalue = [1418, 129]\nclass = 0", fillcolor="#e58139e8"] ;
31 -> 35 ;
36 [label="gini = 0.17\nsamples = 770\nvalue = [1122, 115]\nclass = 0", fillcolor="#e58139e5"] ;
35 -> 36 ;
37 [label="gini = 0.09\nsamples = 195\nvalue = [296, 14]\nclass = 0", fillcolor="#e58139f3"] ;
35 -> 37 ;
38 [label="PokemonTrainerClass <= 1.5\ngini = 0.08\nsamples = 1377\nvalue = [2103, 97]\nclass = 0", fillcolor="#e58139f3"] ;
30 -> 38 ;
39 [label="gini = 0.46\nsamples = 8\nvalue = [9, 5]\nclass = 0", fillcolor="#e5813971"] ;
38 -> 39 ;
40 [label="RecentTrainingExperience3To <= 419.5\ngini = 0.08\nsamples = 1369\nvalue = [2094, 92]\nclass = 0", fillcolor="#e58139f4"] ;
38 -> 40 ;
41 [label="gini = 0.07\nsamples = 1331\nvalue = [2049, 83]\nclass = 0", fillcolor="#e58139f5"] ;
40 -> 41 ;
42 [label="gini = 0.28\nsamples = 38\nvalue = [45, 9]\nclass = 0", fillcolor="#e58139cc"] ;
40 -> 42 ;
}