digraph Tree {
node [shape=box, style="filled, rounded", color="black", fontname=helvetica] ;
edge [fontname=helvetica] ;
0 [label="GymBadgePerm3 <= -0.5\ngini = 0.03\nsamples = 42497\nvalue = [66225, 1199]\nclass = 0", fillcolor="#e58139fa"] ;
1 [label="RecentTrainingExperience1From <= 284.5\ngini = 0.16\nsamples = 2768\nvalue = [4024, 396]\nclass = 0", fillcolor="#e58139e6"] ;
0 -> 1 [labeldistance=2.5, labelangle=45, headlabel="True"] ;
2 [label="InternalEmployee <= 0.5\ngini = 0.42\nsamples = 185\nvalue = [201, 86]\nclass = 0", fillcolor="#e5813992"] ;
1 -> 2 ;
3 [label="PokemonTrainerClass <= 4.5\ngini = 0.36\nsamples = 141\nvalue = [168, 51]\nclass = 0", fillcolor="#e58139b2"] ;
2 -> 3 ;
4 [label="RecentTrainingExperienceContactForRefYes <= 0.0\ngini = 0.23\nsamples = 72\nvalue = [91, 14]\nclass = 0", fillcolor="#e58139d8"] ;
3 -> 4 ;
5 [label="gini = 0.23\nsamples = 71\nvalue = [90, 14]\nclass = 0", fillcolor="#e58139d7"] ;
4 -> 5 ;
6 [label="gini = 0.0\nsamples = 1\nvalue = [1, 0]\nclass = 0", fillcolor="#e58139ff"] ;
4 -> 6 ;
7 [label="JobSchedule <= 2.5\ngini = 0.44\nsamples = 69\nvalue = [77, 37]\nclass = 0", fillcolor="#e5813984"] ;
3 -> 7 ;
8 [label="gini = 0.41\nsamples = 47\nvalue = [54, 22]\nclass = 0", fillcolor="#e5813997"] ;
7 -> 8 ;
9 [label="gini = 0.48\nsamples = 22\nvalue = [23, 15]\nclass = 0", fillcolor="#e5813959"] ;
7 -> 9 ;
10 [label="gini = 0.5\nsamples = 44\nvalue = [33, 35]\nclass = 1", fillcolor="#399de50f"] ;
2 -> 10 ;
11 [label="ApplicationType <= 1.0\ngini = 0.14\nsamples = 2583\nvalue = [3823, 310]\nclass = 0", fillcolor="#e58139ea"] ;
1 -> 11 ;
12 [label="JobShiftNight <= 0.5\ngini = 0.12\nsamples = 2500\nvalue = [3750, 260]\nclass = 0", fillcolor="#e58139ed"] ;
11 -> 12 ;
13 [label="RecentTrainingExperience1From <= 430.5\ngini = 0.15\nsamples = 1506\nvalue = [2245, 195]\nclass = 0", fillcolor="#e58139e9"] ;
12 -> 13 ;
14 [label="gini = 0.1\nsamples = 739\nvalue = [1141, 67]\nclass = 0", fillcolor="#e58139f0"] ;
13 -> 14 ;
15 [label="gini = 0.19\nsamples = 767\nvalue = [1104, 128]\nclass = 0", fillcolor="#e58139e1"] ;
13 -> 15 ;
16 [label="PokemonTrainerClass <= 4.5\ngini = 0.08\nsamples = 994\nvalue = [1505, 65]\nclass = 0", fillcolor="#e58139f4"] ;
12 -> 16 ;
17 [label="gini = 0.13\nsamples = 359\nvalue = [505, 39]\nclass = 0", fillcolor="#e58139eb"] ;
16 -> 17 ;
18 [label="gini = 0.05\nsamples = 635\nvalue = [1000, 26]\nclass = 0", fillcolor="#e58139f8"] ;
16 -> 18 ;
19 [label="ApplyDate <= 1247.0\ngini = 0.48\nsamples = 83\nvalue = [73, 50]\nclass = 0", fillcolor="#e5813950"] ;
11 -> 19 ;
20 [label="PokemonTrainerClass <= 4.5\ngini = 0.39\nsamples = 58\nvalue = [63, 23]\nclass = 0", fillcolor="#e58139a2"] ;
19 -> 20 ;
21 [label="gini = 0.49\nsamples = 25\nvalue = [23, 17]\nclass = 0", fillcolor="#e5813943"] ;
20 -> 21 ;
22 [label="gini = 0.23\nsamples = 33\nvalue = [40, 6]\nclass = 0", fillcolor="#e58139d9"] ;
20 -> 22 ;
23 [label="gini = 0.39\nsamples = 25\nvalue = [10, 27]\nclass = 1", fillcolor="#399de5a1"] ;
19 -> 23 ;
24 [label="UndergradSchoolGraduate <= 0.5\ngini = 0.03\nsamples = 39729\nvalue = [62201, 803]\nclass = 0", fillcolor="#e58139fc"] ;
0 -> 24 [labeldistance=2.5, labelangle=-45, headlabel="False"] ;
25 [label="ApplicationType <= 1.0\ngini = 0.02\nsamples = 29172\nvalue = [45779, 478]\nclass = 0", fillcolor="#e58139fc"] ;
24 -> 25 ;
26 [label="PokemonWorldRegion <= 2.5\ngini = 0.01\nsamples = 28607\nvalue = [45080, 294]\nclass = 0", fillcolor="#e58139fd"] ;
25 -> 26 ;
27 [label="HighEduLevelCompleted <= -0.5\ngini = 0.01\nsamples = 12224\nvalue = [19321, 71]\nclass = 0", fillcolor="#e58139fe"] ;
26 -> 27 ;
28 [label="gini = 0.1\nsamples = 62\nvalue = [88, 5]\nclass = 0", fillcolor="#e58139f1"] ;
27 -> 28 ;
29 [label="gini = 0.01\nsamples = 12162\nvalue = [19233, 66]\nclass = 0", fillcolor="#e58139fe"] ;
27 -> 29 ;
30 [label="GymBadge4Pokemon <= 23.5\ngini = 0.02\nsamples = 16383\nvalue = [25759, 223]\nclass = 0", fillcolor="#e58139fd"] ;
26 -> 30 ;
31 [label="gini = 0.02\nsamples = 16364\nvalue = [25733, 220]\nclass = 0", fillcolor="#e58139fd"] ;
30 -> 31 ;
32 [label="gini = 0.19\nsamples = 19\nvalue = [26, 3]\nclass = 0", fillcolor="#e58139e2"] ;
30 -> 32 ;
33 [label="RecentTrainingExperienceContactForRefYes <= -0.5\ngini = 0.33\nsamples = 565\nvalue = [699, 184]\nclass = 0", fillcolor="#e58139bc"] ;
25 -> 33 ;
34 [label="GymCertified <= -0.5\ngini = 0.48\nsamples = 174\nvalue = [166, 109]\nclass = 0", fillcolor="#e5813958"] ;
33 -> 34 ;
35 [label="gini = 0.42\nsamples = 91\nvalue = [105, 46]\nclass = 0", fillcolor="#e581398f"] ;
34 -> 35 ;
36 [label="gini = 0.5\nsamples = 83\nvalue = [61, 63]\nclass = 1", fillcolor="#399de508"] ;
34 -> 36 ;
37 [label="HighEduLevelCompleted <= 2.0\ngini = 0.22\nsamples = 391\nvalue = [533, 75]\nclass = 0", fillcolor="#e58139db"] ;
33 -> 37 ;
38 [label="gini = 0.44\nsamples = 46\nvalue = [53, 25]\nclass = 0", fillcolor="#e5813987"] ;
37 -> 38 ;
39 [label="gini = 0.17\nsamples = 345\nvalue = [480, 50]\nclass = 0", fillcolor="#e58139e4"] ;
37 -> 39 ;
40 [label="ApplicationType <= 1.0\ngini = 0.04\nsamples = 10557\nvalue = [16422, 325]\nclass = 0", fillcolor="#e58139fa"] ;
24 -> 40 ;
41 [label="RecentTrainingExperience3From <= 533.5\ngini = 0.03\nsamples = 10365\nvalue = [16210, 240]\nclass = 0", fillcolor="#e58139fb"] ;
40 -> 41 ;
42 [label="RecentTrainingExperience4PayRateEndValue <= 1370.5\ngini = 0.03\nsamples = 10353\nvalue = [16194, 237]\nclass = 0", fillcolor="#e58139fb"] ;
41 -> 42 ;
43 [label="gini = 0.03\nsamples = 10352\nvalue = [16194, 235]\nclass = 0", fillcolor="#e58139fb"] ;
42 -> 43 ;
44 [label="gini = 0.0\nsamples = 1\nvalue = [0, 2]\nclass = 1", fillcolor="#399de5ff"] ;
42 -> 44 ;
45 [label="gini = 0.27\nsamples = 12\nvalue = [16, 3]\nclass = 0", fillcolor="#e58139cf"] ;
41 -> 45 ;
46 [label="RecentTrainingExperience4PayRateEndFreq <= 1.0\ngini = 0.41\nsamples = 192\nvalue = [212, 85]\nclass = 0", fillcolor="#e5813999"] ;
40 -> 46 ;
47 [label="GymBadgePerm1 <= 0.5\ngini = 0.44\nsamples = 146\nvalue = [153, 76]\nclass = 0", fillcolor="#e5813980"] ;
46 -> 47 ;
48 [label="gini = 0.35\nsamples = 60\nvalue = [69, 20]\nclass = 0", fillcolor="#e58139b5"] ;
47 -> 48 ;
49 [label="gini = 0.48\nsamples = 86\nvalue = [84, 56]\nclass = 0", fillcolor="#e5813955"] ;
47 -> 49 ;
50 [label="gini = 0.23\nsamples = 46\nvalue = [59, 9]\nclass = 0", fillcolor="#e58139d8"] ;
46 -> 50 ;
}