digraph Tree {
node [shape=box, style="filled, rounded", color="black", fontname=helvetica] ;
edge [fontname=helvetica] ;
0 [label="GymBadgePerm2 <= -0.5\ngini = 0.03\nsamples = 42749\nvalue = [66226, 1198]\nclass = 0", fillcolor="#e58139fa"] ;
1 [label="RecentTrainingExperience1From <= 352.5\ngini = 0.18\nsamples = 2786\nvalue = [3978, 432]\nclass = 0", fillcolor="#e58139e3"] ;
0 -> 1 [labeldistance=2.5, labelangle=45, headlabel="True"] ;
2 [label="LastPerformaceRating <= 0.5\ngini = 0.38\nsamples = 269\nvalue = [297, 100]\nclass = 0", fillcolor="#e58139a9"] ;
1 -> 2 ;
3 [label="InternalEmployee <= 0.5\ngini = 0.41\nsamples = 164\nvalue = [162, 67]\nclass = 0", fillcolor="#e5813996"] ;
2 -> 3 ;
4 [label="HighEduLevelCompleted <= -0.5\ngini = 0.38\nsamples = 149\nvalue = [157, 54]\nclass = 0", fillcolor="#e58139a7"] ;
3 -> 4 ;
5 [label="gini = 0.43\nsamples = 116\nvalue = [115, 52]\nclass = 0", fillcolor="#e581398c"] ;
4 -> 5 ;
6 [label="gini = 0.09\nsamples = 33\nvalue = [42, 2]\nclass = 0", fillcolor="#e58139f3"] ;
4 -> 6 ;
7 [label="gini = 0.4\nsamples = 15\nvalue = [5, 13]\nclass = 1", fillcolor="#399de59d"] ;
3 -> 7 ;
8 [label="RecentTrainingExperience1From <= 351.5\ngini = 0.32\nsamples = 105\nvalue = [135, 33]\nclass = 0", fillcolor="#e58139c1"] ;
2 -> 8 ;
9 [label="HighEduLevelCompleted <= -0.5\ngini = 0.3\nsamples = 104\nvalue = [135, 30]\nclass = 0", fillcolor="#e58139c6"] ;
8 -> 9 ;
10 [label="gini = 0.0\nsamples = 9\nvalue = [0, 14]\nclass = 1", fillcolor="#399de5ff"] ;
9 -> 10 ;
11 [label="gini = 0.19\nsamples = 95\nvalue = [135, 16]\nclass = 0", fillcolor="#e58139e1"] ;
9 -> 11 ;
12 [label="gini = 0.0\nsamples = 1\nvalue = [0, 3]\nclass = 1", fillcolor="#399de5ff"] ;
8 -> 12 ;
13 [label="TotalYearsOfExp <= 0.0\ngini = 0.15\nsamples = 2517\nvalue = [3681, 332]\nclass = 0", fillcolor="#e58139e8"] ;
1 -> 13 ;
14 [label="RecentTrainingExperience1From <= 380.5\ngini = 0.5\nsamples = 102\nvalue = [91, 75]\nclass = 0", fillcolor="#e581392d"] ;
13 -> 14 ;
15 [label="gini = 0.0\nsamples = 7\nvalue = [10, 0]\nclass = 0", fillcolor="#e58139ff"] ;
14 -> 15 ;
16 [label="RecentTrainingExperience3From <= 295.0\ngini = 0.5\nsamples = 95\nvalue = [81, 75]\nclass = 0", fillcolor="#e5813913"] ;
14 -> 16 ;
17 [label="gini = 0.48\nsamples = 49\nvalue = [36, 54]\nclass = 1", fillcolor="#399de555"] ;
16 -> 17 ;
18 [label="gini = 0.43\nsamples = 46\nvalue = [45, 21]\nclass = 0", fillcolor="#e5813988"] ;
16 -> 18 ;
19 [label="JobShiftEvening <= 0.5\ngini = 0.12\nsamples = 2415\nvalue = [3590, 257]\nclass = 0", fillcolor="#e58139ed"] ;
13 -> 19 ;
20 [label="RecentTrainingExperience1From <= 434.5\ngini = 0.17\nsamples = 1210\nvalue = [1747, 180]\nclass = 0", fillcolor="#e58139e5"] ;
19 -> 20 ;
21 [label="gini = 0.13\nsamples = 610\nvalue = [913, 66]\nclass = 0", fillcolor="#e58139ed"] ;
20 -> 21 ;
22 [label="gini = 0.21\nsamples = 600\nvalue = [834, 114]\nclass = 0", fillcolor="#e58139dc"] ;
20 -> 22 ;
23 [label="ApplyDate <= 1662.5\ngini = 0.08\nsamples = 1205\nvalue = [1843, 77]\nclass = 0", fillcolor="#e58139f4"] ;
19 -> 23 ;
24 [label="gini = 0.07\nsamples = 1104\nvalue = [1695, 59]\nclass = 0", fillcolor="#e58139f6"] ;
23 -> 24 ;
25 [label="gini = 0.19\nsamples = 101\nvalue = [148, 18]\nclass = 0", fillcolor="#e58139e0"] ;
23 -> 25 ;
26 [label="GraduateSchoolGraduate <= 0.5\ngini = 0.02\nsamples = 39963\nvalue = [62248, 766]\nclass = 0", fillcolor="#e58139fc"] ;
0 -> 26 [labeldistance=2.5, labelangle=-45, headlabel="False"] ;
27 [label="WorkedInThisRegion <= 0.5\ngini = 0.02\nsamples = 37270\nvalue = [58059, 666]\nclass = 0", fillcolor="#e58139fc"] ;
26 -> 27 ;
28 [label="GraduateSchoolGPA <= 3.74\ngini = 0.02\nsamples = 34475\nvalue = [53724, 574]\nclass = 0", fillcolor="#e58139fc"] ;
27 -> 28 ;
29 [label="RecentTrainingExperience1PayRateEndValue <= 2785.5\ngini = 0.02\nsamples = 34308\nvalue = [53481, 561]\nclass = 0", fillcolor="#e58139fc"] ;
28 -> 29 ;
30 [label="gini = 0.02\nsamples = 26783\nvalue = [41686, 487]\nclass = 0", fillcolor="#e58139fc"] ;
29 -> 30 ;
31 [label="gini = 0.01\nsamples = 7525\nvalue = [11795, 74]\nclass = 0", fillcolor="#e58139fd"] ;
29 -> 31 ;
32 [label="UndergradSchoolGPA <= 3.11\ngini = 0.1\nsamples = 167\nvalue = [243, 13]\nclass = 0", fillcolor="#e58139f1"] ;
28 -> 32 ;
33 [label="gini = 0.0\nsamples = 54\nvalue = [88, 0]\nclass = 0", fillcolor="#e58139ff"] ;
32 -> 33 ;
34 [label="gini = 0.14\nsamples = 113\nvalue = [155, 13]\nclass = 0", fillcolor="#e58139ea"] ;
32 -> 34 ;
35 [label="JobShiftDay <= 0.5\ngini = 0.04\nsamples = 2795\nvalue = [4335, 92]\nclass = 0", fillcolor="#e58139fa"] ;
27 -> 35 ;
36 [label="TotalYearsOfExp <= 0.0\ngini = 0.09\nsamples = 334\nvalue = [534, 25]\nclass = 0", fillcolor="#e58139f3"] ;
35 -> 36 ;
37 [label="gini = 0.5\nsamples = 17\nvalue = [12, 12]\nclass = 0", fillcolor="#e5813900"] ;
36 -> 37 ;
38 [label="gini = 0.05\nsamples = 317\nvalue = [522, 13]\nclass = 0", fillcolor="#e58139f9"] ;
36 -> 38 ;
39 [label="HighSchoolGPA <= 3.97\ngini = 0.03\nsamples = 2461\nvalue = [3801, 67]\nclass = 0", fillcolor="#e58139fb"] ;
35 -> 39 ;
40 [label="gini = 0.03\nsamples = 2418\nvalue = [3745, 61]\nclass = 0", fillcolor="#e58139fb"] ;
39 -> 40 ;
41 [label="gini = 0.17\nsamples = 43\nvalue = [56, 6]\nclass = 0", fillcolor="#e58139e4"] ;
39 -> 41 ;
42 [label="JobStatusFullTime <= 0.5\ngini = 0.05\nsamples = 2693\nvalue = [4189, 100]\nclass = 0", fillcolor="#e58139f9"] ;
26 -> 42 ;
43 [label="GymBadgeTemp2 <= 0.5\ngini = 0.14\nsamples = 243\nvalue = [361, 30]\nclass = 0", fillcolor="#e58139ea"] ;
42 -> 43 ;
44 [label="ApplicationType <= 1.0\ngini = 0.12\nsamples = 229\nvalue = [345, 23]\nclass = 0", fillcolor="#e58139ee"] ;
43 -> 44 ;
45 [label="gini = 0.1\nsamples = 220\nvalue = [339, 18]\nclass = 0", fillcolor="#e58139f1"] ;
44 -> 45 ;
46 [label="gini = 0.5\nsamples = 9\nvalue = [6, 5]\nclass = 0", fillcolor="#e581392a"] ;
44 -> 46 ;
47 [label="gini = 0.42\nsamples = 14\nvalue = [16, 7]\nclass = 0", fillcolor="#e581398f"] ;
43 -> 47 ;
48 [label="TotalYearsOfExp <= 0.0\ngini = 0.04\nsamples = 2450\nvalue = [3828, 70]\nclass = 0", fillcolor="#e58139fa"] ;
42 -> 48 ;
49 [label="ApplicationType <= 1.0\ngini = 0.29\nsamples = 97\nvalue = [133, 29]\nclass = 0", fillcolor="#e58139c7"] ;
48 -> 49 ;
50 [label="gini = 0.0\nsamples = 36\nvalue = [64, 0]\nclass = 0", fillcolor="#e58139ff"] ;
49 -> 50 ;
51 [label="gini = 0.42\nsamples = 61\nvalue = [69, 29]\nclass = 0", fillcolor="#e5813994"] ;
49 -> 51 ;
52 [label="RecentTrainingExperience1From <= 489.5\ngini = 0.02\nsamples = 2353\nvalue = [3695, 41]\nclass = 0", fillcolor="#e58139fc"] ;
48 -> 52 ;
53 [label="gini = 0.02\nsamples = 2344\nvalue = [3685, 38]\nclass = 0", fillcolor="#e58139fc"] ;
52 -> 53 ;
54 [label="gini = 0.36\nsamples = 9\nvalue = [10, 3]\nclass = 0", fillcolor="#e58139b3"] ;
52 -> 54 ;
}