digraph Tree {
node [shape=box, style="filled, rounded", color="black", fontname=helvetica] ;
edge [fontname=helvetica] ;
0 [label="JobShiftRotating <= -0.5\ngini = 0.04\nsamples = 42582\nvalue = [66222, 1202]\nclass = 0", fillcolor="#e58139fa"] ;
1 [label="ApplyDate <= 1220.0\ngini = 0.41\nsamples = 170\nvalue = [190, 79]\nclass = 0", fillcolor="#e5813995"] ;
0 -> 1 [labeldistance=2.5, labelangle=45, headlabel="True"] ;
2 [label="TotalYearsOfExp <= 0.0\ngini = 0.47\nsamples = 114\nvalue = [110, 65]\nclass = 0", fillcolor="#e5813968"] ;
1 -> 2 ;
3 [label="InternalEmployee <= 0.5\ngini = 0.5\nsamples = 87\nvalue = [71, 65]\nclass = 0", fillcolor="#e5813916"] ;
2 -> 3 ;
4 [label="ApplicationType <= 1.0\ngini = 0.48\nsamples = 73\nvalue = [69, 44]\nclass = 0", fillcolor="#e581395c"] ;
3 -> 4 ;
5 [label="gini = 0.5\nsamples = 60\nvalue = [52, 43]\nclass = 0", fillcolor="#e581392c"] ;
4 -> 5 ;
6 [label="gini = 0.1\nsamples = 13\nvalue = [17, 1]\nclass = 0", fillcolor="#e58139f0"] ;
4 -> 6 ;
7 [label="gini = 0.16\nsamples = 14\nvalue = [2, 21]\nclass = 1", fillcolor="#399de5e7"] ;
3 -> 7 ;
8 [label="gini = 0.0\nsamples = 27\nvalue = [39, 0]\nclass = 0", fillcolor="#e58139ff"] ;
2 -> 8 ;
9 [label="ApplyDate <= 1777.5\ngini = 0.25\nsamples = 56\nvalue = [80, 14]\nclass = 0", fillcolor="#e58139d2"] ;
1 -> 9 ;
10 [label="PokemonTrainerClass <= 3.5\ngini = 0.23\nsamples = 55\nvalue = [80, 12]\nclass = 0", fillcolor="#e58139d9"] ;
9 -> 10 ;
11 [label="gini = 0.0\nsamples = 14\nvalue = [30, 0]\nclass = 0", fillcolor="#e58139ff"] ;
10 -> 11 ;
12 [label="gini = 0.31\nsamples = 41\nvalue = [50, 12]\nclass = 0", fillcolor="#e58139c2"] ;
10 -> 12 ;
13 [label="gini = 0.0\nsamples = 1\nvalue = [0, 2]\nclass = 1", fillcolor="#399de5ff"] ;
9 -> 13 ;
14 [label="RecentTrainingExperience1PayRateEndFreq <= 0.5\ngini = 0.03\nsamples = 42412\nvalue = [66032, 1123]\nclass = 0", fillcolor="#e58139fb"] ;
0 -> 14 [labeldistance=2.5, labelangle=-45, headlabel="False"] ;
15 [label="LastPerformaceRating <= -0.5\ngini = 0.06\nsamples = 12203\nvalue = [18703, 582]\nclass = 0", fillcolor="#e58139f7"] ;
14 -> 15 ;
16 [label="PositionForTrainingPokemon <= 11.5\ngini = 0.03\nsamples = 9639\nvalue = [14971, 257]\nclass = 0", fillcolor="#e58139fb"] ;
15 -> 16 ;
17 [label="CurrentlyEmployed <= 0.5\ngini = 0.04\nsamples = 6237\nvalue = [9636, 195]\nclass = 0", fillcolor="#e58139fa"] ;
16 -> 17 ;
18 [label="gini = 0.03\nsamples = 3190\nvalue = [4978, 78]\nclass = 0", fillcolor="#e58139fb"] ;
17 -> 18 ;
19 [label="gini = 0.05\nsamples = 3047\nvalue = [4658, 117]\nclass = 0", fillcolor="#e58139f9"] ;
17 -> 19 ;
20 [label="CurrentlyWorkInThisRegion <= 0.5\ngini = 0.02\nsamples = 3402\nvalue = [5335, 62]\nclass = 0", fillcolor="#e58139fc"] ;
16 -> 20 ;
21 [label="gini = 0.02\nsamples = 3335\nvalue = [5244, 51]\nclass = 0", fillcolor="#e58139fd"] ;
20 -> 21 ;
22 [label="gini = 0.19\nsamples = 67\nvalue = [91, 11]\nclass = 0", fillcolor="#e58139e0"] ;
20 -> 22 ;
23 [label="JobStatusPartTime <= 0.5\ngini = 0.15\nsamples = 2564\nvalue = [3732, 325]\nclass = 0", fillcolor="#e58139e9"] ;
15 -> 23 ;
24 [label="GraduateSchoolGraduate <= 0.5\ngini = 0.18\nsamples = 1681\nvalue = [2374, 265]\nclass = 0", fillcolor="#e58139e3"] ;
23 -> 24 ;
25 [label="gini = 0.17\nsamples = 1591\nvalue = [2265, 230]\nclass = 0", fillcolor="#e58139e5"] ;
24 -> 25 ;
26 [label="gini = 0.37\nsamples = 90\nvalue = [109, 35]\nclass = 0", fillcolor="#e58139ad"] ;
24 -> 26 ;
27 [label="ApplicationType <= 1.0\ngini = 0.08\nsamples = 883\nvalue = [1358, 60]\nclass = 0", fillcolor="#e58139f4"] ;
23 -> 27 ;
28 [label="gini = 0.06\nsamples = 862\nvalue = [1336, 45]\nclass = 0", fillcolor="#e58139f6"] ;
27 -> 28 ;
29 [label="gini = 0.48\nsamples = 21\nvalue = [22, 15]\nclass = 0", fillcolor="#e5813951"] ;
27 -> 29 ;
30 [label="RecentTrainingExperience2Pokemon <= 10.5\ngini = 0.02\nsamples = 30209\nvalue = [47329, 541]\nclass = 0", fillcolor="#e58139fc"] ;
14 -> 30 ;
31 [label="RecentTrainingExperience4PayRateEndValue <= 1353.5\ngini = 0.02\nsamples = 21542\nvalue = [33778, 340]\nclass = 0", fillcolor="#e58139fc"] ;
30 -> 31 ;
32 [label="HighEduLevelCompleted <= -0.5\ngini = 0.02\nsamples = 21529\nvalue = [33762, 337]\nclass = 0", fillcolor="#e58139fc"] ;
31 -> 32 ;
33 [label="gini = 0.22\nsamples = 100\nvalue = [137, 20]\nclass = 0", fillcolor="#e58139da"] ;
32 -> 33 ;
34 [label="gini = 0.02\nsamples = 21429\nvalue = [33625, 317]\nclass = 0", fillcolor="#e58139fd"] ;
32 -> 34 ;
35 [label="gini = 0.27\nsamples = 13\nvalue = [16, 3]\nclass = 0", fillcolor="#e58139cf"] ;
31 -> 35 ;
36 [label="WorkedInThisRegion <= 0.5\ngini = 0.03\nsamples = 8667\nvalue = [13551, 201]\nclass = 0", fillcolor="#e58139fb"] ;
30 -> 36 ;
37 [label="TotalYearsOfExp <= 0.0\ngini = 0.02\nsamples = 7815\nvalue = [12272, 157]\nclass = 0", fillcolor="#e58139fc"] ;
36 -> 37 ;
38 [label="gini = 0.34\nsamples = 175\nvalue = [203, 57]\nclass = 0", fillcolor="#e58139b7"] ;
37 -> 38 ;
39 [label="gini = 0.02\nsamples = 7640\nvalue = [12069, 100]\nclass = 0", fillcolor="#e58139fd"] ;
37 -> 39 ;
40 [label="RecentTrainingExperience1PayRateEndValue <= 2339.5\ngini = 0.06\nsamples = 852\nvalue = [1279, 44]\nclass = 0", fillcolor="#e58139f6"] ;
36 -> 40 ;
41 [label="gini = 0.03\nsamples = 659\nvalue = [1016, 18]\nclass = 0", fillcolor="#e58139fa"] ;
40 -> 41 ;
42 [label="gini = 0.16\nsamples = 193\nvalue = [263, 26]\nclass = 0", fillcolor="#e58139e6"] ;
40 -> 42 ;
}