digraph Tree {
node [shape=box, style="filled, rounded", color="black", fontname=helvetica] ;
edge [fontname=helvetica] ;
0 [label="GymBadgeTemp4 <= -0.5\ngini = 0.03\nsamples = 42625\nvalue = [66225, 1199]\nclass = 0", fillcolor="#e58139fa"] ;
1 [label="RecentTrainingExperience2Pokemon <= -0.5\ngini = 0.16\nsamples = 2831\nvalue = [4022, 392]\nclass = 0", fillcolor="#e58139e6"] ;
0 -> 1 [labeldistance=2.5, labelangle=45, headlabel="True"] ;
2 [label="HighEduLevelCompleted <= -0.5\ngini = 0.19\nsamples = 1636\nvalue = [2259, 262]\nclass = 0", fillcolor="#e58139e1"] ;
1 -> 2 ;
3 [label="JobShiftEvening <= 0.5\ngini = 0.41\nsamples = 233\nvalue = [260, 104]\nclass = 0", fillcolor="#e5813999"] ;
2 -> 3 ;
4 [label="JobPostingDate <= 15.5\ngini = 0.44\nsamples = 185\nvalue = [192, 93]\nclass = 0", fillcolor="#e5813983"] ;
3 -> 4 ;
5 [label="gini = 0.0\nsamples = 50\nvalue = [81, 0]\nclass = 0", fillcolor="#e58139ff"] ;
4 -> 5 ;
6 [label="gini = 0.5\nsamples = 135\nvalue = [111, 93]\nclass = 0", fillcolor="#e5813929"] ;
4 -> 6 ;
7 [label="gini = 0.24\nsamples = 48\nvalue = [68, 11]\nclass = 0", fillcolor="#e58139d6"] ;
3 -> 7 ;
8 [label="RecentTrainingExperience1From <= 487.5\ngini = 0.14\nsamples = 1403\nvalue = [1999, 158]\nclass = 0", fillcolor="#e58139eb"] ;
2 -> 8 ;
9 [label="HighEduLevelCompleted <= 7.0\ngini = 0.13\nsamples = 1393\nvalue = [1992, 148]\nclass = 0", fillcolor="#e58139ec"] ;
8 -> 9 ;
10 [label="gini = 0.11\nsamples = 1328\nvalue = [1913, 124]\nclass = 0", fillcolor="#e58139ee"] ;
9 -> 10 ;
11 [label="gini = 0.36\nsamples = 65\nvalue = [79, 24]\nclass = 0", fillcolor="#e58139b2"] ;
9 -> 11 ;
12 [label="gini = 0.48\nsamples = 10\nvalue = [7, 10]\nclass = 1", fillcolor="#399de54d"] ;
8 -> 12 ;
13 [label="JobShiftEvening <= 0.5\ngini = 0.13\nsamples = 1195\nvalue = [1763, 130]\nclass = 0", fillcolor="#e58139ec"] ;
1 -> 13 ;
14 [label="RecentTrainingExperience2From <= 393.5\ngini = 0.18\nsamples = 627\nvalue = [908, 98]\nclass = 0", fillcolor="#e58139e3"] ;
13 -> 14 ;
15 [label="GymBadge2Pokemon <= 0.0\ngini = 0.27\nsamples = 218\nvalue = [299, 57]\nclass = 0", fillcolor="#e58139ce"] ;
14 -> 15 ;
16 [label="gini = 0.29\nsamples = 194\nvalue = [258, 55]\nclass = 0", fillcolor="#e58139c9"] ;
15 -> 16 ;
17 [label="gini = 0.09\nsamples = 24\nvalue = [41, 2]\nclass = 0", fillcolor="#e58139f3"] ;
15 -> 17 ;
18 [label="CurrentlyTrainingPokemon <= 27.5\ngini = 0.12\nsamples = 409\nvalue = [609, 41]\nclass = 0", fillcolor="#e58139ee"] ;
14 -> 18 ;
19 [label="gini = 0.13\nsamples = 379\nvalue = [555, 41]\nclass = 0", fillcolor="#e58139ec"] ;
18 -> 19 ;
20 [label="gini = 0.0\nsamples = 30\nvalue = [54, 0]\nclass = 0", fillcolor="#e58139ff"] ;
18 -> 20 ;
21 [label="RecentTrainingExperience3To <= 336.5\ngini = 0.07\nsamples = 568\nvalue = [855, 32]\nclass = 0", fillcolor="#e58139f5"] ;
13 -> 21 ;
22 [label="GraduateSchoolGraduate <= 0.5\ngini = 0.1\nsamples = 300\nvalue = [438, 25]\nclass = 0", fillcolor="#e58139f0"] ;
21 -> 22 ;
23 [label="gini = 0.09\nsamples = 285\nvalue = [419, 21]\nclass = 0", fillcolor="#e58139f2"] ;
22 -> 23 ;
24 [label="gini = 0.29\nsamples = 15\nvalue = [19, 4]\nclass = 0", fillcolor="#e58139c9"] ;
22 -> 24 ;
25 [label="TotalYearsOfExp <= 0.0\ngini = 0.03\nsamples = 268\nvalue = [417, 7]\nclass = 0", fillcolor="#e58139fb"] ;
21 -> 25 ;
26 [label="gini = 0.43\nsamples = 9\nvalue = [9, 4]\nclass = 0", fillcolor="#e581398e"] ;
25 -> 26 ;
27 [label="gini = 0.01\nsamples = 259\nvalue = [408, 3]\nclass = 0", fillcolor="#e58139fd"] ;
25 -> 27 ;
28 [label="GymBadgePerm1 <= 0.5\ngini = 0.03\nsamples = 39794\nvalue = [62203, 807]\nclass = 0", fillcolor="#e58139fc"] ;
0 -> 28 [labeldistance=2.5, labelangle=-45, headlabel="False"] ;
29 [label="GymBadgeTemp4 <= 0.5\ngini = 0.02\nsamples = 26633\nvalue = [41638, 415]\nclass = 0", fillcolor="#e58139fc"] ;
28 -> 29 ;
30 [label="GraduateSchoolGPA <= 3.99\ngini = 0.02\nsamples = 26529\nvalue = [41475, 406]\nclass = 0", fillcolor="#e58139fd"] ;
29 -> 30 ;
31 [label="WorkedInThisRegion <= 0.5\ngini = 0.02\nsamples = 26444\nvalue = [41344, 394]\nclass = 0", fillcolor="#e58139fd"] ;
30 -> 31 ;
32 [label="gini = 0.02\nsamples = 24630\nvalue = [38480, 348]\nclass = 0", fillcolor="#e58139fd"] ;
31 -> 32 ;
33 [label="gini = 0.03\nsamples = 1814\nvalue = [2864, 46]\nclass = 0", fillcolor="#e58139fb"] ;
31 -> 33 ;
34 [label="JobPostingDate <= 906.0\ngini = 0.15\nsamples = 85\nvalue = [131, 12]\nclass = 0", fillcolor="#e58139e8"] ;
30 -> 34 ;
35 [label="gini = 0.06\nsamples = 58\nvalue = [95, 3]\nclass = 0", fillcolor="#e58139f7"] ;
34 -> 35 ;
36 [label="gini = 0.32\nsamples = 27\nvalue = [36, 9]\nclass = 0", fillcolor="#e58139bf"] ;
34 -> 36 ;
37 [label="RecentTrainingExperience1To <= 212.5\ngini = 0.1\nsamples = 104\nvalue = [163, 9]\nclass = 0", fillcolor="#e58139f1"] ;
29 -> 37 ;
38 [label="PositionForTrainingPokemon <= -0.5\ngini = 0.06\nsamples = 88\nvalue = [136, 4]\nclass = 0", fillcolor="#e58139f8"] ;
37 -> 38 ;
39 [label="gini = 0.17\nsamples = 26\nvalue = [39, 4]\nclass = 0", fillcolor="#e58139e5"] ;
38 -> 39 ;
40 [label="gini = 0.0\nsamples = 62\nvalue = [97, 0]\nclass = 0", fillcolor="#e58139ff"] ;
38 -> 40 ;
41 [label="gini = 0.26\nsamples = 16\nvalue = [27, 5]\nclass = 0", fillcolor="#e58139d0"] ;
37 -> 41 ;
42 [label="GraduateSchoolGPA <= 3.78\ngini = 0.04\nsamples = 13161\nvalue = [20565, 392]\nclass = 0", fillcolor="#e58139fa"] ;
28 -> 42 ;
43 [label="JobShiftRotating <= 0.5\ngini = 0.03\nsamples = 12903\nvalue = [20181, 365]\nclass = 0", fillcolor="#e58139fa"] ;
42 -> 43 ;
44 [label="GraduateSchoolGraduate <= 0.5\ngini = 0.04\nsamples = 6993\nvalue = [10902, 256]\nclass = 0", fillcolor="#e58139f9"] ;
43 -> 44 ;
45 [label="gini = 0.04\nsamples = 6278\nvalue = [9818, 208]\nclass = 0", fillcolor="#e58139fa"] ;
44 -> 45 ;
46 [label="gini = 0.08\nsamples = 715\nvalue = [1084, 48]\nclass = 0", fillcolor="#e58139f4"] ;
44 -> 46 ;
47 [label="RecentTrainingExperience3Pokemon <= 25.5\ngini = 0.02\nsamples = 5910\nvalue = [9279, 109]\nclass = 0", fillcolor="#e58139fc"] ;
43 -> 47 ;
48 [label="gini = 0.02\nsamples = 5528\nvalue = [8690, 93]\nclass = 0", fillcolor="#e58139fc"] ;
47 -> 48 ;
49 [label="gini = 0.05\nsamples = 382\nvalue = [589, 16]\nclass = 0", fillcolor="#e58139f8"] ;
47 -> 49 ;
50 [label="JobSchedule <= 7.0\ngini = 0.12\nsamples = 258\nvalue = [384, 27]\nclass = 0", fillcolor="#e58139ed"] ;
42 -> 50 ;
51 [label="ApplicationType <= 1.0\ngini = 0.1\nsamples = 252\nvalue = [381, 21]\nclass = 0", fillcolor="#e58139f1"] ;
50 -> 51 ;
52 [label="gini = 0.09\nsamples = 241\nvalue = [365, 17]\nclass = 0", fillcolor="#e58139f3"] ;
51 -> 52 ;
53 [label="gini = 0.32\nsamples = 11\nvalue = [16, 4]\nclass = 0", fillcolor="#e58139bf"] ;
51 -> 53 ;
54 [label="gini = 0.44\nsamples = 6\nvalue = [3, 6]\nclass = 1", fillcolor="#399de57f"] ;
50 -> 54 ;
}