digraph Tree {
node [shape=box, style="filled, rounded", color="black", fontname=helvetica] ;
edge [fontname=helvetica] ;
0 [label="GymBadgeTemp4 <= -0.5\ngini = 0.04\nsamples = 42725\nvalue = [66182, 1242]\nclass = 0", fillcolor="#e58139fa"] ;
1 [label="JobShiftNight <= -0.5\ngini = 0.17\nsamples = 2781\nvalue = [3928, 414]\nclass = 0", fillcolor="#e58139e4"] ;
0 -> 1 [labeldistance=2.5, labelangle=45, headlabel="True"] ;
2 [label="JobSchedule <= 5.5\ngini = 0.43\nsamples = 171\nvalue = [180, 81]\nclass = 0", fillcolor="#e581398c"] ;
1 -> 2 ;
3 [label="PokemonTrainerClass <= 2.5\ngini = 0.46\nsamples = 125\nvalue = [127, 69]\nclass = 0", fillcolor="#e5813974"] ;
2 -> 3 ;
4 [label="gini = 0.35\nsamples = 4\nvalue = [2, 7]\nclass = 1", fillcolor="#399de5b6"] ;
3 -> 4 ;
5 [label="RecentTrainingExperienceContactForRefNA <= -0.5\ngini = 0.44\nsamples = 121\nvalue = [125, 62]\nclass = 0", fillcolor="#e5813981"] ;
3 -> 5 ;
6 [label="gini = 0.45\nsamples = 117\nvalue = [117, 62]\nclass = 0", fillcolor="#e5813978"] ;
5 -> 6 ;
7 [label="gini = 0.0\nsamples = 4\nvalue = [8, 0]\nclass = 0", fillcolor="#e58139ff"] ;
5 -> 7 ;
8 [label="gini = 0.3\nsamples = 46\nvalue = [53, 12]\nclass = 0", fillcolor="#e58139c5"] ;
2 -> 8 ;
9 [label="JobStatusPartTime <= 0.5\ngini = 0.15\nsamples = 2610\nvalue = [3748, 333]\nclass = 0", fillcolor="#e58139e8"] ;
1 -> 9 ;
10 [label="ApplicationType <= 1.0\ngini = 0.19\nsamples = 1730\nvalue = [2409, 284]\nclass = 0", fillcolor="#e58139e1"] ;
9 -> 10 ;
11 [label="JobStatusFlexTime <= 0.5\ngini = 0.17\nsamples = 1671\nvalue = [2365, 241]\nclass = 0", fillcolor="#e58139e5"] ;
10 -> 11 ;
12 [label="gini = 0.17\nsamples = 1610\nvalue = [2266, 235]\nclass = 0", fillcolor="#e58139e5"] ;
11 -> 12 ;
13 [label="gini = 0.11\nsamples = 61\nvalue = [99, 6]\nclass = 0", fillcolor="#e58139f0"] ;
11 -> 13 ;
14 [label="JobShiftWeekend <= 0.5\ngini = 0.5\nsamples = 59\nvalue = [44, 43]\nclass = 0", fillcolor="#e5813906"] ;
10 -> 14 ;
15 [label="gini = 0.47\nsamples = 43\nvalue = [23, 37]\nclass = 1", fillcolor="#399de560"] ;
14 -> 15 ;
16 [label="gini = 0.35\nsamples = 16\nvalue = [21, 6]\nclass = 0", fillcolor="#e58139b6"] ;
14 -> 16 ;
17 [label="RecentTrainingExperience3To <= 158.5\ngini = 0.07\nsamples = 880\nvalue = [1339, 49]\nclass = 0", fillcolor="#e58139f6"] ;
9 -> 17 ;
18 [label="JobShiftNight <= 0.5\ngini = 0.1\nsamples = 358\nvalue = [548, 31]\nclass = 0", fillcolor="#e58139f1"] ;
17 -> 18 ;
19 [label="gini = 0.15\nsamples = 156\nvalue = [223, 20]\nclass = 0", fillcolor="#e58139e8"] ;
18 -> 19 ;
20 [label="gini = 0.06\nsamples = 202\nvalue = [325, 11]\nclass = 0", fillcolor="#e58139f6"] ;
18 -> 20 ;
21 [label="RecentTrainingExperience3To <= 417.5\ngini = 0.04\nsamples = 522\nvalue = [791, 18]\nclass = 0", fillcolor="#e58139f9"] ;
17 -> 21 ;
22 [label="gini = 0.04\nsamples = 498\nvalue = [758, 14]\nclass = 0", fillcolor="#e58139fa"] ;
21 -> 22 ;
23 [label="gini = 0.19\nsamples = 24\nvalue = [33, 4]\nclass = 0", fillcolor="#e58139e0"] ;
21 -> 23 ;
24 [label="JobStatusPerDiem <= 0.5\ngini = 0.03\nsamples = 39944\nvalue = [62254, 828]\nclass = 0", fillcolor="#e58139fc"] ;
0 -> 24 [labeldistance=2.5, labelangle=-45, headlabel="False"] ;
25 [label="ApplicationType <= 1.0\ngini = 0.02\nsamples = 32189\nvalue = [50218, 591]\nclass = 0", fillcolor="#e58139fc"] ;
24 -> 25 ;
26 [label="WorkedInThisRegion <= 0.5\ngini = 0.02\nsamples = 31626\nvalue = [49526, 389]\nclass = 0", fillcolor="#e58139fd"] ;
25 -> 26 ;
27 [label="RecentTrainingExperience2To <= 416.5\ngini = 0.01\nsamples = 29293\nvalue = [45934, 317]\nclass = 0", fillcolor="#e58139fd"] ;
26 -> 27 ;
28 [label="gini = 0.01\nsamples = 25743\nvalue = [40364, 254]\nclass = 0", fillcolor="#e58139fd"] ;
27 -> 28 ;
29 [label="gini = 0.02\nsamples = 3550\nvalue = [5570, 63]\nclass = 0", fillcolor="#e58139fc"] ;
27 -> 29 ;
30 [label="RecentTrainingExperience3PayRateEndValue <= 1376.0\ngini = 0.04\nsamples = 2333\nvalue = [3592, 72]\nclass = 0", fillcolor="#e58139fa"] ;
26 -> 30 ;
31 [label="gini = 0.05\nsamples = 1928\nvalue = [2935, 70]\nclass = 0", fillcolor="#e58139f9"] ;
30 -> 31 ;
32 [label="gini = 0.01\nsamples = 405\nvalue = [657, 2]\nclass = 0", fillcolor="#e58139fe"] ;
30 -> 32 ;
33 [label="RecentTrainingExperienceContactForRefNA <= -0.5\ngini = 0.35\nsamples = 563\nvalue = [692, 202]\nclass = 0", fillcolor="#e58139b5"] ;
25 -> 33 ;
34 [label="RecentTrainingExperience4To <= 393.5\ngini = 0.46\nsamples = 200\nvalue = [197, 113]\nclass = 0", fillcolor="#e581396d"] ;
33 -> 34 ;
35 [label="gini = 0.45\nsamples = 198\nvalue = [197, 106]\nclass = 0", fillcolor="#e5813976"] ;
34 -> 35 ;
36 [label="gini = 0.0\nsamples = 2\nvalue = [0, 7]\nclass = 1", fillcolor="#399de5ff"] ;
34 -> 36 ;
37 [label="GymBadge1Pokemon <= 9.5\ngini = 0.26\nsamples = 363\nvalue = [495, 89]\nclass = 0", fillcolor="#e58139d1"] ;
33 -> 37 ;
38 [label="gini = 0.18\nsamples = 293\nvalue = [425, 47]\nclass = 0", fillcolor="#e58139e3"] ;
37 -> 38 ;
39 [label="gini = 0.47\nsamples = 70\nvalue = [70, 42]\nclass = 0", fillcolor="#e5813966"] ;
37 -> 39 ;
40 [label="JobStatusPartTime <= 0.5\ngini = 0.04\nsamples = 7755\nvalue = [12036, 237]\nclass = 0", fillcolor="#e58139fa"] ;
24 -> 40 ;
41 [label="UndergradSchoolGPA <= 3.38\ngini = 0.11\nsamples = 451\nvalue = [653, 42]\nclass = 0", fillcolor="#e58139ef"] ;
40 -> 41 ;
42 [label="JobShiftRotating <= 0.5\ngini = 0.08\nsamples = 407\nvalue = [609, 28]\nclass = 0", fillcolor="#e58139f3"] ;
41 -> 42 ;
43 [label="gini = 0.12\nsamples = 275\nvalue = [395, 26]\nclass = 0", fillcolor="#e58139ee"] ;
42 -> 43 ;
44 [label="gini = 0.02\nsamples = 132\nvalue = [214, 2]\nclass = 0", fillcolor="#e58139fd"] ;
42 -> 44 ;
45 [label="gini = 0.37\nsamples = 44\nvalue = [44, 14]\nclass = 0", fillcolor="#e58139ae"] ;
41 -> 45 ;
46 [label="HighEduLevelCompleted <= -0.5\ngini = 0.03\nsamples = 7304\nvalue = [11383, 195]\nclass = 0", fillcolor="#e58139fb"] ;
40 -> 46 ;
47 [label="gini = 0.4\nsamples = 25\nvalue = [32, 12]\nclass = 0", fillcolor="#e581399f"] ;
46 -> 47 ;
48 [label="RecentTrainingExperience2PayRateEndValue <= 1787.5\ngini = 0.03\nsamples = 7279\nvalue = [11351, 183]\nclass = 0", fillcolor="#e58139fb"] ;
46 -> 48 ;
49 [label="gini = 0.04\nsamples = 5706\nvalue = [8836, 167]\nclass = 0", fillcolor="#e58139fa"] ;
48 -> 49 ;
50 [label="gini = 0.01\nsamples = 1573\nvalue = [2515, 16]\nclass = 0", fillcolor="#e58139fd"] ;
48 -> 50 ;
}