digraph Tree {
node [shape=box, style="filled, rounded", color="black", fontname=helvetica] ;
edge [fontname=helvetica] ;
0 [label="GymBadgeTemp2 <= -0.5\ngini = 0.03\nsamples = 42711\nvalue = [66224, 1200]\nclass = 0", fillcolor="#e58139fa"] ;
1 [label="RecentTrainingExperience2To <= 234.5\ngini = 0.16\nsamples = 2789\nvalue = [4037, 399]\nclass = 0", fillcolor="#e58139e6"] ;
0 -> 1 [labeldistance=2.5, labelangle=45, headlabel="True"] ;
2 [label="JobStatusFlexTime <= -0.5\ngini = 0.26\nsamples = 963\nvalue = [1320, 235]\nclass = 0", fillcolor="#e58139d2"] ;
1 -> 2 ;
3 [label="JobPostingDate <= 22.5\ngini = 0.38\nsamples = 156\nvalue = [194, 67]\nclass = 0", fillcolor="#e58139a7"] ;
2 -> 3 ;
4 [label="PokemonWorldRegion <= 2.5\ngini = 0.02\nsamples = 67\nvalue = [115, 1]\nclass = 0", fillcolor="#e58139fd"] ;
3 -> 4 ;
5 [label="gini = 0.03\nsamples = 36\nvalue = [59, 1]\nclass = 0", fillcolor="#e58139fb"] ;
4 -> 5 ;
6 [label="gini = 0.0\nsamples = 31\nvalue = [56, 0]\nclass = 0", fillcolor="#e58139ff"] ;
4 -> 6 ;
7 [label="RecentTrainingExperienceContactForRefYes <= -0.5\ngini = 0.5\nsamples = 89\nvalue = [79, 66]\nclass = 0", fillcolor="#e581392a"] ;
3 -> 7 ;
8 [label="gini = 0.5\nsamples = 84\nvalue = [73, 66]\nclass = 0", fillcolor="#e5813918"] ;
7 -> 8 ;
9 [label="gini = 0.0\nsamples = 5\nvalue = [6, 0]\nclass = 0", fillcolor="#e58139ff"] ;
7 -> 9 ;
10 [label="InternalEmployee <= 0.5\ngini = 0.23\nsamples = 807\nvalue = [1126, 168]\nclass = 0", fillcolor="#e58139d9"] ;
2 -> 10 ;
11 [label="gini = 0.28\nsamples = 3\nvalue = [1, 5]\nclass = 1", fillcolor="#399de5cc"] ;
10 -> 11 ;
12 [label="ApplicationType <= 1.0\ngini = 0.22\nsamples = 804\nvalue = [1125, 163]\nclass = 0", fillcolor="#e58139da"] ;
10 -> 12 ;
13 [label="gini = 0.2\nsamples = 777\nvalue = [1106, 136]\nclass = 0", fillcolor="#e58139e0"] ;
12 -> 13 ;
14 [label="gini = 0.48\nsamples = 27\nvalue = [19, 27]\nclass = 1", fillcolor="#399de54c"] ;
12 -> 14 ;
15 [label="HighEduLevelCompleted <= -0.5\ngini = 0.11\nsamples = 1826\nvalue = [2717, 164]\nclass = 0", fillcolor="#e58139f0"] ;
1 -> 15 ;
16 [label="RecentTrainingExperience1Pokemon <= 13.5\ngini = 0.36\nsamples = 95\nvalue = [106, 33]\nclass = 0", fillcolor="#e58139b0"] ;
15 -> 16 ;
17 [label="ApplicationType <= 1.0\ngini = 0.41\nsamples = 67\nvalue = [72, 29]\nclass = 0", fillcolor="#e5813998"] ;
16 -> 17 ;
18 [label="gini = 0.05\nsamples = 27\nvalue = [37, 1]\nclass = 0", fillcolor="#e58139f8"] ;
17 -> 18 ;
19 [label="gini = 0.49\nsamples = 40\nvalue = [35, 28]\nclass = 0", fillcolor="#e5813933"] ;
17 -> 19 ;
20 [label="gini = 0.19\nsamples = 28\nvalue = [34, 4]\nclass = 0", fillcolor="#e58139e1"] ;
16 -> 20 ;
21 [label="JobShiftEvening <= 0.5\ngini = 0.09\nsamples = 1731\nvalue = [2611, 131]\nclass = 0", fillcolor="#e58139f2"] ;
15 -> 21 ;
22 [label="GraduateSchoolGraduate <= -0.5\ngini = 0.13\nsamples = 841\nvalue = [1236, 92]\nclass = 0", fillcolor="#e58139ec"] ;
21 -> 22 ;
23 [label="gini = 0.11\nsamples = 722\nvalue = [1068, 64]\nclass = 0", fillcolor="#e58139f0"] ;
22 -> 23 ;
24 [label="gini = 0.24\nsamples = 119\nvalue = [168, 28]\nclass = 0", fillcolor="#e58139d4"] ;
22 -> 24 ;
25 [label="HighEduLevelCompleted <= 7.0\ngini = 0.05\nsamples = 890\nvalue = [1375, 39]\nclass = 0", fillcolor="#e58139f8"] ;
21 -> 25 ;
26 [label="gini = 0.04\nsamples = 870\nvalue = [1352, 31]\nclass = 0", fillcolor="#e58139f9"] ;
25 -> 26 ;
27 [label="gini = 0.38\nsamples = 20\nvalue = [23, 8]\nclass = 0", fillcolor="#e58139a6"] ;
25 -> 27 ;
28 [label="GraduateSchoolGraduate <= 0.5\ngini = 0.03\nsamples = 39922\nvalue = [62187, 801]\nclass = 0", fillcolor="#e58139fc"] ;
0 -> 28 [labeldistance=2.5, labelangle=-45, headlabel="False"] ;
29 [label="PositionForTrainingPokemon <= 0.5\ngini = 0.02\nsamples = 37233\nvalue = [58055, 697]\nclass = 0", fillcolor="#e58139fc"] ;
28 -> 29 ;
30 [label="JobShiftWeekend <= 0.5\ngini = 0.03\nsamples = 9299\nvalue = [14455, 236]\nclass = 0", fillcolor="#e58139fb"] ;
29 -> 30 ;
31 [label="ApplicationType <= 1.0\ngini = 0.05\nsamples = 3535\nvalue = [5420, 129]\nclass = 0", fillcolor="#e58139f9"] ;
30 -> 31 ;
32 [label="gini = 0.03\nsamples = 3476\nvalue = [5350, 93]\nclass = 0", fillcolor="#e58139fb"] ;
31 -> 32 ;
33 [label="gini = 0.45\nsamples = 59\nvalue = [70, 36]\nclass = 0", fillcolor="#e581397c"] ;
31 -> 33 ;
34 [label="GymBadgePerm4 <= 0.5\ngini = 0.02\nsamples = 5764\nvalue = [9035, 107]\nclass = 0", fillcolor="#e58139fc"] ;
30 -> 34 ;
35 [label="gini = 0.02\nsamples = 5539\nvalue = [8673, 93]\nclass = 0", fillcolor="#e58139fc"] ;
34 -> 35 ;
36 [label="gini = 0.07\nsamples = 225\nvalue = [362, 14]\nclass = 0", fillcolor="#e58139f5"] ;
34 -> 36 ;
37 [label="HighEduLevelCompleted <= 3.5\ngini = 0.02\nsamples = 27934\nvalue = [43600, 461]\nclass = 0", fillcolor="#e58139fc"] ;
29 -> 37 ;
38 [label="ApplicationType <= 1.0\ngini = 0.03\nsamples = 7890\nvalue = [12281, 190]\nclass = 0", fillcolor="#e58139fb"] ;
37 -> 38 ;
39 [label="gini = 0.02\nsamples = 7729\nvalue = [12108, 116]\nclass = 0", fillcolor="#e58139fd"] ;
38 -> 39 ;
40 [label="gini = 0.42\nsamples = 161\nvalue = [173, 74]\nclass = 0", fillcolor="#e5813992"] ;
38 -> 40 ;
41 [label="CurrentlyWorkInThisRegion <= 0.5\ngini = 0.02\nsamples = 20044\nvalue = [31319, 271]\nclass = 0", fillcolor="#e58139fd"] ;
37 -> 41 ;
42 [label="gini = 0.02\nsamples = 19728\nvalue = [30850, 256]\nclass = 0", fillcolor="#e58139fd"] ;
41 -> 42 ;
43 [label="gini = 0.06\nsamples = 316\nvalue = [469, 15]\nclass = 0", fillcolor="#e58139f7"] ;
41 -> 43 ;
44 [label="RecentTrainingExperience4From <= 509.5\ngini = 0.05\nsamples = 2689\nvalue = [4132, 104]\nclass = 0", fillcolor="#e58139f9"] ;
28 -> 44 ;
45 [label="RecentTrainingExperience4PayRateEndValue <= 1370.5\ngini = 0.05\nsamples = 2687\nvalue = [4130, 103]\nclass = 0", fillcolor="#e58139f9"] ;
44 -> 45 ;
46 [label="PositionForTrainingPokemon <= 3.5\ngini = 0.05\nsamples = 2686\nvalue = [4130, 102]\nclass = 0", fillcolor="#e58139f9"] ;
45 -> 46 ;
47 [label="gini = 0.06\nsamples = 1008\nvalue = [1541, 51]\nclass = 0", fillcolor="#e58139f7"] ;
46 -> 47 ;
48 [label="gini = 0.04\nsamples = 1678\nvalue = [2589, 51]\nclass = 0", fillcolor="#e58139fa"] ;
46 -> 48 ;
49 [label="gini = 0.0\nsamples = 1\nvalue = [0, 1]\nclass = 1", fillcolor="#399de5ff"] ;
45 -> 49 ;
50 [label="gini = 0.44\nsamples = 2\nvalue = [2, 1]\nclass = 0", fillcolor="#e581397f"] ;
44 -> 50 ;
}